{"_model_file": "learned_model_file.libsvm_21643", "_tmp_folder_location": "/tmp/tmpbQaWYj", "_file_suffix": 21643, "normalization_min_values": [0.0, 0.0, 0.0, 0.0, 0.0, 0, 0.0, 0.0, 0.0, 0, 0, 0, 0, 0, 0, 0, 0, 0, 0, 0, 0, 0, 0, 0, 0, 0, 0, 0, 0, 0, 0, 0, 0, 0, 0, 0.0, 0.0, 0.0, 0, 0, 0, 0, 0, 0, 0, 0, 0, 0, 0, 0, 0, 0, 0, 0, 0, 0, 0, 0, 0, 0, 0, 0, 0, 0, 0, 0, 0, 0, 0, 0, 0, 0, 0, 0, 0, 0, 0, 0, 0, 0, 0, 0, 0, 0, 0, 0, 0, 0, 0, 0, 0.0, 0.04407578586514034, 0, 0, 0, 0, 0, 0, 0, 0, 0, 0, 0, 0, 0, 0, 0, 0, 0, 0, 0, 0, 0, 0, 0, 0, 0, 0], "model_file_data": "svm_type c_svc\nkernel_type rbf\ngamma 0.015625\nnr_class 2\ntotal_sv 2825\nrho -0.0533232\nlabel 2 1\nnr_sv 1659 1166\nSV\n8 1:0.15403188 2:1.8347007 3:0.4462871 4:0.099845335 5:0 6:0.69314718 7:4.9272537 8:0.15403188 9:0 10:0 11:0 12:0 13:0 14:0 15:0 16:0 17:0 18:0 19:0 20:0 21:0 22:0 23:0 24:0 25:0 26:0 27:0 28:0 29:0 30:0 31:0 32:0 33:0 34:0 35:0 36:1.822127 37:0.69314718 38:0 39:0 40:0 41:0 42:0 43:0 44:0 45:0 46:0 47:0 48:0 49:0 50:0.69314718 51:0 52:4.3040651 53:1.9459101 54:4.1431347 55:3.4657359 56:2.5649494 57:3.1354942 58:2.0794415 59:3.1780538 60:4.0775374 61:3.5835189 62:1.6094379 63:3.4011974 64:1.0986123 65:0 66:0 67:0 68:0 69:0 70:0 71:0 72:0 73:0 74:0 75:0 76:0 77:0 78:4.4426513 79:1.9459101 80:4.1588831 81:3.4657359 82:2.5649494 83:3.1354942 84:2.3025851 85:2.0794415 86:3.1780538 87:4.1108739 88:3.4657359 89:3.5835189 90:3.4011974 91:0 92:0.93291415 93:0 94:0 95:0 96:0 97:0 98:0 99:0 100:0 101:0 102:0 103:0 104:0 105:0 106:7.2848209 107:5.5412635 108:5.1474945 109:3.4965076 110:4.2046926 111:3.8066625 112:3.6375862 113:4.0775374 114:3.4965076 115:3.5263605 116:2.1972246 117:2.7080502 118:2.0794415 \n8 1:0.0079668765 2:1.9789798 3:0.25642953 4:0.014888612 5:0 6:0.69314718 7:4.9628446 8:0.051951489 9:0 10:0 11:0 12:0 13:0 14:0 15:0 16:0 17:0 18:0 19:0 20:0 21:0 22:0 23:0 24:0 25:1.6094379 26:0 27:0 28:0 29:0 30:0 31:0 32:0 33:0 34:0 35:0 36:1.7245507 37:0.69314718 38:0 39:0 40:0 41:0 42:0 43:0 44:0 45:0 46:0 47:0 48:0 49:0 50:0 51:0 52:4.3694479 53:2.5649494 54:4.5538769 55:3.8918203 56:4.7273878 57:3.7376696 58:1.7917595 59:3.6635616 60:3.4339872 61:3.7841896 62:3.6635616 63:3.4965076 64:0.69314718 65:0 66:0 67:0 68:0 69:0 70:0 71:0 72:0 73:0 74:0 75:0 76:0 77:0 78:4.4188406 79:2.5649494 80:4.5849675 81:3.8918203 82:4.7273878 83:3.7376696 84:3.8066625 85:1.7917595 86:3.6635616 87:3.4339872 88:3.4339872 89:3.7841896 90:3.5263605 91:0 92:0.39821935 93:0 94:0 95:0 96:0 97:0 98:0 99:0 100:0 101:0 102:0 103:0 104:0 105:0 106:7.3752558 107:5.8579332 108:5.0369526 109:1.7917595 110:3.9512437 111:3.0910425 112:4.1743873 113:3.8066625 114:3.8286414 115:3.1354942 116:0.69314718 117:1.3862944 118:2.3025851 \n2.767029915578819 1:0 2:1.8244956 3:0.033060862 4:0 5:0 6:0.69314718 7:4.4886364 8:0.15734909 9:0 10:0 11:0 12:0 13:0 14:0 15:0 16:0 17:0 18:0 19:0 20:0 21:0 22:0 23:0 24:0 25:0 26:0 27:0 28:0 29:0 30:0 31:0 32:0 33:0 34:0 35:0 36:1.3875436 37:0.69314718 38:0 39:0 40:0 41:0 42:0 43:0 44:0 45:0 46:0 47:0 48:0 49:0 50:0 51:0 52:1.9459101 53:2.0794415 54:1.9459101 55:2.3025851 56:1.3862944 57:1.0986123 58:0 59:1.9459101 60:2.1972246 61:0 62:0 63:0 64:0 65:0 66:0 67:0 68:0 69:0 70:0 71:0 72:0 73:0 74:0 75:0 76:0 77:0 78:1.9459101 79:2.0794415 80:1.9459101 81:2.3025851 82:1.3862944 83:1.0986123 84:0 85:0 86:1.9459101 87:2.3978953 88:0 89:0 90:0 91:0 92:2.8901682 93:0 94:0 95:0 96:0 97:0 98:0 99:0 100:0 101:0 102:0 103:0 104:0 105:0 106:6.6833609 107:3.871201 108:2.8332133 109:4.9199809 110:2.6390573 111:2.8332133 112:1.9459101 113:0.69314718 114:1.6094379 115:0.69314718 116:3.8918203 117:0.69314718 118:2.3978953 \n8 1:0 2:1.9179901 3:2.2110179 4:0 5:0 6:0 7:4.9698133 8:0 9:0 10:0 11:0 12:0 13:0 14:0 15:0 16:0 17:0 18:0 19:0 20:0 21:0 22:0 23:0 24:0 25:0 26:0 27:0 28:0 29:0 30:0 31:0 32:0 33:0 34:0 35:0 36:1.382119 37:0.69314718 38:0 39:0 40:0 41:0 42:0 43:0 44:0 45:0 46:0 47:0 48:0 49:0 50:0 51:0 52:4.1108739 53:0.69314718 54:3.2188758 55:2.9957323 56:1.6094379 57:2.3978953 58:1.9459101 59:2.3025851 60:2.5649494 61:2.6390573 62:1.7917595 63:1.7917595 64:0.69314718 65:0 66:0 67:0 68:0 69:0 70:0 71:0 72:0 73:0 74:0 75:0 76:0 77:0 78:4.1743873 79:0.69314718 80:3.2580965 81:2.9957323 82:1.6094379 83:2.3978953 84:2.3978953 85:1.9459101 86:2.3025851 87:2.5649494 88:2.5649494 89:2.6390573 90:1.7917595 91:0 92:0.44595869 93:0 94:0 95:0 96:0 97:0 98:0 99:0 100:0 101:0 102:0 103:0 104:0 105:0 106:5.9964521 107:4.8675345 108:3.8501476 109:2.0794415 110:2.9957323 111:1.0986123 112:3.4965076 113:1.6094379 114:2.5649494 115:1.7917595 116:0.69314718 117:1.6094379 118:0.69314718 \n2.465325993629584 1:0.037653147 2:1.8486631 3:0.20102575 4:0.014888612 5:0 6:0.69314718 7:4.4773368 8:0.27744869 9:0 10:0 11:0 12:0 13:0 14:0 15:0 16:0 17:0 18:0 19:0 20:0 21:0 22:0 23:0 24:0 25:1.6094379 26:0 27:0 28:0 29:0 30:0 31:0 32:0 33:0 34:0 35:0 36:1.7448425 37:0.69314718 38:0 39:0 40:0 41:0 42:0 43:0 44:0 45:0 46:0 47:0 48:0 49:0 50:0 51:0 52:4.5643482 53:3.6888795 54:4.0430513 55:3.912023 56:3.8286414 57:3.5553481 58:3.0910425 59:3.1354942 60:3.3672958 61:3.8501476 62:3.5553481 63:3.3672958 64:2.8903718 65:0 66:0 67:0 68:0 69:0 70:0 71:0 72:0 73:0 74:0 75:0 76:0 77:0 78:4.7004804 79:3.6888795 80:4.1108739 81:3.912023 82:3.8286414 83:3.5553481 84:3.6635616 85:3.0910425 86:3.1354942 87:3.4339872 88:3.8286414 89:3.871201 90:3.3672958 91:0 92:1.2567526 93:0 94:0 95:0 96:0 97:0 98:0 99:0 100:0 101:0 102:0 103:0 104:0 105:0 106:7.2977683 107:5.8200829 108:5.0172798 109:2.6390573 110:4.2626799 111:4.5951199 112:3.4965076 113:3.6375862 114:2.944439 115:3.4011974 116:3.871201 117:3.6109179 118:1.0986123 \n7.330719583679545 1:0.018830609 2:1.9330116 3:0.36290549 4:0.0099503309 5:0 6:0.69314718 7:4.1108739 8:0.4016141 9:0 10:0 11:0 12:0 13:0 14:0 15:0 16:0 17:0 18:0 19:0 20:0 21:0 22:0 23:0 24:0 25:0 26:0 27:0 28:0 29:0 30:0 31:0 32:0 33:0 34:0 35:3.8066625 36:1.8998662 37:0.69314718 38:0 39:0 40:0 41:0 42:0 43:0 44:0 45:0 46:1.0986123 47:0 48:0 49:0 50:0 51:0 52:4.6443909 53:1.7917595 54:3.7841896 55:3.5263605 56:3.3672958 57:3.5263605 58:0.69314718 59:3.2580965 60:3.3322045 61:3.871201 62:2.7725887 63:3.4011974 64:0.69314718 65:0 66:0 67:0.69314718 68:0 69:0 70:0 71:1.0986123 72:0 73:0 74:0 75:0 76:0 77:0 78:4.7184989 79:1.7917595 80:3.7841896 81:3.5263605 82:3.3672958 83:3.5263605 84:3.1354942 85:0.69314718 86:3.2580965 87:3.3322045 88:3.7135721 89:3.871201 90:3.4011974 91:0 92:1.0497114 93:0 94:0 95:0 96:0 97:0 98:0 99:0 100:0 101:0 102:0 103:0 104:0 105:0 106:7.2298388 107:5.8522025 108:5.0689042 109:3.5553481 110:3.8501476 111:3.8918203 112:3.988984 113:3.3322045 114:3.7135721 115:3.5553481 116:2.8332133 117:3.2188758 118:1.3862944 \n0.6793484845715521 1:0 2:1.8854358 3:0.39616272 4:0 5:0 6:0.69314718 7:5.0039463 8:0.0047816953 9:0 10:0 11:0 12:0 13:0 14:0 15:0 16:0 17:0 18:0 19:0 20:0 21:0 22:0 23:0 24:0 25:0 26:0 27:0 28:0 29:0 30:0 31:0 32:0 33:0 34:0 35:0 36:0.91027266 37:0.69314718 38:0 39:0 40:0 41:0 42:0 43:0 44:0 45:0 46:0 47:0 48:0 49:0 50:0 51:0 52:1.0986123 53:0.69314718 54:1.0986123 55:0.69314718 56:1.0986123 57:2.0794415 58:5.1059455 59:0.69314718 60:1.0986123 61:1.0986123 62:0.69314718 63:0.69314718 64:2.3025851 65:0 66:0 67:0 68:0 69:0 70:0 71:0 72:0 73:0 74:0 75:0 76:0 77:0 78:1.0986123 79:0.69314718 80:1.0986123 81:0.69314718 82:1.0986123 83:2.0794415 84:1.0986123 85:5.1059455 86:0.69314718 87:1.6094379 88:1.7917595 89:1.0986123 90:0.69314718 91:0 92:0.36133124 93:0 94:0 95:0 96:0 97:0 98:0 99:0 100:0 101:0 102:0 103:0 104:0 105:0 106:7.5310163 107:3.2958369 108:2.1972246 109:3.4965076 110:2.0794415 111:1.3862944 112:1.6094379 113:0.69314718 114:0.69314718 115:2.0794415 116:2.7080502 117:0.69314718 118:0.69314718 \n8 1:0.056522195 2:1.8700603 3:4.3433795 4:0.017391743 5:0 6:0.69314718 7:5.0814044 8:0.23244056 9:0 10:0 11:0 12:0 13:0 14:0 15:0 16:0 17:0 18:0 19:0 20:0 21:0 22:0 23:0 24:0 25:0 26:1.0986123 27:0 28:0 29:0 30:0 31:0 32:0 33:0 34:0 35:0 36:1.9192419 37:0.69314718 38:0 39:0 40:0 41:0 42:0 43:0 44:0 45:0 46:0 47:0 48:0 49:0 50:1.0986123 51:0 52:3.7612001 53:2.6390573 54:3.5835189 55:3.0910425 56:3.2958369 57:2.3978953 58:2.0794415 59:2.6390573 60:2.7080502 61:2.7080502 62:2.8332133 63:2.8903718 64:1.6094379 65:0 66:0 67:0 68:0 69:0 70:0 71:0 72:0 73:0 74:0 75:0 76:0 77:0 78:3.8501476 79:2.6390573 80:3.6375862 81:3.0910425 82:3.2958369 83:2.3978953 84:3.0910425 85:2.0794415 86:2.6390573 87:2.7080502 88:2.7725887 89:2.7080502 90:2.8903718 91:0 92:1.4517262 93:0 94:0 95:0 96:0 97:0 98:0 99:0 100:0 101:0 102:0 103:0 104:0 105:0 106:6.5539334 107:5.1873858 108:4.3694479 109:2.4849066 110:3.2188758 111:2.4849066 112:3.3672958 113:2.944439 114:3.1780538 115:2.4849066 116:1.3862944 117:2.0794415 118:0.69314718 \n8 1:0 2:1.8718857 3:0.58407609 4:0 5:0 6:0.69314718 7:3.8066625 8:0.64452564 9:0 10:0 11:0 12:0 13:0 14:0 15:0 16:0 17:0 18:0 19:0 20:0 21:0 22:0 23:0 24:0 25:0 26:0 27:0 28:0 29:0 30:0 31:0 32:0 33:0 34:0 35:0 36:1.7236591 37:0.69314718 38:0 39:0 40:0 41:0 42:0 43:0 44:0 45:1.0986123 46:0.69314718 47:0 48:0 49:0 50:0 51:0 52:4.2341065 53:3.5263605 54:4.1431347 55:3.912023 56:3.3322045 57:3.1354942 58:2.3978953 59:3.1780538 60:3.4339872 61:3.1780538 62:2.3978953 63:3.7135721 64:1.3862944 65:0 66:0 67:0 68:0 69:0 70:0 71:0.69314718 72:0 73:0 74:0 75:0 76:0 77:0 78:4.5325995 79:3.5263605 80:4.1588831 81:3.912023 82:3.3322045 83:3.1780538 84:2.6390573 85:2.3978953 86:3.1780538 87:3.4339872 88:3.7841896 89:3.1780538 90:3.7135721 91:0 92:1.2543201 93:0 94:0 95:0 96:0 97:0 98:0 99:0 100:0 101:0 102:0 103:0 104:0 105:0 106:7.2485041 107:5.6903595 108:4.8121844 109:2.5649494 110:4.5108595 111:2.944439 112:3.6888795 113:3.6888795 114:3.7841896 115:3.2958369 116:0 117:2.7725887 118:1.3862944 \n8 1:0 2:1.952802 3:0.38996092 4:0 5:0 6:0.69314718 7:4.9199809 8:0.07777197 9:0 10:0 11:0 12:0 13:0 14:0 15:0 16:0 17:0 18:0 19:0 20:0 21:0 22:0 23:0 24:0 25:0 26:0 27:0 28:0 29:0 30:0 31:0 32:0 33:0 34:0 35:0 36:1.7081514 37:0.69314718 38:0 39:0 40:0 41:0 42:0 43:0 44:0 45:0 46:0 47:0 48:0 49:0 50:0 51:0 52:3.3672958 53:2.7080502 54:4.0943446 55:2.9957323 56:3.6109179 57:3.0445224 58:1.6094379 59:2.7725887 60:2.9957323 61:3.3322045 62:2.3025851 63:4.0253517 64:2.5649494 65:0 66:0 67:0.69314718 68:0 69:0 70:0 71:0 72:0 73:0 74:1.3862944 75:0 76:0 77:0 78:3.5263605 79:2.7080502 80:4.0943446 81:2.9957323 82:3.6109179 83:3.0445224 84:2.8903718 85:1.6094379 86:2.7725887 87:2.9957323 88:3.2580965 89:3.3322045 90:4.060443 91:0 92:0.080699287 93:0 94:0 95:0 96:0 97:0 98:0 99:0 100:0 101:0 102:0 103:0 104:0 105:0 106:6.8865316 107:5.2729996 108:4.634729 109:2.5649494 110:3.6109179 111:2.8332133 112:4.0775374 113:3.1354942 114:2.4849066 115:3.0910425 116:1.3862944 117:1.7917595 118:0 \n8 1:0.005584137 2:2.0328272 3:0.5260931 4:0.011049836 5:0 6:0.69314718 7:4.9416424 8:0.13102294 9:0 10:0 11:0 12:0 13:0 14:0 15:0 16:0 17:0 18:0 19:0 20:0 21:0 22:0 23:0 24:0 25:0 26:0 27:0 28:0 29:0 30:0 31:0 32:0 33:0 34:0 35:0 36:1.8887517 37:0.69314718 38:0 39:0 40:0 41:0 42:0 43:0 44:0 45:0 46:0 47:0 48:0 49:0 50:0.69314718 51:0 52:4.3307333 53:2.3978953 54:4.0430513 55:3.9512437 56:3.2188758 57:3.2580965 58:2.5649494 59:2.944439 60:3.6635616 61:3.8286414 62:2.1972246 63:3.8918203 64:0.69314718 65:0 66:0 67:0.69314718 68:0 69:0 70:0 71:0 72:0 73:0 74:0 75:0 76:0 77:0 78:4.4886364 79:2.3978953 80:4.060443 81:3.9512437 82:3.2188758 83:3.2580965 84:2.5649494 85:2.5649494 86:2.944439 87:3.6635616 88:3.3322045 89:3.8286414 90:3.9512437 91:0 92:0.37836957 93:0 94:0 95:0 96:0 97:0 98:0 99:0 100:0 101:0 102:0 103:0 104:0 105:0 106:7.1155821 107:5.5053315 108:5.0937502 109:3.5835189 110:4.2046926 111:3.2188758 112:3.9702919 113:3.3322045 114:3.0910425 115:3.3322045 116:1.6094379 117:2.7725887 118:1.3862944 \n1.545188290966356 1:0 2:1.8963083 3:0.82376736 4:0 5:0 6:0 7:4.574711 8:0 9:0 10:0 11:0 12:0 13:0 14:0 15:0 16:0 17:0 18:0 19:0 20:0 21:0 22:0 23:0 24:0 25:0 26:0 27:0 28:0 29:0 30:0 31:0 32:0 33:0 34:0 35:0 36:1.2427126 37:0.69314718 38:0 39:0 40:0 41:0 42:0 43:0 44:0 45:0.69314718 46:0 47:0 48:0 49:0 50:0 51:0 52:3.8066625 53:1.7917595 54:2.5649494 55:2.7725887 56:2.4849066 57:2.5649494 58:2.1972246 59:2.5649494 60:3.0910425 61:1.9459101 62:2.0794415 63:2.0794415 64:0.69314718 65:0 66:0 67:0 68:0 69:0 70:0 71:0 72:0 73:0 74:0.69314718 75:0 76:0 77:0 78:3.8286414 79:1.7917595 80:2.7725887 81:2.7725887 82:2.4849066 83:2.5649494 84:2.0794415 85:2.1972246 86:2.5649494 87:3.0910425 88:2.4849066 89:1.9459101 90:2.1972246 91:0 92:0.84213279 93:0 94:0 95:0 96:0 97:0 98:0 99:0 100:0 101:0 102:0 103:0 104:0 105:0 106:6.2005092 107:4.6728288 108:4.0073332 109:2.4849066 110:3.9512437 111:1.9459101 112:3.5835189 113:2.8903718 114:2.7725887 115:2.4849066 116:1.0986123 117:0.69314718 118:2.7725887 \n0.08645139448035202 1:0.0067366785 2:1.9095425 3:0.23000753 4:0.014184635 5:0 6:0.69314718 7:5.0369526 8:0.096574212 9:0 10:0 11:1.0986123 12:0 13:0 14:0 15:0 16:0 17:0 18:0 19:0 20:0 21:0 22:0 23:0 24:0 25:0 26:0 27:0 28:0 29:0 30:0 31:0 32:0 33:0 34:0 35:0 36:1.5198258 37:0.69314718 38:0 39:0 40:0 41:0 42:0 43:0 44:0 45:0 46:0 47:0 48:0 49:0 50:0 51:0 52:2.944439 53:1.3862944 54:3.0910425 55:2.1972246 56:1.6094379 57:1.9459101 58:1.0986123 59:0 60:2.7080502 61:2.4849066 62:1.3862944 63:1.3862944 64:0 65:0 66:0 67:0 68:0 69:0 70:0 71:0 72:0 73:0 74:0 75:0 76:0 77:0 78:3.2188758 79:1.3862944 80:3.0910425 81:2.1972246 82:1.6094379 83:1.9459101 84:1.6094379 85:1.0986123 86:0 87:2.7080502 88:1.9459101 89:2.4849066 90:1.3862944 91:0 92:0.35703346 93:0 94:0 95:0 96:0 97:0 98:0 99:0 100:0 101:0 102:0 103:0 104:0 105:0 106:6.5596152 107:5.1059455 108:3.8286414 109:2.0794415 110:2.9957323 111:3.1780538 112:2.7080502 113:1.3862944 114:2.4849066 115:1.7917595 116:0.69314718 117:1.3862944 118:0 \n3.382330724163723 1:0.057683268 2:1.8765073 3:1.7026608 4:0.058268908 5:0 6:0.69314718 7:4.4886364 8:0.18059619 9:0 10:0 11:0 12:0 13:0 14:0 15:0 16:0 17:0 18:0 19:0 20:0 21:0 22:0 23:0 24:0 25:0 26:0 27:0 28:0 29:0 30:3.4965076 31:0 32:0 33:0 34:0 35:0 36:1.7457155 37:0.69314718 38:0 39:0 40:0 41:0 42:0 43:0 44:0 45:0 46:0.69314718 47:0 48:0.69314718 49:0 50:0 51:0 52:4.5951199 53:3.8918203 54:4.1108739 55:4.060443 56:3.2188758 57:3.8066625 58:2.7725887 59:3.6109179 60:3.6375862 61:3.8918203 62:2.9957323 63:3.4965076 64:2.4849066 65:0 66:0 67:0 68:0 69:0 70:0 71:0.69314718 72:0 73:0 74:0 75:0 76:0 77:0 78:4.6913479 79:3.8918203 80:4.1431347 81:4.060443 82:3.2188758 83:3.8066625 84:3.5835189 85:2.7725887 86:3.6109179 87:3.6375862 88:3.5553481 89:3.8918203 90:3.6375862 91:0 92:0.66556061 93:0 94:0 95:0 96:0 97:0 98:0 99:0 100:0 101:0 102:0 103:0 104:0 105:0 106:7.2950564 107:5.8579332 108:4.9344739 109:2.8332133 110:3.8286414 111:3.4339872 112:4.4067192 113:3.3672958 114:3.1354942 115:3.6109179 116:1.6094379 117:2.1972246 118:1.0986123 \n8 1:0.012422842 2:1.9149479 3:0.50344552 4:0.0049875415 5:0 6:0 7:3.8501476 8:0 9:0 10:0 11:0 12:0 13:0 14:0 15:0 16:0 17:0 18:0 19:0 20:0 21:0 22:0 23:0 24:0 25:0 26:0 27:0 28:0 29:0 30:0 31:0 32:0 33:0 34:0 35:0 36:1.7783364 37:0.69314718 38:0 39:0 40:0 41:0 42:0 43:0 44:0 45:0 46:0.69314718 47:0 48:0 49:0 50:0 51:0 52:4.3944492 53:2.3978953 54:4.0253517 55:3.7841896 56:2.944439 57:4.2626799 58:1.9459101 59:3.0445224 60:3.1780538 61:3.6635616 62:2.7080502 63:3.7135721 64:1.3862944 65:0 66:0 67:0.69314718 68:0 69:0 70:0 71:0.69314718 72:0 73:0 74:0.69314718 75:0 76:0 77:0 78:4.4998097 79:2.3978953 80:4.0430513 81:3.7841896 82:2.944439 83:4.2766661 84:3.1354942 85:1.9459101 86:3.0445224 87:3.1780538 88:3.9512437 89:3.6635616 90:3.8286414 91:0 92:1.2401088 93:0 94:0 95:0 96:0 97:0 98:0 99:0 100:0 101:0 102:0 103:0 104:0 105:0 106:7.1592919 107:5.4161004 108:5.0562458 109:3.7376696 110:4.0775374 111:2.9957323 112:4.2766661 113:3.2958369 114:3.2580965 115:3.6635616 116:1.9459101 117:2.3978953 118:1.7917595 \n0.1250194574635895 1:0 2:1.7152275 3:0.1095622 4:0 5:0 6:0.69314718 7:4.4426513 8:0.4860928 9:0 10:0 11:0 12:0 13:0 14:0 15:0 16:0 17:0 18:0 19:0 20:0 21:0 22:0 23:5.9939614 24:0 25:0 26:0 27:5.9738096 28:0 29:5.9939614 30:0 31:0 32:0 33:0 34:0 35:0 36:0.77242036 37:0.69314718 38:0 39:0 40:0 41:0 42:0 43:0 44:0 45:0 46:0 47:0 48:0 49:0 50:0 51:0 52:2.6390573 53:2.3025851 54:1.0986123 55:0 56:0 57:0.69314718 58:2.1972246 59:1.6094379 60:1.9459101 61:4.0253517 62:0 63:0 64:0.69314718 65:0 66:0 67:0 68:0 69:0 70:0 71:0 72:0 73:0 74:0 75:0 76:0 77:0 78:2.7080502 79:2.3025851 80:1.0986123 81:0 82:0 83:0.69314718 84:0 85:2.1972246 86:1.6094379 87:1.9459101 88:1.7917595 89:4.0253517 90:0 91:0 92:3.4736256 93:0 94:0 95:0 96:0 97:0 98:0 99:0 100:0 101:0 102:0 103:0 104:0 105:0 106:6.2363696 107:5.4380793 108:4.9344739 109:0 110:0 111:0 112:0 113:0.69314718 114:0 115:5.2832037 116:0 117:0 118:0 \n0.451595776132141 1:0.014262877 2:2.6323906 3:1.2043859 4:0.044016885 5:0 6:0.69314718 7:4.9558271 8:0.036052963 9:0 10:0 11:0 12:0 13:0 14:0 15:0 16:0 17:0 18:0 19:0 20:0 21:0 22:0 23:0 24:0 25:0 26:0 27:0 28:0 29:0 30:0 31:0 32:0 33:0 34:0 35:0 36:1.0767075 37:0.69314718 38:0 39:0 40:0 41:0 42:0 43:0 44:0 45:0 46:0 47:0 48:0 49:0 50:0 51:0 52:1.9459101 53:0 54:1.6094379 55:1.0986123 56:1.0986123 57:1.6094379 58:0.69314718 59:1.0986123 60:1.7917595 61:1.3862944 62:0 63:0 64:0 65:0 66:0 67:0 68:0 69:0 70:0 71:0 72:0 73:0 74:0 75:0 76:0 77:0 78:1.9459101 79:0 80:1.7917595 81:1.0986123 82:1.0986123 83:1.6094379 84:1.3862944 85:0.69314718 86:1.0986123 87:1.7917595 88:1.0986123 89:1.3862944 90:0 91:0 92:0.24306236 93:0 94:0 95:0 96:0 97:0 98:0 99:0.69314718 100:0 101:0 102:0 103:0 104:0 105:0 106:6.1527327 107:3.1354942 108:2.7725887 109:2.0794415 110:2.1972246 111:2.8332133 112:2.0794415 113:0.69314718 114:0.69314718 115:0.69314718 116:2.0794415 117:0 118:0.69314718 \n8 1:0 2:1.9901031 3:0.36464311 4:0 5:0 6:0.69314718 7:4.8598124 8:0.02875111 9:0 10:0 11:0 12:0 13:0 14:0 15:0 16:0 17:0 18:0 19:0 20:0 21:0 22:0 23:0 24:0 25:0 26:0 27:1.0986123 28:0 29:0 30:1.0986123 31:0 32:0 33:0 34:0 35:0 36:1.83737 37:0.69314718 38:0 39:0 40:0 41:0 42:0 43:0 44:0 45:0 46:0 47:0 48:0 49:0 50:0 51:0 52:3.8066625 53:3.4657359 54:3.5835189 55:3.8501476 56:3.0445224 57:3.7376696 58:1.3862944 59:2.944439 60:2.9957323 61:2.8903718 62:2.9957323 63:3.4965076 64:0.69314718 65:0 66:0 67:0 68:0 69:0 70:0 71:0 72:0 73:0 74:0 75:0 76:0 77:0 78:4.0430513 79:3.4657359 80:3.6375862 81:3.8501476 82:3.0445224 83:3.7376696 84:3.1354942 85:1.3862944 86:2.944439 87:2.9957323 88:3.5263605 89:2.8903718 90:3.4965076 91:0 92:0.10385734 93:0 94:0 95:0 96:0 97:0 98:0 99:0 100:0 101:0 102:0 103:0 104:0 105:0 106:7.1507015 107:5.3278762 108:4.6821312 109:3.6635616 110:3.4011974 111:2.6390573 112:3.988984 113:2.8332133 114:3.2958369 115:3.0910425 116:1.6094379 117:2.6390573 118:2.3978953 \n0.8202821361562489 1:0.030922772 2:1.9505531 3:0.65872696 4:0.044016885 5:0 6:0.69314718 7:4.9904326 8:0.18431394 9:0 10:0 11:0 12:0 13:0 14:0 15:0 16:0 17:0 18:0 19:0 20:0 21:0 22:0 23:0 24:0 25:0 26:0 27:1.0986123 28:0 29:0 30:0 31:0 32:0 33:0 34:0 35:0 36:1.8025345 37:0.69314718 38:0 39:0 40:0 41:0 42:0 43:0 44:0 45:0 46:0 47:0 48:0 49:0 50:0 51:0 52:4.060443 53:2.1972246 54:3.988984 55:3.4339872 56:3.0910425 57:2.9957323 58:1.7917595 59:3.1354942 60:3.4011974 61:3.7841896 62:2.3025851 63:3.6375862 64:0 65:0 66:0 67:0 68:0 69:0 70:0 71:0 72:0.69314718 73:0 74:0 75:0 76:0 77:0 78:4.2046926 79:2.1972246 80:4.0073332 81:3.4339872 82:3.0910425 83:2.9957323 84:2.8332133 85:1.7917595 86:3.1354942 87:3.4011974 88:3.1354942 89:3.7841896 90:3.6375862 91:0 92:0.50309499 93:0 94:0 95:0 96:0 97:0 98:0 99:0 100:0 101:0 102:0 103:0 104:0 105:0 106:7.0184018 107:5.4161004 108:5.1761497 109:3.7841896 110:3.5263605 111:3.3322045 112:4.1431347 113:2.6390573 114:3.912023 115:3.0445224 116:2.5649494 117:2.0794415 118:1.0986123 \n8 1:0 2:1.8708104 3:6.1506028 4:0 5:0 6:0 7:4.7957905 8:0 9:0 10:0 11:0 12:0 13:0 14:0 15:0 16:0 17:0 18:0 19:0 20:0 21:0 22:0 23:0 24:0 25:0 26:0 27:0 28:0 29:0 30:0 31:0 32:0 33:0 34:0 35:0 36:1.5851452 37:0.69314718 38:0 39:0 40:0 41:0 42:0 43:0 44:0 45:0 46:0 47:0 48:0 49:0 50:0 51:0 52:4.5325995 53:3.4339872 54:3.7612001 55:3.7612001 56:2.8332133 57:3.1780538 58:2.944439 59:3.2958369 60:3.5553481 61:3.4657359 62:2.1972246 63:3.1354942 64:1.6094379 65:0 66:0 67:0 68:0 69:0 70:0 71:0 72:0 73:0 74:0 75:0 76:0 77:0 78:4.7791235 79:3.4339872 80:3.7841896 81:3.7612001 82:2.8332133 83:3.1780538 84:2.3978953 85:2.944439 86:3.2958369 87:3.5553481 88:3.5553481 89:3.4657359 90:3.1354942 91:0 92:0.20312001 93:0 94:0 95:0 96:0 97:0 98:0 99:0 100:0 101:0 102:0 103:0 104:0 105:0 106:7.0892432 107:5.6419071 108:4.8202816 109:1.9459101 110:3.871201 111:2.944439 112:4.2341065 113:3.4339872 114:3.4339872 115:3.4011974 116:2.1972246 117:3.3322045 118:1.7917595 \n8 1:0.0094050635 2:1.984058 3:1.2354715 4:0.034401427 5:0 6:0.69314718 7:4.8362819 8:0.070361165 9:0 10:0 11:0 12:0 13:0 14:0 15:0 16:0 17:0 18:0 19:0 20:0 21:0 22:0 23:0 24:0 25:1.0986123 26:0 27:0 28:0 29:0 30:0 31:0 32:0 33:0 34:0 35:0 36:2.056045 37:0.69314718 38:0 39:0 40:0 41:0 42:0 43:0 44:0 45:0 46:0 47:0 48:0 49:0 50:0.69314718 51:0 52:4.5538769 53:2.6390573 54:4.8121844 55:3.7135721 56:2.6390573 57:4.0943446 58:2.1972246 59:3.1354942 60:4.3307333 61:4.3944492 62:2.4849066 63:4.0775374 64:1.0986123 65:0 66:0 67:1.9459101 68:0 69:0 70:0.69314718 71:0 72:0 73:0 74:1.0986123 75:0 76:0 77:0 78:4.6539604 79:2.6390573 80:4.8362819 81:3.7135721 82:2.6390573 83:4.0943446 84:2.9957323 85:2.1972246 86:3.1354942 87:4.3307333 88:4.0430513 89:4.3944492 90:4.1108739 91:0 92:0.20368174 93:0 94:0 95:0 96:0 97:0 98:0 99:0 100:0 101:0 102:0 103:0 104:0 105:0 106:7.4866133 107:5.8406417 108:5.3981627 109:2.3978953 110:4.1271344 111:3.2958369 112:4.6051702 113:3.6888795 114:3.7135721 115:3.7841896 116:1.9459101 117:2.6390573 118:2.3978953 \n8 1:0.007545426 2:1.9289041 3:0.42717139 4:0.019802627 5:0 6:0.69314718 7:5.0369526 8:0.07124674 9:0 10:0 11:0 12:0 13:0 14:0 15:0 16:0 17:1.0986123 18:0 19:0 20:0 21:0 22:0 23:0 24:0 25:0 26:0 27:0 28:0 29:0 30:0 31:0 32:0 33:0 34:0 35:0 36:1.8397557 37:0.69314718 38:0 39:0 40:0 41:0 42:0 43:0 44:0 45:0 46:1.6094379 47:0 48:0 49:0 50:0 51:0 52:4.2341065 53:3.2958369 54:4.1271344 55:3.7612001 56:3.8286414 57:3.6635616 58:2.3978953 59:3.1354942 60:3.7376696 61:2.9957323 62:2.4849066 63:3.4011974 64:1.7917595 65:0 66:0 67:0 68:0 69:0 70:0 71:1.6094379 72:0 73:0 74:1.0986123 75:0 76:0 77:0 78:4.3307333 79:3.2958369 80:4.2046926 81:3.7612001 82:3.8286414 83:3.6635616 84:2.944439 85:2.3978953 86:3.1354942 87:3.7376696 88:3.3322045 89:2.9957323 90:3.4339872 91:0 92:0.28864843 93:0 94:0 95:0 96:0 97:0 98:0 99:0 100:0 101:0 102:0 103:0 104:0 105:0 106:7.1308988 107:5.5872487 108:4.6249728 109:3.2580965 110:3.912023 111:3.4965076 112:3.6635616 113:3.2580965 114:3.6888795 115:3.1354942 116:2.1972246 117:2.3025851 118:1.3862944 \n1.034809444485906 1:0.097153252 2:1.9539639 3:0.097286899 4:0.024692613 5:0 6:0.69314718 7:4.574711 8:0.42562851 9:0 10:0 11:0 12:0 13:0 14:0 15:0 16:0 17:0 18:0 19:0 20:0 21:0 22:0 23:0 24:0 25:0 26:0 27:0 28:0 29:0 30:1.0986123 31:0 32:0 33:0 34:0 35:0 36:0.42526774 37:0.69314718 38:0 39:0 40:0 41:0 42:0 43:0 44:0 45:0 46:0 47:0 48:0 49:0 50:0 51:0 52:1.0986123 53:3.5553481 54:0.69314718 55:3.5835189 56:0.69314718 57:0.69314718 58:0 59:0 60:1.3862944 61:0.69314718 62:0 63:0 64:0 65:0 66:0 67:0 68:0 69:0 70:0 71:0 72:0 73:0 74:0 75:0 76:0 77:0 78:1.0986123 79:3.5553481 80:0.69314718 81:3.5835189 82:0.69314718 83:0.69314718 84:0 85:0 86:0 87:1.3862944 88:0.69314718 89:0.69314718 90:0 91:0 92:1.6168294 93:0 94:0 95:0 96:0 97:0 98:0 99:0 100:0 101:0 102:0 103:0 104:0 105:0 106:5.2678582 107:1.9459101 108:1.7917595 109:1.0986123 110:0.69314718 111:3.4339872 112:0 113:0.69314718 114:0 115:3.6109179 116:0 117:0 118:0.69314718 \n8 1:0 2:1.9305307 3:0.90247735 4:0 5:0 6:0.69314718 7:4.9698133 8:0.096922986 9:0 10:0 11:0 12:0 13:0 14:0 15:0 16:0 17:0 18:0 19:0 20:0 21:0 22:0 23:0 24:0 25:0 26:0 27:0 28:0 29:0 30:0 31:0 32:0 33:0 34:0 35:0 36:1.6144255 37:0.69314718 38:0 39:0 40:0 41:0 42:0 43:0 44:0 45:0 46:0.69314718 47:0 48:0 49:0 50:0 51:0 52:3.4011974 53:1.6094379 54:2.9957323 55:3.0445224 56:2.5649494 57:2.5649494 58:0 59:0 60:3.4011974 61:3.4657359 62:1.3862944 63:2.7725887 64:0 65:0 66:0 67:0 68:0 69:0 70:0 71:0.69314718 72:0 73:0 74:0 75:0 76:0 77:0 78:3.4339872 79:1.6094379 80:2.9957323 81:3.0445224 82:2.5649494 83:2.5649494 84:1.6094379 85:0 86:0 87:3.4011974 88:3.2958369 89:3.4657359 90:2.8332133 91:0 92:0.87956873 93:0 94:0 95:0 96:0 97:0 98:0 99:0 100:0 101:0 102:0 103:0 104:0 105:0 106:7.2305632 107:4.060443 108:3.5263605 109:3.0910425 110:3.1354942 111:2.1972246 112:3.7612001 113:2.0794415 114:0.69314718 115:1.7917595 116:1.0986123 117:0.69314718 118:1.0986123 \n1.879802963457178 1:0.012124005 2:1.8718022 3:0.51082562 4:0.053540767 5:0 6:0.69314718 7:4.2046926 8:0.18567916 9:0 10:0 11:0 12:0 13:0 14:0 15:0 16:0 17:0 18:0 19:0 20:0 21:0 22:0 23:0 24:0 25:0 26:2.944439 27:0 28:0 29:0 30:0 31:0 32:2.1972246 33:0 34:0 35:0 36:1.2837078 37:0.69314718 38:0 39:0 40:0 41:0 42:0 43:0 44:0 45:0 46:0 47:0 48:0 49:0 50:0 51:0 52:4.3820266 53:4.2904594 54:2.8903718 55:3.3672958 56:2.9957323 57:2.0794415 58:2.7080502 59:3.0910425 60:4.0073332 61:1.6094379 62:1.6094379 63:2.7725887 64:2.8903718 65:0 66:0 67:0 68:0 69:0 70:0 71:0 72:0 73:0 74:0 75:0 76:0 77:0 78:4.5538769 79:4.2904594 80:2.944439 81:3.3672958 82:2.9957323 83:2.0794415 84:2.5649494 85:2.7080502 86:3.0910425 87:4.0073332 88:1.9459101 89:1.6094379 90:2.7725887 91:0 92:0.16356539 93:0 94:0 95:0 96:0 97:0 98:0 99:0 100:0 101:0 102:0 103:0 104:0 105:0 106:6.7117404 107:5.1817836 108:3.8918203 109:2.0794415 110:3.5553481 111:3.0445224 112:2.8903718 113:3.0445224 114:2.1972246 115:3.3672958 116:1.7917595 117:4.0430513 118:0.69314718 \n2.288872760621954 1:0.0041942919 2:1.9292226 3:0.35781845 4:0.065063593 5:0 6:0.69314718 7:4.9698133 8:0.0047173436 9:0 10:2.5649494 11:1.9459101 12:0 13:0 14:0 15:0 16:0 17:1.9459101 18:0 19:0 20:0 21:0 22:0 23:0 24:0 25:0 26:0 27:0 28:0 29:0 30:0 31:0 32:0 33:0 34:0 35:0 36:1.7804917 37:0.69314718 38:0 39:0 40:0 41:0 42:0 43:0 44:0 45:0 46:0 47:0 48:0 49:0 50:0 51:0 52:3.6635616 53:0.69314718 54:3.1354942 55:2.7725887 56:2.0794415 57:3.1354942 58:1.0986123 59:1.6094379 60:1.9459101 61:2.944439 62:1.7917595 63:2.7080502 64:0 65:0 66:0 67:0 68:0 69:0 70:0 71:0 72:0 73:0 74:0 75:0 76:0 77:0 78:3.7841896 79:0.69314718 80:3.1354942 81:2.7725887 82:2.0794415 83:3.1354942 84:2.0794415 85:1.0986123 86:1.6094379 87:1.9459101 88:2.8903718 89:2.944439 90:2.7080502 91:0 92:0.018277278 93:0 94:0 95:0 96:0 97:0 98:0 99:0 100:0 101:0 102:0 103:0 104:0 105:0 106:6.2803958 107:4.634729 108:4.1896547 109:2.944439 110:2.5649494 111:2.6390573 112:3.0910425 113:2.3978953 114:2.8332133 115:1.7917595 116:0.69314718 117:2.1972246 118:1.0986123 \n3.761286636237002 1:0 2:1.8339672 3:0.41639418 4:0 5:0 6:0.69314718 7:4.4188406 8:0.082542006 9:0 10:0 11:0 12:0 13:0 14:0 15:0 16:0 17:0 18:0 19:0 20:0 21:0 22:0 23:0 24:0 25:0 26:0 27:0 28:0 29:0 30:0 31:0 32:0 33:0 34:0 35:0 36:1.5581446 37:0.69314718 38:0 39:0 40:0 41:0 42:0 43:0 44:0 45:0 46:0 47:0 48:0 49:0 50:1.0986123 51:0 52:4.8441871 53:3.6635616 54:4.4773368 55:4.1271344 56:3.7841896 57:3.7135721 58:1.9459101 59:3.1780538 60:3.3322045 61:3.4965076 62:3.2580965 63:3.5553481 64:2.8903718 65:0 66:0 67:0 68:0 69:0 70:0 71:0 72:0 73:0 74:0 75:0 76:0 77:0 78:4.9767337 79:3.6635616 80:4.4998097 81:4.1271344 82:3.7841896 83:3.7135721 84:3.6109179 85:1.9459101 86:3.1780538 87:3.3322045 88:3.0910425 89:3.4965076 90:3.5553481 91:0 92:0.21731743 93:0 94:0 95:0 96:0 97:0 98:0 99:0 100:0 101:0 102:0 103:0 104:0 105:0 106:7.3447191 107:5.888878 108:5.2203558 109:2.6390573 110:3.9512437 111:3.4339872 112:3.1780538 113:3.871201 114:3.1354942 115:2.7080502 116:1.9459101 117:2.8903718 118:1.0986123 \n0.5030918108350704 1:0.03414137 2:2.3745871 3:1.2123712 4:0.014888612 5:0 6:0.69314718 7:5.0814044 8:0.045267619 9:0 10:0 11:0 12:0 13:0 14:0 15:0 16:0 17:0 18:0 19:0 20:0 21:0 22:0 23:0 24:0 25:0 26:0 27:0 28:0 29:0 30:0 31:0 32:0 33:0 34:0 35:0 36:0.54812141 37:0.69314718 38:0 39:0 40:0 41:0 42:0 43:0 44:0 45:0 46:0 47:0 48:0 49:0 50:0 51:0 52:0 53:0 54:0 55:0.69314718 56:0 57:0 58:0 59:0 60:1.3862944 61:1.0986123 62:0 63:0 64:0 65:0 66:0 67:0 68:0 69:0 70:0 71:0 72:0 73:0 74:0 75:0 76:0 77:0 78:0 79:0 80:0 81:0.69314718 82:0 83:0 84:0 85:0 86:0 87:1.3862944 88:0 89:1.0986123 90:0 91:0 92:1.1851923 93:0 94:0 95:0 96:0 97:0 98:0 99:0 100:0 101:0 102:0 103:0 104:0 105:0 106:5.2729996 107:1.6094379 108:1.7917595 109:0.69314718 110:0.69314718 111:0.69314718 112:0.69314718 113:0 114:0 115:0 116:0 117:1.9459101 118:0 \n6.097134716118824 1:0.0040683194 2:1.8985596 3:3.1199759 4:0.024692613 5:0 6:0.69314718 7:4.6539604 8:0.0097363029 9:0 10:0 11:0 12:0 13:0 14:0 15:0 16:0 17:0 18:0 19:0 20:0 21:0 22:0 23:0 24:0 25:1.6094379 26:0 27:0 28:0 29:0 30:0 31:0 32:0 33:0 34:0 35:0 36:1.9315214 37:0.69314718 38:0 39:0 40:0 41:0 42:0 43:0 44:0 45:0 46:0 47:0 48:0 49:0 50:0 51:0 52:2.5649494 53:1.6094379 54:2.7080502 55:2.3978953 56:2.8903718 57:1.9459101 58:0 59:1.7917595 60:1.0986123 61:0.69314718 62:1.7917595 63:1.3862944 64:0 65:0 66:0 67:0 68:0 69:0 70:0 71:0 72:0 73:0 74:0 75:0 76:0 77:0 78:2.7080502 79:1.6094379 80:2.7725887 81:2.3978953 82:2.8903718 83:2.0794415 84:2.0794415 85:0 86:1.7917595 87:2.9957323 88:2.9957323 89:0.69314718 90:1.3862944 91:0 92:0.11242512 93:0 94:0 95:0 96:0 97:0 98:0 99:0 100:0 101:0 102:0 103:0 104:0 105:0 106:7.2232957 107:4.5217886 108:3.8918203 109:5.3798974 110:2.8903718 111:3.9702919 112:2.3025851 113:2.1972246 114:2.3978953 115:1.3862944 116:4.7535902 117:2.0794415 118:2.8332133 \n8 1:0.0085286848 2:1.9276787 3:2.7322007 4:0.019802627 5:0 6:0.69314718 7:5.049856 8:0.048075296 9:0 10:0 11:0 12:0 13:0 14:0 15:0 16:0 17:0 18:0 19:0 20:0 21:0 22:0 23:0 24:0 25:0 26:0 27:0 28:0 29:0 30:0 31:0 32:0 33:0 34:0 35:0 36:1.6620304 37:0.69314718 38:0 39:0 40:0 41:0 42:0 43:0 44:0 45:0 46:0 47:0 48:0 49:0 50:0.69314718 51:0 52:4.2766661 53:3.4011974 54:4.1108739 55:3.8501476 56:4.2904594 57:3.6635616 58:2.0794415 59:3.0910425 60:3.6109179 61:3.2188758 62:3.0445224 63:3.912023 64:2.7080502 65:0 66:0 67:0 68:0 69:0 70:0 71:0 72:0 73:0 74:0 75:0 76:0 77:0 78:4.5643482 79:3.4011974 80:4.2341065 81:3.8501476 82:4.2904594 83:3.6635616 84:3.2188758 85:2.0794415 86:3.0910425 87:3.6109179 88:3.4657359 89:3.2188758 90:3.9512437 91:0 92:0.32510942 93:0 94:0 95:0 96:0 97:0 98:0 99:0 100:0 101:0 102:0 103:0 104:0 105:0 106:7.2772477 107:5.6835798 108:4.7535902 109:3.0445224 110:4.2484952 111:3.2580965 112:3.6109179 113:3.8501476 114:2.7080502 115:3.5263605 116:1.0986123 117:2.8332133 118:1.3862944 \n1.524878952953649 1:0.10256451 2:1.8198462 3:0.41661576 4:0.019802627 5:0 6:0.69314718 7:4.9416424 8:1.1675722 9:0 10:0 11:0 12:0 13:0 14:0 15:0 16:0 17:0 18:0 19:0 20:0 21:0 22:0 23:0 24:3.0445224 25:0 26:0 27:0 28:1.6094379 29:0 30:4.3694479 31:0 32:0 33:0 34:1.6094379 35:0 36:1.3217558 37:0.69314718 38:0 39:0 40:0 41:0 42:0 43:0 44:0 45:0 46:0 47:0 48:0 49:0 50:0 51:0 52:4.4543473 53:4.1431347 54:3.8066625 55:3.9318256 56:3.5835189 57:2.8903718 58:3.6375862 59:2.8903718 60:3.2580965 61:2.944439 62:4.1588831 63:3.5835189 64:3.2580965 65:0 66:0 67:0 68:0 69:0 70:0 71:0 72:0 73:0 74:0 75:0 76:0 77:0 78:4.7361984 79:4.1431347 80:3.8066625 81:3.9318256 82:3.5835189 83:2.8903718 84:4.2195077 85:3.6375862 86:2.8903718 87:3.2580965 88:3.988984 89:2.944439 90:3.6109179 91:0 92:1.8494564 93:0 94:0 95:0 96:0 97:0 98:0 99:0 100:0 101:0 102:0 103:0 104:0 105:0 106:7.3670771 107:5.4553211 108:4.4188406 109:2.5649494 110:3.6375862 111:2.8903718 112:3.6109179 113:3.4011974 114:3.2958369 115:3.4011974 116:0 117:2.944439 118:0.69314718 \n8 1:0.016194504 2:1.9960813 3:0.71712915 4:0.0049875415 5:0 6:0.69314718 7:4.9628446 8:0.69924526 9:0 10:0 11:0 12:0 13:0 14:0 15:0 16:0 17:0 18:0 19:0 20:0 21:0 22:0 23:0 24:0 25:0 26:0 27:0 28:0 29:0 30:0 31:0 32:0 33:0 34:0 35:0 36:1.8074688 37:0.69314718 38:0 39:0 40:0.69314718 41:0 42:0 43:0 44:0 45:0 46:0 47:0 48:0 49:0 50:0.69314718 51:0 52:4.8520303 53:2.7080502 54:4.7095302 55:4.0253517 56:3.2188758 57:3.988984 58:2.1972246 59:3.1780538 60:3.7612001 61:4.1431347 62:2.944439 63:3.912023 64:1.9459101 65:0 66:0 67:1.0986123 68:0 69:0 70:0 71:0 72:0 73:0 74:0 75:0 76:0 77:0 78:4.9272537 79:2.7080502 80:4.7184989 81:4.0253517 82:3.2188758 83:4.3174881 84:3.5835189 85:2.1972246 86:3.1780538 87:3.7612001 88:3.7135721 89:4.1431347 90:4.0253517 91:0 92:1.4401179 93:0 94:0 95:0 96:0 97:0 98:0 99:0 100:0 101:0 102:0 103:0 104:0 105:0 106:7.3498737 107:5.7745515 108:5.1298987 109:2.3978953 110:4.7449321 111:2.8903718 112:4.0775374 113:3.8918203 114:3.5835189 115:3.5553481 116:1.3862944 117:2.7080502 118:1.7917595 \n6.122616167553925 1:0.020050378 2:1.9434721 3:0.37380779 4:0.0099503309 5:0 6:0.69314718 7:3.6635616 8:0.10561153 9:0 10:0 11:0 12:0 13:0 14:0 15:0 16:0 17:0 18:0 19:0 20:0 21:0 22:0 23:0 24:0 25:0 26:0 27:0 28:0 29:0 30:0 31:0 32:0 33:0 34:0 35:0 36:1.0152307 37:0.69314718 38:0 39:0 40:0 41:0 42:0 43:0 44:0 45:0 46:0 47:0 48:0 49:0 50:0 51:0 52:2.7725887 53:0 54:2.7725887 55:1.7917595 56:0.69314718 57:1.3862944 58:0 59:1.6094379 60:2.0794415 61:2.0794415 62:0 63:1.9459101 64:0.69314718 65:0 66:0 67:0 68:0 69:0 70:0 71:0 72:0 73:0 74:0.69314718 75:0 76:0 77:0 78:2.944439 79:0 80:2.8332133 81:1.7917595 82:0.69314718 83:1.3862944 84:0 85:0 86:1.6094379 87:2.0794415 88:2.0794415 89:2.0794415 90:1.9459101 91:0 92:1.0923252 93:0 94:0 95:0 96:0 97:0 98:0 99:0 100:0 101:0 102:0 103:0 104:0 105:0 106:5.9053618 107:3.9512437 108:3.5835189 109:2.7080502 110:2.3978953 111:2.6390573 112:2.6390573 113:1.0986123 114:2.0794415 115:1.7917595 116:1.3862944 117:1.7917595 118:0.69314718 \n0.7716853105358323 1:0.49678652 2:1.7101662 3:0.36693954 4:0.0099503309 5:0 6:0.69314718 7:3.7376696 8:3.1440829 9:0 10:0 11:0 12:0 13:0 14:0 15:0 16:0 17:0 18:0 19:0 20:0 21:0 22:0 23:0 24:5.2832037 25:4.9199809 26:0 27:0 28:0 29:0 30:0 31:0 32:0 33:0 34:0 35:0 36:0.81314997 37:0.69314718 38:0 39:0 40:0 41:0 42:0 43:0 44:0 45:0 46:0 47:0 48:0 49:0 50:0 51:0 52:2.3978953 53:3.6109179 54:2.5649494 55:2.8903718 56:4.1588831 57:1.3862944 58:3.5835189 59:1.7917595 60:1.3862944 61:1.6094379 62:1.0986123 63:0.69314718 64:3.1354942 65:0 66:0 67:0 68:0 69:0 70:0 71:0 72:0 73:0 74:0 75:0 76:0 77:0 78:2.6390573 79:3.6109179 80:2.7080502 81:2.8903718 82:4.1588831 83:1.3862944 84:1.9459101 85:3.5835189 86:1.7917595 87:1.3862944 88:2.1972246 89:1.6094379 90:0.69314718 91:0 92:4.1789781 93:0 94:0 95:0 96:0 97:0 98:0 99:0 100:0 101:0 102:0 103:0 104:0 105:0 106:6.6066502 107:5.1298987 108:4.9767337 109:1.7917595 110:2.6390573 111:2.6390573 112:1.3862944 113:2.6390573 114:1.3862944 115:2.1972246 116:0.69314718 117:1.6094379 118:0.69314718 \n8 1:0 2:1.9045343 3:0.53408249 4:0 5:0 6:0 7:4.9199809 8:0 9:0 10:0 11:0 12:0 13:0 14:0 15:0 16:0 17:0 18:0 19:0 20:0 21:0 22:0 23:0 24:0 25:0 26:0 27:0 28:0 29:0 30:0 31:0 32:0 33:0 34:0 35:0 36:0.85175221 37:0.69314718 38:0 39:0 40:0 41:0 42:0 43:0 44:0 45:0 46:0 47:0 48:0 49:0 50:0 51:0 52:3.6375862 53:3.6635616 54:4.1108739 55:2.7080502 56:2.4849066 57:3.2188758 58:2.1972246 59:3.5263605 60:2.944439 61:2.7080502 62:2.1972246 63:3.0445224 64:0 65:0 66:0 67:0 68:0 69:0 70:0 71:0 72:0 73:0 74:0 75:0 76:0 77:0 78:3.6375862 79:3.6635616 80:4.1431347 81:2.7080502 82:2.4849066 83:3.2188758 84:2.1972246 85:2.1972246 86:3.5263605 87:2.944439 88:2.1972246 89:2.7080502 90:3.0445224 91:0 92:1.8986932 93:0 94:0 95:0 96:0 97:0 98:0 99:0 100:0 101:0 102:0 103:0 104:0 105:0 106:6.7031881 107:4.8675345 108:3.1354942 109:1.0986123 110:2.3978953 111:1.6094379 112:3.4011974 113:2.1972246 114:2.5649494 115:2.3978953 116:1.0986123 117:1.9459101 118:0 \n0.8990624397983559 1:0.0050077655 2:1.7594471 3:0.15415068 4:0.0049875415 5:0 6:0.69314718 7:4.1588831 8:0.086513288 9:0 10:0 11:0 12:0 13:0 14:0 15:0 16:0 17:0 18:0 19:0 20:0 21:0 22:0 23:0 24:0 25:0 26:0 27:0 28:0 29:0 30:0 31:0 32:1.0986123 33:0 34:0 35:0 36:1.2193539 37:0.69314718 38:0 39:0 40:0 41:0 42:0 43:0 44:0 45:0 46:0 47:0 48:0 49:0 50:0 51:0 52:3.3672958 53:4.7095302 54:3.6888795 55:3.2188758 56:2.1972246 57:3.2188758 58:2.6390573 59:3.2580965 60:2.4849066 61:1.9459101 62:3.1780538 63:4.1896547 64:4.3040651 65:0 66:0 67:0 68:0 69:0 70:0 71:0 72:0 73:0 74:0 75:0 76:0 77:0 78:3.5835189 79:4.7095302 80:3.7135721 81:3.2188758 82:2.1972246 83:3.2188758 84:3.4965076 85:2.6390573 86:3.2580965 87:2.5649494 88:2.6390573 89:1.9459101 90:4.1896547 91:0 92:0.67293901 93:0 94:0 95:0 96:0 97:0 98:0 99:0 100:0 101:0 102:0 103:0 104:0 105:0 106:6.9669671 107:5.5683445 108:3.9318256 109:2.7725887 110:2.8332133 111:3.4339872 112:3.2188758 113:2.6390573 114:1.7917595 115:4.0943446 116:0 117:1.7917595 118:0.69314718 \n8 1:0.0018748752 2:2.0134313 3:0.43223535 4:0.029558802 5:0 6:0.69314718 7:4.0073332 8:0.014285008 9:0 10:0 11:0 12:0 13:0 14:0 15:0 16:0 17:0 18:0 19:0 20:0 21:0 22:0 23:0 24:0 25:0 26:0 27:0 28:0 29:0 30:0 31:0 32:0 33:0 34:0 35:0 36:1.8625285 37:0.69314718 38:0 39:0 40:0 41:0 42:0 43:0 44:0 45:0 46:0 47:0 48:0 49:0 50:0 51:0 52:3.5263605 53:0.69314718 54:2.944439 55:2.8332133 56:0 57:2.4849066 58:0 59:1.9459101 60:2.5649494 61:3.3322045 62:0.69314718 63:2.3978953 64:0 65:0 66:0 67:0 68:0 69:0 70:0 71:0 72:0 73:0 74:0.69314718 75:0 76:0 77:0 78:3.6109179 79:0.69314718 80:2.944439 81:2.8332133 82:0 83:2.4849066 84:1.0986123 85:0 86:1.9459101 87:2.5649494 88:2.5649494 89:3.3322045 90:2.3978953 91:0 92:0.018310022 93:0 94:0 95:0 96:0 97:0 98:0 99:0 100:0 101:0 102:0 103:0 104:0 105:0 106:6.1903154 107:4.5538769 108:4.1271344 109:2.8903718 110:2.8332133 111:1.6094379 112:3.3672958 113:1.3862944 114:2.6390573 115:2.3025851 116:1.6094379 117:1.3862944 118:1.0986123 \n1.686059208173998 1:0 2:1.9360507 3:3.2752176 4:0 5:0 6:0.69314718 7:5.0238805 8:2.1042758 9:0 10:0 11:0 12:0 13:0 14:0 15:0 16:0 17:0 18:0 19:0 20:0 21:0 22:0 23:0 24:0 25:0 26:0 27:0 28:1.0986123 29:0 30:0 31:0 32:0 33:0 34:0 35:0 36:1.3825373 37:0.69314718 38:0 39:0 40:0 41:0 42:0 43:0 44:0 45:0 46:0 47:0 48:0 49:0 50:0 51:0 52:0.69314718 53:0.69314718 54:1.0986123 55:3.6375862 56:1.0986123 57:0 58:2.1972246 59:0 60:0 61:0.69314718 62:0 63:0 64:2.3978953 65:0 66:0 67:0 68:0 69:0 70:0 71:0 72:0 73:0 74:0 75:0 76:0 77:0 78:0.69314718 79:0.69314718 80:1.0986123 81:3.6375862 82:1.0986123 83:1.0986123 84:0 85:2.1972246 86:0 87:0 88:0 89:0.69314718 90:0 91:0 92:3.8589393 93:0 94:0 95:0 96:0 97:0 98:0 99:0 100:0 101:0 102:0 103:0 104:0 105:0 106:6.6280414 107:4.8121844 108:4.3694479 109:4.9972123 110:1.7917595 111:5.1179938 112:1.3862944 113:1.3862944 114:3.3672958 115:1.0986123 116:1.9459101 117:1.3862944 118:2.4849066 \n2.358734187854318 1:0.0446269 2:2.4273211 3:0.086750926 4:0.044016885 5:0 6:0.69314718 7:3.9702919 8:0.025038168 9:0 10:0 11:0 12:0 13:0 14:0 15:0 16:0 17:0 18:0 19:0 20:0 21:0 22:0 23:0 24:0 25:0 26:0 27:0 28:0 29:0 30:1.0986123 31:0 32:0 33:0 34:0 35:0 36:1.3230883 37:0.69314718 38:0 39:0 40:0 41:0 42:0 43:0 44:0 45:0 46:0 47:0 48:0 49:0 50:0.69314718 51:0 52:2.0794415 53:0.69314718 54:0.69314718 55:1.0986123 56:0.69314718 57:1.7917595 58:0 59:1.0986123 60:1.6094379 61:0.69314718 62:0 63:1.3862944 64:0 65:0 66:0 67:0 68:0 69:0 70:0 71:0 72:0 73:0 74:0 75:0 76:0 77:0 78:2.3025851 79:0.69314718 80:0.69314718 81:1.0986123 82:0.69314718 83:1.7917595 84:0 85:0 86:1.0986123 87:1.6094379 88:1.7917595 89:0.69314718 90:1.3862944 91:0 92:0.67808147 93:0 94:0 95:0 96:0 97:0 98:0 99:0.69314718 100:0 101:0 102:0 103:0 104:0 105:0 106:6.5102583 107:4.1743873 108:3.3322045 109:3.6635616 110:2.8332133 111:3.1354942 112:2.0794415 113:1.7917595 114:1.0986123 115:1.9459101 116:1.6094379 117:1.6094379 118:1.3862944 \n8 1:0.0022398325 2:1.9402588 3:0.33075505 4:0.0099503309 5:0 6:0.69314718 7:5.0751738 8:0.031996576 9:0 10:0 11:0 12:2.7080502 13:0 14:0 15:0 16:0 17:0 18:0 19:0 20:0 21:0 22:0 23:0 24:0 25:0 26:0 27:0 28:0 29:0 30:0 31:0 32:0 33:0 34:0 35:0 36:1.8033586 37:0.69314718 38:0 39:0 40:0 41:0 42:0 43:0 44:0 45:0 46:0 47:0.69314718 48:0 49:0 50:0 51:0 52:4.634729 53:1.9459101 54:4.3820266 55:3.5553481 56:4.1271344 57:3.4339872 58:1.3862944 59:3.2580965 60:3.5263605 61:3.7612001 62:2.7080502 63:4.4188406 64:0 65:0 66:0 67:0 68:0 69:0 70:0 71:0 72:0 73:0 74:0 75:0 76:0 77:0 78:4.8828019 79:1.9459101 80:4.4067192 81:3.5553481 82:4.1271344 83:3.4657359 84:3.0445224 85:1.3862944 86:3.2580965 87:3.5553481 88:4.0073332 89:3.7612001 90:4.4188406 91:0 92:0.16564874 93:0 94:0 95:0 96:0 97:0 98:0 99:0 100:0 101:0 102:0 103:0 104:0 105:0 106:7.3118862 107:5.6204009 108:4.9972123 109:2.7080502 110:4.2046926 111:3.1354942 112:3.871201 113:3.4657359 114:3.4339872 115:3.4011974 116:1.9459101 117:3.0445224 118:0.69314718 \n0.6390926606407069 1:0 2:1.9994635 3:1.0986123 4:0 5:0 6:0 7:3.7612001 8:0 9:0 10:0 11:0 12:0 13:0 14:0 15:0 16:0 17:0 18:0 19:0 20:0 21:0 22:0 23:0 24:0 25:0 26:0 27:0 28:0 29:0 30:0 31:0 32:0 33:0 34:0 35:0 36:0.59279921 37:0.69314718 38:0 39:0 40:0 41:0 42:0 43:0 44:0 45:0 46:0 47:0 48:0 49:0 50:0 51:0 52:0 53:2.0794415 54:2.3978953 55:2.3025851 56:2.3025851 57:1.6094379 58:0 59:0.69314718 60:1.0986123 61:0.69314718 62:0.69314718 63:0.69314718 64:1.6094379 65:0 66:0 67:0 68:0 69:0 70:0 71:0 72:0 73:0 74:0 75:0 76:0 77:0 78:1.7917595 79:2.0794415 80:2.3978953 81:2.3025851 82:2.3025851 83:1.6094379 84:0.69314718 85:0 86:0.69314718 87:1.0986123 88:0.69314718 89:0.69314718 90:0.69314718 91:0 92:0.87619507 93:0 94:0 95:0 96:0 97:0 98:0.69314718 99:0 100:0 101:0 102:0 103:0 104:0 105:0 106:5.2832037 107:3.0910425 108:2.5649494 109:1.0986123 110:1.9459101 111:5.1929569 112:1.6094379 113:0 114:2.0794415 115:2.0794415 116:0 117:1.7917595 118:1.0986123 \n4.044743000715054 1:0 2:1.9266083 3:1.6013243 4:0 5:0 6:0 7:4.8675345 8:0 9:0 10:0 11:0 12:0 13:0 14:0 15:0 16:0 17:0 18:0 19:0 20:0 21:0 22:0 23:0 24:0 25:0 26:0 27:0 28:0 29:0 30:0 31:0 32:0 33:0 34:0 35:0 36:1.7613003 37:0.69314718 38:0 39:0 40:0 41:0 42:0 43:0.69314718 44:0 45:0 46:0 47:0 48:0 49:0 50:0 51:0 52:5.3565863 53:3.5263605 54:4.804021 55:4.4308168 56:2.3025851 57:4.0430513 58:3.6635616 59:3.3672958 60:3.8286414 61:3.8286414 62:2.6390573 63:4.4998097 64:2.3025851 65:0 66:0 67:0 68:0 69:0.69314718 70:0 71:0 72:0 73:0 74:0 75:0 76:0 77:0 78:5.5645204 79:3.5263605 80:4.8362819 81:4.4308168 82:2.3025851 83:4.0430513 84:3.0445224 85:3.6635616 86:3.3672958 87:3.8501476 88:4.3438054 89:3.8286414 90:4.5217886 91:0 92:0.70313724 93:0 94:0 95:0 96:0 97:0 98:0 99:0 100:0 101:0 102:0 103:0 104:0 105:0 106:7.6108528 107:6.1025586 108:4.9052748 109:3.4965076 110:4.0943446 111:4.5108595 112:5.164786 113:3.7612001 114:2.9957323 115:4.1588831 116:2.3978953 117:3.8286414 118:2.1972246 \n8 1:0 2:1.8978364 3:0.65524791 4:0 5:0 6:0 7:4.3694479 8:0 9:0 10:0 11:0 12:0 13:0 14:0 15:0 16:0 17:0 18:0 19:0 20:0 21:0 22:0 23:0 24:0 25:0 26:0 27:0 28:0 29:0 30:0 31:0 32:0 33:0 34:0 35:0 36:1.7110916 37:0.69314718 38:0 39:0 40:0 41:0 42:0 43:0 44:0 45:0 46:0.69314718 47:0 48:0 49:0 50:0 51:0 52:4.3307333 53:3.7135721 54:4.1431347 55:3.8918203 56:3.3322045 57:3.3672958 58:2.8332133 59:3.1780538 60:3.6635616 61:3.2188758 62:3.3322045 63:3.3672958 64:1.6094379 65:0 66:0 67:0 68:0 69:0 70:0 71:0.69314718 72:0 73:0 74:0 75:0 76:0 77:0 78:4.6443909 79:3.7135721 80:4.1743873 81:3.8918203 82:3.3322045 83:3.4011974 84:3.6888795 85:2.8332133 86:3.1780538 87:3.6635616 88:3.4339872 89:3.2188758 90:3.4011974 91:0 92:0.91831637 93:0 94:0 95:0 96:0 97:0 98:0 99:0 100:0 101:0 102:0 103:0 104:0 105:0 106:7.1739583 107:5.6489742 108:4.574711 109:2.7725887 110:4.1588831 111:2.9957323 112:4.2046926 113:3.0445224 114:3.2958369 115:3.0910425 116:3.0445224 117:3.3672958 118:2.4849066 \n0.1223439736028905 1:0 2:1.8451893 3:0.82355322 4:0 5:0 6:0 7:4.4886364 8:0 9:0 10:0 11:0 12:0 13:0 14:0 15:0 16:0 17:0 18:0 19:0 20:0 21:0 22:0 23:0 24:0 25:0 26:0 27:0 28:0 29:0 30:0 31:0 32:0 33:0 34:0 35:0 36:1.1200476 37:0.69314718 38:0 39:0 40:0 41:0 42:0 43:0 44:0 45:0 46:0 47:0 48:0 49:0 50:0 51:0 52:3.5835189 53:2.9957323 54:2.4849066 55:1.0986123 56:0.69314718 57:3.5553481 58:1.3862944 59:1.6094379 60:1.3862944 61:2.4849066 62:1.0986123 63:1.3862944 64:0.69314718 65:4.6443909 66:0 67:0 68:0 69:0 70:0 71:0 72:0 73:0 74:0 75:0 76:0 77:0 78:3.6375862 79:2.9957323 80:2.4849066 81:1.0986123 82:0.69314718 83:3.5553481 84:1.0986123 85:1.3862944 86:1.6094379 87:1.6094379 88:2.8332133 89:2.4849066 90:1.3862944 91:0 92:0.31793804 93:0 94:0 95:0 96:0 97:0 98:0 99:0 100:0 101:0 102:0 103:0 104:0 105:0 106:7.3185395 107:5.0039463 108:4.3040651 109:2.0794415 110:2.8903718 111:3.7376696 112:0.69314718 113:3.5835189 114:0 115:2.7725887 116:1.3862944 117:1.0986123 118:0 \n8 1:0 2:2.0052362 3:0.52309572 4:0 5:0 6:0.69314718 7:4.2484952 8:0.00070627326 9:0 10:0 11:0 12:0 13:0 14:0 15:0 16:0 17:0 18:0 19:0 20:0 21:0 22:0 23:0 24:0 25:0 26:0 27:0 28:0 29:0 30:0 31:0 32:0 33:0 34:0 35:0 36:1.6843392 37:0.69314718 38:0 39:0 40:0 41:0 42:0 43:0 44:0 45:0 46:0 47:0 48:0 49:0 50:1.0986123 51:0 52:4.3820266 53:3.2958369 54:3.5263605 55:3.3672958 56:3.3672958 57:2.9957323 58:1.9459101 59:3.1354942 60:4.4543473 61:3.6888795 62:1.6094379 63:3.988984 64:1.0986123 65:0 66:0 67:0 68:0 69:0 70:0 71:0 72:0 73:0 74:0 75:0 76:0 77:0 78:4.6913479 79:3.2958369 80:3.5263605 81:3.3672958 82:3.3672958 83:2.9957323 84:1.9459101 85:1.9459101 86:3.1354942 87:4.4543473 88:3.9512437 89:3.6888795 90:3.988984 91:0 92:0.079825735 93:0 94:0 95:0 96:0 97:0 98:0 99:0 100:0 101:0 102:0 103:0 104:0 105:0 106:7.2034055 107:5.4510385 108:4.8675345 109:3.5263605 110:3.6109179 111:3.0910425 112:3.4965076 113:3.2188758 114:3.7135721 115:4.0430513 116:1.3862944 117:3.2580965 118:4.0430513 \n0.7478087873897671 1:0.0021117257 2:2.0572197 3:0.4701084 4:0.0049875415 5:0 6:0.69314718 7:4.7361984 8:0.11753719 9:0 10:0 11:0 12:0 13:0 14:0 15:0 16:0 17:0 18:0 19:0 20:0 21:0 22:0 23:0 24:0 25:0 26:0 27:0 28:0 29:0 30:0 31:0 32:0 33:0 34:0 35:0 36:1.8523841 37:0.69314718 38:0 39:0 40:0 41:0 42:0 43:0 44:0 45:0 46:0 47:0 48:0 49:0 50:0 51:0 52:2.0794415 53:0.69314718 54:1.0986123 55:3.5835189 56:0 57:0.69314718 58:0 59:0.69314718 60:2.0794415 61:1.7917595 62:0.69314718 63:0 64:2.944439 65:0 66:0 67:0.69314718 68:0 69:0 70:0 71:0 72:0 73:0 74:0 75:0 76:0 77:0 78:2.1972246 79:0.69314718 80:1.0986123 81:3.5835189 82:0 83:0.69314718 84:0.69314718 85:0 86:0.69314718 87:2.1972246 88:1.9459101 89:1.7917595 90:0.69314718 91:0 92:0.32115235 93:0 94:0 95:0 96:0 97:0 98:0 99:0 100:0 101:0 102:0 103:0 104:0 105:0 106:7.0492548 107:5.241747 108:5.0434251 109:5.4161004 110:2.4849066 111:5.4847969 112:1.0986123 113:1.0986123 114:4.0253517 115:1.9459101 116:2.6390573 117:1.7917595 118:3.2958369 \n2.726701102856743 1:0 2:1.9298769 3:0.15430444 4:0 5:0 6:0 7:4.2484952 8:0 9:0 10:0 11:0 12:0 13:0 14:0 15:0 16:0 17:0 18:0 19:0 20:0 21:0 22:0 23:0 24:0 25:0 26:0 27:0 28:0 29:0 30:0 31:0 32:0 33:0 34:0 35:0 36:1.7741045 37:0.69314718 38:0 39:0 40:0.69314718 41:0 42:0 43:0 44:0 45:0.69314718 46:0 47:0 48:0 49:0 50:0 51:0 52:3.988984 53:0 54:3.5835189 55:2.944439 56:2.1972246 57:2.7080502 58:0.69314718 59:1.7917595 60:3.2188758 61:3.1780538 62:0 63:3.1780538 64:0.69314718 65:0 66:0 67:0.69314718 68:0 69:0 70:0 71:0 72:0 73:0 74:0 75:0 76:0 77:0 78:4.0943446 79:0 80:3.5835189 81:2.944439 82:2.1972246 83:2.7080502 84:0 85:0.69314718 86:1.7917595 87:3.2188758 88:2.1972246 89:3.1780538 90:3.1780538 91:0 92:3.498305 93:0 94:0 95:0 96:0 97:0 98:0 99:0 100:0 101:0 102:0 103:0 104:0 105:0 106:6.9275579 107:5.062595 108:4.9767337 109:3.4339872 110:3.988984 111:3.6888795 112:3.7612001 113:2.4849066 114:3.8066625 115:2.8332133 116:3.3322045 117:2.0794415 118:2.8332133 \n8 1:0 2:1.9184315 3:0.79381013 4:0 5:0 6:0.69314718 7:3.7841896 8:0.028571955 9:0 10:0 11:0 12:0 13:0 14:0 15:0 16:0 17:0 18:0 19:0 20:0 21:0 22:0 23:0 24:0 25:0 26:0 27:0 28:0 29:0 30:0 31:0 32:0 33:0 34:0 35:0 36:1.7011051 37:0.69314718 38:0 39:0 40:0 41:0 42:0 43:0 44:0 45:0 46:0 47:0 48:0 49:0 50:1.0986123 51:0 52:4.2341065 53:2.3025851 54:3.5263605 55:3.4339872 56:2.5649494 57:3.6888795 58:1.0986123 59:2.8332133 60:3.988984 61:2.944439 62:1.0986123 63:3.2188758 64:0.69314718 65:0 66:0 67:0 68:0 69:0 70:0 71:0 72:0 73:0 74:0 75:0 76:0 77:0 78:4.3820266 79:2.3025851 80:3.5263605 81:3.4339872 82:2.5649494 83:3.6888795 84:1.7917595 85:1.0986123 86:2.8332133 87:4.1108739 88:2.944439 89:2.944439 90:3.2188758 91:0 92:1.349197 93:0 94:0 95:0 96:0 97:0 98:0 99:0.69314718 100:0 101:0 102:0 103:0 104:0 105:0 106:7.2130317 107:5.5254529 108:4.9836066 109:3.8918203 110:4.060443 111:3.6375862 112:4.2766661 113:2.7725887 114:3.5553481 115:4.060443 116:2.6390573 117:2.6390573 118:2.1972246 \n3.991631060775427 1:0.028258043 2:1.9436293 3:0.58032792 4:0.058268908 5:0 6:0.69314718 7:4.6821312 8:0.10639032 9:0 10:0 11:0 12:0 13:0 14:0 15:0 16:0 17:0 18:0 19:0 20:0 21:0 22:0 23:0 24:0 25:1.0986123 26:0 27:1.0986123 28:0 29:0 30:0 31:0 32:0 33:0 34:0 35:0 36:1.8453002 37:0.69314718 38:0 39:0 40:0 41:0 42:0 43:0 44:0 45:0 46:0 47:0 48:0 49:0 50:1.0986123 51:0 52:4.3307333 53:2.1972246 54:4.1743873 55:3.4657359 56:2.6390573 57:3.0445224 58:2.1972246 59:3.2580965 60:3.6888795 61:3.7841896 62:2.4849066 63:3.5553481 64:1.0986123 65:0 66:0 67:0 68:0 69:0 70:0 71:0 72:0 73:0 74:0 75:0 76:0 77:0 78:4.4188406 79:2.1972246 80:4.2195077 81:3.4657359 82:2.6390573 83:3.0445224 84:2.8903718 85:2.1972246 86:3.2580965 87:3.6888795 88:3.2958369 89:3.7841896 90:3.6888795 91:0 92:0.36019507 93:0 94:0 95:0 96:0 97:0 98:0 99:0 100:0 101:0 102:0 103:0 104:0 105:0 106:7.1236728 107:5.42495 108:4.9836066 109:3.4339872 110:3.7841896 111:3.4339872 112:4.2046926 113:3.0910425 114:3.6635616 115:3.2188758 116:1.6094379 117:1.9459101 118:1.9459101 \n3.342186953541428 1:0 2:1.9427933 3:2.9173156 4:0 5:0 6:0.69314718 7:4.8978398 8:0.039040051 9:0 10:0 11:0 12:0 13:0 14:0 15:0 16:0 17:0 18:0 19:0 20:0 21:0 22:0 23:0 24:0 25:0 26:0 27:1.6094379 28:0 29:0 30:0 31:0 32:0 33:0 34:0 35:0 36:1.7613003 37:0.69314718 38:0 39:0 40:0 41:0 42:0 43:0 44:0 45:0 46:0 47:0 48:0 49:0 50:0 51:0 52:4.3438054 53:4.3174881 54:4.2484952 55:3.7135721 56:3.9702919 57:3.7135721 58:3.2188758 59:3.2188758 60:3.2580965 61:2.944439 62:3.5553481 63:3.5835189 64:2.8332133 65:0 66:0 67:0 68:0 69:0 70:0 71:0 72:0 73:0 74:0.69314718 75:0 76:0 77:0 78:4.5108595 79:4.3174881 80:4.2766661 81:3.7135721 82:3.9702919 83:3.7135721 84:3.7841896 85:3.2188758 86:3.2188758 87:3.2580965 88:3.6375862 89:2.944439 90:3.5835189 91:0 92:0.35368201 93:0 94:0 95:0 96:0 97:0 98:0 99:0 100:0 101:0 102:0 103:0 104:0 105:0 106:7.3185395 107:5.8141305 108:4.9487599 109:3.0445224 110:3.9318256 111:3.0445224 112:4.0253517 113:4.0253517 114:3.9318256 115:3.7135721 116:1.9459101 117:2.4849066 118:1.6094379 \n6.938176237896883 1:0 2:1.8101086 3:0.67702262 4:0 5:0 6:0 7:3.8066625 8:0 9:0 10:0 11:0 12:0 13:0 14:0 15:0 16:0 17:0 18:0 19:0 20:0 21:0 22:0 23:0 24:0 25:0 26:0 27:0 28:0 29:0 30:0 31:0 32:0 33:0 34:0 35:0 36:0.73236789 37:0.69314718 38:0 39:0 40:0 41:0 42:0 43:0 44:0 45:2.3978953 46:0 47:0 48:0 49:0 50:0 51:0 52:4.3567088 53:3.0445224 54:4.9487599 55:4.9052748 56:4.6051702 57:3.2958369 58:3.4965076 59:3.8918203 60:3.1354942 61:3.5553481 62:2.8332133 63:3.5263605 64:0 65:0 66:0 67:0 68:0 69:0 70:0 71:0 72:0 73:0 74:0 75:0 76:0 77:0 78:4.3567088 79:3.0445224 80:4.9487599 81:4.9052748 82:4.6051702 83:3.2958369 84:3.9318256 85:3.4965076 86:3.8918203 87:3.1354942 88:3.7376696 89:3.5553481 90:3.5263605 91:0 92:3.0197085 93:0 94:0 95:0 96:0 97:0 98:0 99:0 100:0 101:0 102:0 103:0 104:0 105:0 106:7.4798641 107:6.1398846 108:5.2203558 109:0 110:3.988984 111:3.4011974 112:4.0430513 113:4.060443 114:3.9318256 115:3.0910425 116:3.1354942 117:0 118:0 \n1.488593167901348 1:0 2:1.8034384 3:0 4:0 5:0 6:0.69314718 7:4.8283137 8:0.39290889 9:0 10:0 11:0 12:0 13:0 14:0 15:0 16:0 17:0 18:0 19:0 20:0 21:0 22:0 23:0 24:0 25:0 26:0 27:0 28:0 29:0 30:0 31:0 32:0 33:0 34:0 35:0 36:1.2590921 37:0.69314718 38:0 39:0 40:0 41:0 42:0 43:0 44:0 45:0 46:0 47:0 48:0 49:0 50:0 51:0 52:3.1780538 53:2.6390573 54:2.8903718 55:3.2188758 56:3.6375862 57:2.0794415 58:1.7917595 59:2.0794415 60:2.4849066 61:1.9459101 62:1.7917595 63:2.0794415 64:2.7725887 65:0 66:0 67:0.69314718 68:0 69:0 70:0 71:0 72:0 73:0 74:0 75:0 76:0 77:0 78:3.4011974 79:2.6390573 80:2.8903718 81:3.2188758 82:3.6375862 83:2.0794415 84:3.0910425 85:1.7917595 86:2.0794415 87:2.4849066 88:2.1972246 89:1.9459101 90:2.0794415 91:0 92:4.4726319 93:0 94:0 95:0 96:0 97:0 98:0 99:0 100:0 101:0 102:0 103:0 104:0 105:0 106:6.7105231 107:4.7957905 108:4.8283137 109:1.7917595 110:3.8286414 111:2.4849066 112:3.3322045 113:2.1972246 114:4.2904594 115:1.6094379 116:1.0986123 117:1.6094379 118:2.1972246 \n1.448469873140328 1:0 2:2.0012197 3:0.51082562 4:0 5:0 6:0.69314718 7:4.5643482 8:0.030460174 9:0 10:0 11:0 12:0 13:0 14:0 15:0 16:0 17:0 18:0 19:0 20:0 21:0 22:0 23:0 24:0 25:0 26:0 27:0 28:0 29:0 30:0 31:0 32:0 33:0 34:0 35:0 36:1.4146388 37:0.69314718 38:0 39:0 40:0 41:0 42:0 43:0 44:0 45:0 46:0 47:0 48:0 49:0 50:1.0986123 51:0 52:4.4543473 53:2.4849066 54:2.5649494 55:3.6375862 56:2.3978953 57:0 58:2.944439 59:1.6094379 60:2.8903718 61:3.3672958 62:2.8332133 63:1.0986123 64:2.5649494 65:0 66:0 67:0 68:0 69:0 70:0 71:0 72:0 73:0 74:0 75:0 76:0 77:0 78:4.5108595 79:2.4849066 80:2.5649494 81:3.6375862 82:2.3978953 83:0 84:3.6109179 85:2.944439 86:1.6094379 87:2.8903718 88:3.6109179 89:3.3672958 90:1.0986123 91:0 92:1.3984224 93:0 94:0 95:0 96:0 97:0 98:0 99:0 100:0 101:0 102:0 103:0 104:0 105:0 106:7.3951075 107:5.5568281 108:4.6539604 109:3.2188758 110:4.5217886 111:4.0943446 112:3.4657359 113:3.2188758 114:3.8918203 115:3.6375862 116:2.0794415 117:1.9459101 118:0 \n1.91687354316763 1:0.27949142 2:1.8974519 3:0.32455261 4:0.34712953 5:0 6:0.69314718 7:4.7095302 8:0.08914631 9:0 10:1.6094379 11:1.0986123 12:0 13:0 14:0 15:0 16:0 17:0 18:0 19:0 20:0 21:0 22:0 23:0 24:0 25:0 26:0 27:0 28:0 29:0 30:0 31:0 32:0 33:0 34:0 35:0 36:1.9494752 37:0.69314718 38:0 39:0 40:0 41:0 42:1.3862944 43:0 44:0 45:0.69314718 46:0 47:0 48:0 49:0 50:0.69314718 51:0 52:4.8121844 53:2.9957323 54:4.2904594 55:4.1271344 56:3.0910425 57:3.7841896 58:1.0986123 59:3.7841896 60:3.7612001 61:3.5553481 62:3.1780538 63:3.871201 64:2.0794415 65:0 66:0 67:0.69314718 68:1.3862944 69:0 70:0 71:0 72:0 73:0 74:1.3862944 75:0 76:0 77:0 78:4.9767337 79:2.9957323 80:4.3307333 81:4.1271344 82:3.0910425 83:3.8286414 84:3.4011974 85:1.0986123 86:3.7841896 87:3.7841896 88:3.6635616 89:3.5553481 90:3.8918203 91:0 92:0.54981315 93:0 94:0 95:0 96:0 97:0 98:0 99:0 100:0 101:0 102:0 103:0 104:0 105:0 106:7.4324838 107:5.8522025 108:5.2311086 109:3.2958369 110:4.2046926 111:3.2958369 112:4.5643482 113:3.8066625 114:3.6375862 115:3.2958369 116:2.1972246 117:3.2188758 118:1.3862944 \n1.117464797845805 1:0 2:1.8391056 3:0.39531274 4:0 5:0 6:0 7:4.2904594 8:0 9:0 10:0 11:0 12:0 13:0 14:0 15:0 16:0 17:0 18:0 19:0 20:0 21:0 22:0 23:0 24:0 25:0 26:0 27:0 28:0 29:0 30:0 31:0 32:0 33:0 34:0 35:0 36:1.3217558 37:0.69314718 38:0 39:0 40:0 41:0 42:0 43:0 44:0 45:0 46:0 47:0 48:0 49:0 50:0 51:0 52:4.1743873 53:2.8903718 54:2.7725887 55:2.6390573 56:3.6375862 57:2.5649494 58:1.3862944 59:3.871201 60:2.4849066 61:2.9957323 62:0.69314718 63:1.9459101 64:1.3862944 65:0 66:0 67:0 68:0 69:0 70:0 71:0 72:0 73:0 74:0 75:0 76:0 77:0 78:4.2484952 79:2.8903718 80:5.2574954 81:2.6390573 82:3.6375862 83:2.5649494 84:1.0986123 85:1.3862944 86:3.871201 87:2.4849066 88:5.198497 89:2.9957323 90:1.9459101 91:0 92:1.3478665 93:0 94:0 95:0 96:0 97:0 98:0 99:0 100:0 101:0 102:0 103:0 104:0 105:0 106:7.1428274 107:5.7990927 108:4.6539604 109:4.0073332 110:4.3694479 111:5.3565863 112:1.9459101 113:2.3978953 114:2.5649494 115:5.2257467 116:3.1780538 117:1.3862944 118:1.6094379 \n3.215413244390272 1:0.0096567922 2:1.7907396 3:0.50729242 4:0.0049875415 5:0 6:0.69314718 7:5.062595 8:0.50085962 9:0 10:0 11:0 12:0 13:0 14:0 15:0 16:0 17:0 18:0 19:0 20:0 21:0 22:0 23:0 24:3.3672958 25:1.0986123 26:0 27:0 28:2.1972246 29:0 30:0 31:0 32:0 33:0 34:0 35:1.0986123 36:0.96888318 37:0.69314718 38:0 39:0 40:0 41:0 42:0 43:0 44:0 45:0 46:0 47:0 48:0 49:0 50:0 51:0 52:3.0445224 53:2.3978953 54:3.3672958 55:2.8332133 56:2.7080502 57:2.9957323 58:3.0445224 59:1.3862944 60:1.7917595 61:1.7917595 62:2.3025851 63:3.0910425 64:2.3025851 65:0 66:0 67:0 68:0 69:0 70:0 71:0 72:0 73:0 74:0 75:0 76:0 77:0 78:3.8066625 79:2.3978953 80:3.3672958 81:2.8332133 82:2.7080502 83:2.9957323 84:2.5649494 85:3.0445224 86:1.3862944 87:1.9459101 88:1.9459101 89:1.7917595 90:3.0910425 91:0 92:1.0635508 93:0 94:0 95:0 96:0 97:0 98:0 99:0 100:0 101:0 102:0 103:0 104:0 105:0 106:6.3767269 107:4.3174881 108:3.7612001 109:1.3862944 110:2.3978953 111:1.7917595 112:2.0794415 113:2.8903718 114:1.7917595 115:1.3862944 116:0.69314718 117:3.1354942 118:1.0986123 \n4.27883710448727 1:0 2:1.8169302 3:0.46734051 4:0 5:0 6:0.69314718 7:3.1780538 8:0.147649 9:0 10:0 11:0 12:0 13:0 14:0 15:0 16:0 17:0 18:0 19:0 20:0 21:0 22:0 23:0 24:0 25:0 26:0 27:0 28:0 29:0 30:0 31:0 32:0 33:0 34:0 35:0 36:0.61518564 37:0.69314718 38:0 39:0 40:0 41:0 42:0 43:0 44:0 45:0 46:0 47:0 48:0 49:0 50:0 51:0 52:2.944439 53:0 54:1.6094379 55:1.7917595 56:1.9459101 57:2.9957323 58:0 59:0 60:4.5643482 61:1.9459101 62:0 63:2.0794415 64:0.69314718 65:0 66:0 67:0 68:0 69:0 70:0 71:0 72:0 73:0 74:0 75:0 76:0 77:0 78:2.944439 79:0 80:1.6094379 81:1.7917595 82:1.9459101 83:2.9957323 84:0.69314718 85:0 86:0 87:4.5643482 88:0.69314718 89:1.9459101 90:2.0794415 91:0 92:1.1721312 93:0 94:0 95:0 96:0 97:0 98:0 99:0 100:0 101:0 102:0 103:0 104:0 105:0 106:6.6424868 107:4.9904326 108:4.8903491 109:0 110:2.8903718 111:2.0794415 112:4.8828019 113:1.7917595 114:3.1780538 115:2.0794415 116:0 117:0 118:0.69314718 \n4.904281792054527 1:0.29112455 2:1.8930492 3:0.35291361 4:0.20294084 5:0 6:0.69314718 7:3.8501476 8:0.11346557 9:0 10:0 11:0 12:0 13:0 14:0 15:0 16:0 17:0 18:0 19:0 20:0 21:0 22:0 23:0 24:0 25:0 26:0 27:0 28:0 29:0 30:3.2188758 31:0 32:0 33:0 34:0 35:0 36:1.7578579 37:0.69314718 38:0 39:0 40:0 41:0 42:0 43:0 44:0 45:0 46:0 47:0 48:0 49:0 50:0 51:0 52:4.2195077 53:2.8332133 54:4.0430513 55:3.7612001 56:3.3672958 57:3.3322045 58:1.9459101 59:3.0910425 60:3.3672958 61:3.3322045 62:3.2958369 63:3.0910425 64:2.3025851 65:0 66:0 67:0 68:0 69:0 70:0 71:0 72:0 73:0 74:0 75:0 76:0 77:0 78:4.3694479 79:2.8332133 80:4.060443 81:3.7612001 82:3.3672958 83:3.3672958 84:3.4011974 85:1.9459101 86:3.0910425 87:3.3672958 88:3.4339872 89:3.3322045 90:3.1354942 91:0 92:0.89928321 93:0 94:0 95:0 96:0 97:0 98:0 99:0 100:0 101:0 102:0 103:0 104:0 105:0 106:7.0808679 107:5.5683445 108:4.7706846 109:3.2958369 110:3.9512437 111:3.2958369 112:3.9318256 113:3.2958369 114:3.4657359 115:3.1780538 116:0.69314718 117:1.9459101 118:1.0986123 \n1.992680035974013 1:0.013205658 2:1.8516348 3:0.19542478 4:0.019802627 5:0 6:0.69314718 7:4.3820266 8:0.16223398 9:0 10:0 11:0 12:0 13:0 14:0 15:0 16:0 17:0 18:0 19:0 20:0 21:0 22:0 23:0 24:0 25:0 26:1.0986123 27:0 28:0 29:0 30:0 31:0 32:0 33:0 34:0 35:0 36:1.8091081 37:0.69314718 38:0 39:0 40:0 41:0 42:0 43:2.4849066 44:0 45:0 46:0 47:0 48:0 49:0 50:0 51:0 52:4.7361984 53:3.5835189 54:4.5538769 55:4.0253517 56:3.5835189 57:3.7612001 58:3.4657359 59:3.7841896 60:3.7612001 61:3.4965076 62:3.5553481 63:3.5553481 64:1.0986123 65:1.0986123 66:0 67:1.0986123 68:0 69:2.4849066 70:0 71:0 72:0 73:0 74:0 75:0 76:0 77:0 78:5.0172798 79:3.5835189 80:4.6051702 81:4.0253517 82:3.5835189 83:3.7612001 84:3.8286414 85:3.4657359 86:3.7841896 87:3.7612001 88:3.4339872 89:3.4965076 90:3.5835189 91:0 92:0.48278789 93:0 94:0 95:0 96:0 97:0 98:0 99:0 100:0 101:0 102:0 103:0 104:0 105:0 106:7.5390271 107:5.8636312 108:5.062595 109:2.9957323 110:4.5108595 111:3.1780538 112:4.3040651 113:4.0073332 114:3.1780538 115:3.6888795 116:1.6094379 117:3.4965076 118:1.7917595 \n4.305496539439313 1:1.3759672 2:1.6617492 3:0.10583887 4:0.029558802 5:0 6:0.69314718 7:4.3438054 8:2.2389594 9:0 10:0 11:0 12:0 13:0 14:0 15:0 16:0 17:0 18:0 19:0 20:0 21:0 22:0 23:0 24:0 25:0 26:0 27:0 28:0 29:0 30:0 31:0 32:0 33:0 34:0 35:0 36:0.96317432 37:0.69314718 38:0 39:0 40:0 41:0 42:0 43:0 44:0 45:0 46:0 47:0 48:0 49:0 50:0 51:0 52:3.5553481 53:0.69314718 54:2.3978953 55:1.9459101 56:0.69314718 57:2.0794415 58:1.0986123 59:3.3322045 60:2.0794415 61:1.9459101 62:1.6094379 63:2.4849066 64:0 65:0 66:0 67:0 68:0 69:0 70:0 71:0 72:0 73:0 74:0 75:0 76:0 77:0 78:3.6375862 79:0.69314718 80:2.3978953 81:1.9459101 82:0.69314718 83:2.0794415 84:1.6094379 85:1.0986123 86:3.3322045 87:2.1972246 88:2.1972246 89:1.9459101 90:2.4849066 91:0 92:4.6010222 93:0 94:0 95:0 96:0 97:0 98:0 99:0 100:0 101:0 102:0 103:0 104:0 105:0 106:6.0707377 107:4.4188406 108:3.4339872 109:1.7917595 110:3.1354942 111:1.0986123 112:2.1972246 113:2.8332133 114:2.3978953 115:1.0986123 116:0 117:1.3862944 118:0 \n2.122947366282964 1:0 2:1.7917595 3:0.14698686 4:0 5:0 6:0 7:5.0751738 8:0 9:0 10:0 11:0 12:0 13:0 14:0 15:0 16:0 17:0 18:0 19:0 20:0 21:0 22:0 23:0 24:0 25:0 26:0 27:0 28:0 29:0 30:0 31:0 32:0 33:0 34:0 35:0 36:0.36464311 37:0.69314718 38:0 39:0 40:0 41:0 42:0 43:0 44:0 45:0 46:0 47:0 48:0 49:0 50:0 51:0 52:2.7725887 53:3.7135721 54:3.4011974 55:3.2580965 56:0 57:0 58:0 59:0 60:2.8903718 61:0 62:0 63:0 64:0 65:0 66:0 67:0 68:0 69:0 70:0 71:0 72:0 73:0 74:0 75:0 76:0 77:0 78:2.7725887 79:3.7135721 80:3.4011974 81:3.2580965 82:0 83:0 84:0 85:0 86:0 87:2.8903718 88:2.7725887 89:0 90:0 91:0 92:4.3047726 93:0 94:0 95:0 96:0 97:0 98:0 99:0 100:0 101:0 102:0 103:0 104:0 105:0 106:5.5947114 107:3.0910425 108:3.1354942 109:2.0794415 110:0 111:3.2958369 112:0 113:1.6094379 114:0 115:3.7612001 116:2.0794415 117:0 118:0 \n2.711087837528876 1:0 2:1.6493933 3:1.2367626 4:0 5:0 6:0.69314718 7:4.2341065 8:0.0053270043 9:0 10:0 11:0 12:0 13:0 14:0 15:0 16:0 17:0 18:0 19:0 20:0 21:0 22:0 23:0 24:0 25:0 26:0 27:0 28:0 29:0 30:0 31:0 32:0 33:0 34:0 35:0 36:0.63234698 37:0.69314718 38:0 39:0 40:0 41:0 42:0 43:0 44:0 45:0 46:0 47:0 48:0 49:0 50:0 51:0 52:3.5553481 53:2.0794415 54:3.5553481 55:1.7917595 56:4.3174881 57:4.0253517 58:0 59:1.0986123 60:3.2958369 61:3.0445224 62:4.0073332 63:3.4657359 64:4.3438054 65:0 66:0 67:0 68:0 69:0 70:0 71:0 72:0 73:0 74:0 75:0 76:0 77:0 78:3.6109179 79:2.0794415 80:3.5553481 81:1.7917595 82:4.3174881 83:4.0253517 84:4.2766661 85:0 86:1.0986123 87:3.2958369 88:1.6094379 89:3.0445224 90:3.4657359 91:0 92:0.087776195 93:0 94:0 95:0 96:0 97:0 98:0 99:0 100:0 101:0 102:0 103:0 104:0 105:0 106:7.0613344 107:5.7620514 108:4.7273878 109:0.69314718 110:0.69314718 111:1.7917595 112:2.9957323 113:1.3862944 114:4.060443 115:1.7917595 116:0.69314718 117:1.3862944 118:0 \n8 1:0.36164061 2:1.9044031 3:1.162561 4:0.14842001 5:0 6:0.69314718 7:4.2626799 8:0.31306281 9:0 10:0 11:0 12:0 13:0 14:0 15:0 16:0 17:0 18:0 19:0 20:0 21:0 22:0 23:0 24:0 25:0 26:0 27:0 28:0 29:0 30:0 31:0 32:0 33:0 34:0 35:0 36:1.9139771 37:0.69314718 38:0 39:0 40:0 41:0 42:0 43:0 44:0 45:0 46:0 47:0 48:0 49:0 50:0.69314718 51:0 52:4.8202816 53:3.0910425 54:4.0775374 55:4.1271344 56:3.1780538 57:3.7841896 58:2.3978953 59:3.6375862 60:4.1743873 61:4.1108739 62:3.2958369 63:3.7841896 64:1.6094379 65:0 66:0 67:0 68:0 69:0 70:0 71:0 72:0 73:0 74:0 75:0 76:0 77:0 78:4.8675345 79:3.0910425 80:4.2046926 81:4.1271344 82:3.1780538 83:3.7841896 84:3.3672958 85:2.3978953 86:3.6375862 87:4.1743873 88:3.7376696 89:4.1108739 90:3.8286414 91:0 92:1.3026253 93:0 94:0 95:0 96:0 97:0 98:0 99:0 100:0 101:0 102:0 103:0 104:0 105:0 106:7.3613754 107:5.8318825 108:5.1416636 109:3.4011974 110:4.3174881 111:3.5835189 112:4.2766661 113:4.1271344 114:3.2188758 115:3.5835189 116:3.1780538 117:2.0794415 118:2.1972246 \n4.968332977545916 1:0 2:1.8255372 3:0.24116206 4:0 5:0 6:0.69314718 7:4.1588831 8:0.01970606 9:0 10:0 11:0 12:0 13:0 14:0 15:0 16:0 17:0 18:0 19:0 20:0 21:0 22:0 23:0 24:0 25:0 26:0 27:0 28:0 29:0 30:0 31:0 32:0 33:0 34:0 35:0 36:1.52388 37:0.69314718 38:0 39:0 40:0 41:0 42:0 43:0 44:0 45:0 46:0 47:0 48:0 49:0 50:0 51:0 52:3.8286414 53:4.3944492 54:3.4011974 55:4.3820266 56:3.2580965 57:2.3025851 58:1.9459101 59:2.5649494 60:1.7917595 61:3.1354942 62:3.0445224 63:2.3025851 64:1.3862944 65:0 66:0 67:0 68:0 69:0 70:0 71:0 72:0 73:0 74:0 75:0 76:0 77:0 78:4.060443 79:4.3944492 80:3.4011974 81:4.3820266 82:3.2580965 83:2.3025851 84:3.3322045 85:1.9459101 86:2.5649494 87:1.7917595 88:2.9957323 89:3.1354942 90:2.3025851 91:0 92:0.48199874 93:0 94:0 95:0 96:0 97:0 98:0 99:0 100:0 101:0 102:0 103:0 104:0 105:0 106:6.9186952 107:5.2933048 108:4.2766661 109:2.3978953 110:3.6375862 111:4.2766661 112:3.3672958 113:3.2580965 114:3.2188758 115:4.3307333 116:1.3862944 117:2.4849066 118:0.69314718 \n8 1:0.0021201687 2:1.9879382 3:0.55146031 4:0.0099503309 5:0 6:0.69314718 7:5.049856 8:0.030311003 9:0 10:0 11:0 12:0 13:0 14:0 15:0 16:0 17:0 18:0 19:0 20:0 21:0 22:0 23:0 24:0 25:0 26:0 27:0 28:0 29:0 30:0 31:0 32:0 33:0 34:0 35:0 36:2.0068708 37:0.69314718 38:0 39:0 40:0 41:0 42:0 43:0 44:0 45:0 46:0 47:0 48:0 49:0 50:0.69314718 51:0 52:5.1119878 53:2.6390573 54:3.9702919 55:4.0253517 56:2.3978953 57:3.912023 58:2.8332133 59:2.944439 60:4.1108739 61:4.4659081 62:2.3978953 63:3.6109179 64:1.6094379 65:0.69314718 66:0 67:0.69314718 68:0 69:0 70:0 71:0 72:0 73:0 74:0.69314718 75:0 76:0 77:0 78:5.1873858 79:2.6390573 80:3.988984 81:4.0253517 82:2.3978953 83:3.912023 84:2.6390573 85:2.8332133 86:2.944439 87:4.1108739 88:3.8918203 89:4.4659081 90:3.6375862 91:0 92:0.15543499 93:0 94:0 95:0 96:0 97:0 98:0 99:0 100:0 101:0 102:0 103:0 104:0 105:0 106:7.3783837 107:5.7004436 108:5.1416636 109:2.7725887 110:4.5432948 111:3.2958369 112:4.0253517 113:3.3672958 114:3.4657359 115:4.3438054 116:2.6390573 117:2.5649494 118:2.3025851 \n8 1:0 2:1.9785167 3:0.59598343 4:0 5:0 6:0 7:4.7621739 8:0 9:0 10:0 11:0 12:0 13:0 14:0 15:0 16:0 17:0 18:0 19:0 20:0 21:0 22:0 23:0 24:0 25:0 26:0 27:0 28:0 29:0 30:0 31:0 32:0 33:0 34:0 35:0 36:1.83737 37:0.69314718 38:0 39:0 40:0 41:0 42:0 43:0 44:0 45:1.0986123 46:0 47:0 48:0 49:0 50:0 51:0 52:4.5643482 53:3.1354942 54:4.7706846 55:4.574711 56:4.0943446 57:4.3694479 58:0.69314718 59:3.4011974 60:3.912023 61:3.8918203 62:2.3025851 63:4.2195077 64:0.69314718 65:0 66:0 67:1.6094379 68:0 69:0 70:0 71:0 72:0 73:0 74:0 75:0 76:0 77:0 78:4.6821312 79:3.1354942 80:4.7791235 81:4.574711 82:4.0943446 83:4.3694479 84:2.5649494 85:0.69314718 86:3.4011974 87:3.912023 88:3.1780538 89:3.8918203 90:4.2626799 91:0 92:0.29185932 93:0 94:0 95:0 96:0 97:0 98:0 99:0 100:0 101:0 102:0 103:0 104:0 105:0 106:7.4910876 107:5.9348942 108:5.3518581 109:3.1354942 110:4.2195077 111:3.2188758 112:4.3567088 113:3.5263605 114:4.060443 115:3.871201 116:2.4849066 117:3.6109179 118:2.7080502 \n4.639733169996714 1:0 2:1.8765667 3:0.39872318 4:0 5:0 6:0.69314718 7:4.5217886 8:0.051157561 9:0 10:0 11:0 12:0 13:0 14:0 15:0 16:0 17:0 18:0 19:0 20:0 21:0 22:0 23:0 24:2.944439 25:1.0986123 26:0 27:0 28:0 29:0 30:0 31:0 32:0 33:0 34:1.0986123 35:0 36:1.565486 37:0.69314718 38:0 39:0 40:0 41:0 42:0 43:0 44:0 45:0 46:0 47:0 48:0 49:0 50:0 51:0 52:3.8066625 53:3.4657359 54:3.871201 55:3.7841896 56:3.2958369 57:3.1354942 58:2.3025851 59:2.9957323 60:3.2580965 61:3.0445224 62:3.2188758 63:3.6109179 64:2.4849066 65:1.0986123 66:0 67:0 68:0 69:0 70:0 71:0 72:0 73:0 74:0 75:0 76:0 77:0 78:4.0073332 79:3.4657359 80:3.912023 81:3.7841896 82:3.2958369 83:3.1780538 84:3.6375862 85:2.3025851 86:2.9957323 87:3.2580965 88:3.4965076 89:3.0445224 90:3.6375862 91:0 92:0.23482018 93:0 94:0 95:0 96:0 97:0 98:0 99:0 100:0 101:0 102:0 103:0 104:0 105:0 106:7.1082441 107:5.3518581 108:4.5538769 109:2.7725887 110:3.8918203 111:3.4965076 112:3.5835189 113:3.6375862 114:3.0910425 115:2.4849066 116:1.0986123 117:1.9459101 118:1.6094379 \n8 1:0 2:1.8894749 3:0.2964927 4:0 5:0 6:0 7:4.3438054 8:0 9:0 10:0 11:0 12:0 13:0 14:0 15:0 16:0 17:0 18:0 19:0 20:0 21:0 22:0 23:0 24:0 25:0 26:0 27:0 28:0 29:0 30:0 31:0 32:0 33:0 34:0 35:0 36:1.5834624 37:0.69314718 38:0 39:0 40:0 41:0 42:0 43:0 44:0 45:0 46:0 47:0 48:0 49:0 50:0.69314718 51:0 52:3.6375862 53:2.0794415 54:2.8903718 55:2.944439 56:1.3862944 57:3.2580965 58:0 59:2.1972246 60:2.3025851 61:3.0445224 62:1.9459101 63:2.4849066 64:1.3862944 65:0 66:0 67:0 68:0 69:0 70:0 71:0 72:0 73:0 74:0 75:0 76:0 77:0 78:3.7612001 79:2.0794415 80:2.944439 81:2.944439 82:1.3862944 83:3.2580965 84:2.0794415 85:0 86:2.1972246 87:2.3025851 88:2.8332133 89:3.0445224 90:2.5649494 91:0 92:0.25279114 93:0 94:0 95:0 96:0 97:0 98:0 99:0 100:0 101:0 102:0 103:0 104:0 105:0 106:6.075346 107:4.8121844 108:3.7376696 109:2.6390573 110:2.6390573 111:2.5649494 112:2.8903718 113:2.1972246 114:2.1972246 115:3.4965076 116:1.0986123 117:2.7080502 118:1.0986123 \n8 1:0.23996513 2:1.9866385 3:0.76600028 4:0.11778304 5:0 6:0.69314718 7:5.049856 8:0.032026221 9:0 10:0 11:0 12:0 13:0 14:0 15:0 16:0 17:0 18:0 19:0 20:0 21:0 22:0 23:0 24:0 25:0 26:0 27:0 28:0 29:0 30:0 31:0 32:0 33:0 34:0 35:0 36:1.5390154 37:0.69314718 38:0 39:0 40:0 41:0 42:0 43:0 44:0 45:0 46:0 47:0 48:0 49:0 50:1.3862944 51:0 52:3.6375862 53:2.0794415 54:3.6635616 55:3.0910425 56:2.0794415 57:3.1780538 58:1.9459101 59:2.3978953 60:3.0910425 61:3.3322045 62:1.3862944 63:2.9957323 64:0 65:0 66:0 67:1.3862944 68:0 69:0 70:0 71:0 72:0 73:0 74:0 75:0 76:0 77:0 78:3.8918203 79:2.0794415 80:3.7135721 81:3.0910425 82:2.0794415 83:3.1780538 84:1.3862944 85:1.9459101 86:2.3978953 87:3.0910425 88:3.0445224 89:3.3322045 90:2.9957323 91:0 92:1.1396144 93:0 94:0 95:0 96:0 97:0 98:0 99:0 100:0 101:0 102:0 103:0 104:0 105:0 106:6.5957805 107:4.8121844 108:4.6151205 109:1.3862944 110:3.6635616 111:2.3978953 112:3.9512437 113:3.8918203 114:3.0445224 115:2.1972246 116:1.0986123 117:2.3978953 118:1.3862944 \n1.111410146958438 1:0 2:1.8242712 3:0.29394383 4:0 5:0 6:0.69314718 7:4.1743873 8:0.003749011 9:0 10:0 11:0 12:0 13:0 14:0 15:0 16:0 17:0 18:0 19:0 20:0 21:0 22:0 23:0 24:0 25:0 26:0 27:0 28:0 29:0 30:0 31:0 32:0 33:0 34:0 35:0 36:1.3609766 37:0.69314718 38:0 39:0 40:0 41:0 42:0 43:0 44:0 45:0 46:0 47:0 48:0 49:0 50:0.69314718 51:0 52:3.8286414 53:4.3307333 54:4.1431347 55:4.3040651 56:4.2626799 57:3.2958369 58:3.2188758 59:2.3025851 60:4.1108739 61:3.4965076 62:3.0910425 63:4.0073332 64:4.2626799 65:0 66:0 67:0 68:0 69:0 70:0 71:0 72:0 73:0 74:0 75:0 76:0 77:0 78:4.0253517 79:4.3307333 80:4.1743873 81:4.3040651 82:4.2626799 83:3.2958369 84:3.1780538 85:3.2188758 86:2.3025851 87:4.1271344 88:3.0910425 89:3.4965076 90:4.0073332 91:0 92:0.10090008 93:0 94:0 95:0 96:0 97:0 98:0 99:0 100:0 101:0 102:0 103:0 104:0 105:0 106:7.2841348 107:5.164786 108:4.3694479 109:2.5649494 110:2.7080502 111:2.8332133 112:4.2341065 113:3.4657359 114:2.3025851 115:3.2580965 116:0 117:1.9459101 118:0.69314718 \n1.492368673128602 1:0.18302644 2:1.9296475 3:0.45431341 4:0.058268908 5:0 6:0.69314718 7:4.4998097 8:0.34955027 9:0 10:1.0986123 11:0 12:0 13:0 14:0 15:0 16:0 17:0 18:0 19:0 20:0 21:0 22:0 23:0 24:0 25:0 26:0 27:0 28:0 29:0 30:0 31:0 32:0 33:0 34:0 35:0 36:1.8771723 37:0.69314718 38:0 39:0 40:0 41:0 42:0 43:0 44:0 45:0 46:0 47:0 48:0 49:0.69314718 50:0 51:0 52:3.912023 53:0 54:2.9957323 55:3.2580965 56:2.3025851 57:2.4849066 58:1.0986123 59:2.8903718 60:3.5835189 61:2.9957323 62:1.0986123 63:3.3322045 64:0 65:0 66:0 67:0 68:0 69:0 70:0 71:0 72:0.69314718 73:0 74:0 75:0 76:0 77:0 78:3.9512437 79:0 80:3.1354942 81:3.2580965 82:2.3025851 83:2.4849066 84:2.1972246 85:1.0986123 86:2.944439 87:3.5835189 88:2.3025851 89:2.9957323 90:3.3322045 91:0 92:1.4593962 93:0 94:0 95:0 96:0 97:0 98:0 99:0 100:0 101:0 102:0 103:0 104:0 105:0 106:6.9994225 107:5.4026774 108:4.5538769 109:4.8828019 110:3.3672958 111:3.1780538 112:3.7135721 113:2.8903718 114:3.0910425 115:3.0445224 116:4.3174881 117:2.1972246 118:1.3862944 \n1.521451918750367 1:0 2:1.8273198 3:3.4489288 4:0 5:0 6:0.69314718 7:3.3322045 8:0.073921477 9:0 10:0 11:0 12:0 13:0 14:0 15:0 16:0 17:0 18:0 19:0 20:0 21:0 22:0 23:0 24:0 25:0 26:0 27:0 28:0 29:0 30:0 31:0 32:0 33:0 34:0 35:0 36:1.4883996 37:0.69314718 38:0 39:0 40:0 41:0 42:0 43:0 44:0 45:0 46:0 47:0 48:0 49:0 50:0 51:0 52:3.871201 53:4.3174881 54:3.7376696 55:3.5553481 56:3.4339872 57:3.5835189 58:3.7376696 59:3.2580965 60:3.4965076 61:3.4657359 62:2.4849066 63:2.944439 64:2.944439 65:0 66:0 67:0 68:0 69:0 70:0 71:0 72:0 73:0 74:0 75:0 76:0 77:0 78:4.2766661 79:4.3174881 80:3.7376696 81:3.5553481 82:3.4339872 83:3.5835189 84:2.8332133 85:3.7376696 86:3.2580965 87:3.4965076 88:3.6109179 89:3.4657359 90:2.944439 91:0 92:1.3924788 93:0 94:0 95:0 96:0 97:0 98:0 99:0 100:0 101:0 102:0 103:0 104:0 105:0 106:7.0587582 107:5.5053315 108:4.6634391 109:3.0445224 110:3.9512437 111:4.0253517 112:4.060443 113:2.9957323 114:3.2580965 115:3.3322045 116:0 117:3.0445224 118:2.9957323 \n1.024125182190965 1:0.00099525397 2:1.9370286 3:0.78937521 4:0.0049875415 5:0 6:0.69314718 7:4.9628446 8:0.0089218264 9:0 10:3.8066625 11:5.32301 12:0 13:0 14:0 15:0 16:0 17:0 18:0 19:0 20:0 21:0 22:0 23:0 24:0 25:0 26:0 27:0 28:0 29:0 30:0 31:0 32:0 33:0 34:0 35:0 36:1.2767585 37:0.69314718 38:0 39:0 40:0 41:0 42:0 43:0 44:0 45:0 46:0 47:0 48:0 49:0 50:0 51:0 52:3.3672958 53:0.69314718 54:2.4849066 55:4.0073332 56:3.1780538 57:2.7725887 58:1.0986123 59:2.8332133 60:4.6249728 61:2.5649494 62:1.9459101 63:4.0430513 64:1.3862944 65:0 66:0 67:0 68:0 69:0 70:0 71:0 72:0 73:0 74:0.69314718 75:0 76:0 77:0 78:3.6635616 79:0.69314718 80:2.4849066 81:4.0073332 82:3.1780538 83:2.7725887 84:1.9459101 85:1.0986123 86:2.8332133 87:4.6249728 88:1.6094379 89:2.5649494 90:4.0430513 91:0 92:0.14416449 93:0 94:0 95:0 96:0 97:0 98:0 99:0 100:0 101:0 102:0 103:0 104:0 105:0 106:7.2093403 107:4.4886364 108:3.8501476 109:4.0253517 110:4.4886364 111:2.3025851 112:4.5643482 113:2.1972246 114:2.0794415 115:2.3025851 116:1.6094379 117:2.4849066 118:0 \n3.564365935642316 1:0 2:1.9608911 3:0.47274712 4:0 5:0 6:0.69314718 7:4.1896547 8:0.1747632 9:0 10:0 11:0 12:0 13:0 14:0 15:0 16:0 17:0 18:0 19:0 20:0 21:0 22:0 23:0 24:0 25:0 26:0 27:0 28:0 29:0 30:0 31:0 32:0 33:0 34:0 35:0 36:1.7378311 37:0.69314718 38:0 39:0 40:0 41:0 42:0 43:0 44:0 45:0 46:0 47:0 48:0 49:0 50:0 51:0 52:0 53:0.69314718 54:0.69314718 55:0.69314718 56:0 57:0.69314718 58:0 59:3.6635616 60:3.7376696 61:2.3978953 62:0.69314718 63:0.69314718 64:1.7917595 65:0 66:0 67:0 68:0 69:0 70:0 71:0 72:0 73:0 74:0 75:0 76:0 77:0 78:0 79:0.69314718 80:1.0986123 81:0.69314718 82:0 83:0.69314718 84:0.69314718 85:0 86:3.6635616 87:3.7376696 88:1.6094379 89:2.3978953 90:0.69314718 91:0 92:0.99027032 93:0 94:0 95:0 96:0 97:0 98:0 99:0 100:0 101:0 102:0 103:0 104:0 105:0 106:7.4413204 107:4.8598124 108:4.1108739 109:3.1780538 110:1.6094379 111:2.8332133 112:2.4849066 113:1.7917595 114:2.8332133 115:2.1972246 116:1.3862944 117:1.7917595 118:4.6821312 \n6.415911828521802 1:0 2:2.1037434 3:1.0001402 4:0 5:0 6:0.69314718 7:4.4998097 8:0.38531919 9:0 10:0 11:0 12:0 13:0 14:0 15:0 16:0 17:0 18:0 19:0 20:0 21:0 22:0 23:0 24:0 25:0 26:0 27:0 28:0 29:0 30:0 31:0 32:0 33:0 34:0 35:0 36:1.6808279 37:0.69314718 38:0 39:0 40:0 41:0 42:0 43:0 44:0 45:0 46:0 47:0 48:0 49:0 50:0 51:0 52:4.2766661 53:2.8332133 54:3.871201 55:3.6109179 56:3.1780538 57:3.5553481 58:1.9459101 59:2.7080502 60:3.4965076 61:3.3672958 62:2.6390573 63:3.4657359 64:2.3025851 65:0 66:0 67:0 68:0 69:0 70:0 71:0 72:0 73:0 74:0 75:0 76:0 77:0 78:4.6051702 79:2.8332133 80:3.8918203 81:3.6109179 82:3.1780538 83:3.5553481 84:3.1780538 85:1.9459101 86:2.7080502 87:3.4965076 88:2.8903718 89:3.3672958 90:3.4965076 91:0 92:0.89537459 93:0 94:0 95:0 96:0 97:0 98:0 99:0 100:0 101:0 102:0 103:0 104:0 105:0 106:7.0255383 107:5.4595855 108:4.7004804 109:2.1972246 110:4.0253517 111:2.944439 112:3.7376696 113:3.2580965 114:2.7725887 115:2.944439 116:2.1972246 117:3.2958369 118:1.3862944 \n4.579016409428986 1:0 2:1.9663107 3:0.31996625 4:0 5:0 6:0.69314718 7:4.8202816 8:0.15700635 9:0 10:0 11:0 12:0 13:0 14:0 15:0 16:0 17:0 18:0 19:0 20:0 21:0 22:0 23:0 24:0 25:0 26:0 27:0 28:0 29:0 30:0 31:0 32:0 33:0 34:0 35:0 36:1.955153 37:0.69314718 38:0 39:0 40:0 41:0 42:0 43:0 44:0.69314718 45:0 46:0 47:0 48:0 49:0 50:0 51:0 52:4.8598124 53:2.6390573 54:4.3307333 55:3.988984 56:2.1972246 57:3.7841896 58:2.0794415 59:3.5835189 60:3.912023 61:4.2766661 62:2.6390573 63:3.988984 64:1.0986123 65:0 66:0 67:1.6094379 68:0 69:0 70:0.69314718 71:0 72:0 73:0 74:0 75:0 76:0 77:0 78:5.0304379 79:2.6390573 80:4.3307333 81:3.988984 82:2.1972246 83:3.7841896 84:3.0445224 85:2.1972246 86:3.5835189 87:3.912023 88:3.9702919 89:4.2766661 90:3.988984 91:0 92:0.36102967 93:0 94:0 95:0 96:0 97:0 98:0 99:0 100:0 101:0 102:0 103:0 104:0 105:0 106:7.3613754 107:5.9454206 108:5.0238805 109:3.4011974 110:4.1431347 111:3.988984 112:4.0073332 113:3.6109179 114:3.8066625 115:3.5553481 116:0.69314718 117:2.8332133 118:1.9459101 \n0.9244111381061806 1:0 2:1.9186551 3:4.7833164 4:0 5:0 6:0.69314718 7:5.0039463 8:0.036717395 9:0 10:0 11:0 12:0 13:0 14:0 15:0 16:0 17:0 18:0 19:0 20:0 21:0 22:0 23:0 24:0 25:0 26:0 27:0 28:0 29:0 30:0 31:0 32:0 33:0 34:0 35:0 36:1.1647121 37:0.69314718 38:0 39:0 40:0 41:0 42:0 43:0 44:0 45:0 46:0 47:0 48:0 49:0 50:0 51:0 52:1.7917595 53:1.3862944 54:2.6390573 55:3.0445224 56:3.4965076 57:2.1972246 58:0 59:0 60:1.3862944 61:0 62:0 63:1.0986123 64:2.4849066 65:0 66:0 67:0 68:0 69:0 70:0 71:0 72:0 73:0 74:0 75:0 76:0 77:0 78:3.2188758 79:1.3862944 80:2.7080502 81:3.0445224 82:3.4965076 83:2.1972246 84:0.69314718 85:0 86:1.6094379 87:1.3862944 88:0.69314718 89:0 90:1.0986123 91:0 92:0.63706313 93:0 94:0 95:0 96:0 97:0 98:0 99:0 100:0 101:0 102:0 103:0 104:0 105:0 106:6.4846352 107:4.1108739 108:3.8066625 109:4.1896547 110:2.5649494 111:4.1271344 112:0.69314718 113:1.6094379 114:1.3862944 115:0 116:3.7612001 117:2.7080502 118:0 \n1.598203695918721 1:0 2:1.8774213 3:0.33349161 4:0 5:0 6:0.69314718 7:4.3307333 8:0.18087157 9:0 10:0 11:0 12:0 13:0 14:0 15:0 16:0 17:0 18:0 19:0 20:0 21:0 22:0 23:0 24:0 25:0 26:0 27:0 28:0 29:0 30:0 31:0 32:0 33:0 34:0 35:0 36:1.3699109 37:0.69314718 38:0 39:0 40:0 41:0 42:0 43:0 44:0 45:0 46:0 47:0 48:0 49:0 50:0 51:0 52:3.988984 53:3.4011974 54:2.8903718 55:2.7080502 56:1.0986123 57:2.4849066 58:1.6094379 59:2.1972246 60:1.6094379 61:2.9957323 62:2.0794415 63:2.0794415 64:0.69314718 65:0 66:0 67:0 68:0 69:0 70:0 71:0 72:0 73:0 74:0 75:0 76:0 77:0 78:4.0943446 79:3.4011974 80:2.8903718 81:2.7080502 82:1.0986123 83:2.4849066 84:2.1972246 85:1.6094379 86:2.1972246 87:1.6094379 88:3.1780538 89:2.9957323 90:2.0794415 91:0 92:0.42027819 93:0 94:0 95:0 96:0 97:0 98:0 99:0 100:0 101:0 102:0 103:0 104:0 105:0 106:7.0466473 107:5.0689042 108:4.1588831 109:3.4011974 110:4.0253517 111:2.4849066 112:2.6390573 113:2.7725887 114:2.9957323 115:3.1354942 116:1.0986123 117:3.4339872 118:1.7917595 \n0.3898429493558032 1:0.27682602 2:1.7978018 3:0.34484049 4:0.011363759 5:0 6:0.69314718 7:4.5643482 8:1.0693967 9:0 10:0 11:0 12:0 13:0 14:0 15:0 16:0 17:0 18:0 19:0 20:0 21:0 22:0 23:0 24:0 25:0 26:0 27:0 28:0 29:0 30:0 31:0 32:0 33:0 34:0 35:0 36:0.66415964 37:0.69314718 38:0 39:0 40:0 41:0 42:0 43:0 44:0 45:0 46:0 47:0 48:0 49:0 50:0 51:0 52:1.3862944 53:3.2580965 54:0.69314718 55:0.69314718 56:1.6094379 57:1.7917595 58:1.0986123 59:1.0986123 60:0.69314718 61:0 62:3.1780538 63:3.2958369 64:3.5835189 65:0 66:0 67:0 68:0 69:0 70:0 71:0 72:0 73:0 74:0 75:0 76:0 77:0 78:1.3862944 79:3.2580965 80:0.69314718 81:0.69314718 82:1.6094379 83:1.7917595 84:3.1780538 85:1.0986123 86:1.0986123 87:0.69314718 88:2.1972246 89:0 90:3.2958369 91:0 92:3.3625571 93:0 94:0 95:0 96:0 97:0 98:0 99:0 100:0 101:0 102:0 103:0 104:0 105:0 106:6.0935698 107:4.3567088 108:3.6109179 109:2.8903718 110:2.3978953 111:0 112:0 113:3.2958369 114:1.0986123 115:0 116:2.9957323 117:0 118:0 \n7.24378439721347 1:0 2:1.9231499 3:0.29849299 4:0 5:0 6:0 7:4.3944492 8:0 9:0 10:0 11:0 12:0 13:0 14:0 15:0 16:0 17:0 18:0 19:0 20:0 21:0 22:0 23:0 24:0 25:0 26:0 27:0 28:0 29:0 30:0 31:0 32:0 33:0 34:0 35:0 36:1.7083779 37:0.69314718 38:0 39:0 40:0 41:0 42:0 43:0 44:0 45:0.69314718 46:0 47:0 48:0 49:0 50:0.69314718 51:0 52:4.1271344 53:2.3978953 54:3.6888795 55:2.6390573 56:2.0794415 57:3.4339872 58:1.3862944 59:1.7917595 60:3.0445224 61:2.7725887 62:2.0794415 63:2.3978953 64:0.69314718 65:0 66:0 67:0 68:0 69:0 70:0 71:0 72:0 73:0 74:0 75:0 76:0 77:0 78:4.1896547 79:2.3978953 80:3.7135721 81:2.6390573 82:2.0794415 83:3.4339872 84:2.3978953 85:1.3862944 86:1.7917595 87:3.0445224 88:1.6094379 89:2.7725887 90:2.3978953 91:0 92:0.23787376 93:0 94:0 95:0 96:0 97:0 98:0 99:0 100:0 101:0 102:0 103:0 104:0 105:0 106:6.2344107 107:5.0172798 108:4.3307333 109:1.9459101 110:3.0445224 111:2.9957323 112:2.7725887 113:2.6390573 114:2.6390573 115:3.6635616 116:1.3862944 117:1.6094379 118:0 \n8 1:0.001422547 2:2.0178035 3:0.23098673 4:0.0049875415 5:0 6:0.69314718 7:5.0172798 8:0.083271752 9:0 10:0 11:0 12:0 13:0 14:0 15:0 16:0 17:0 18:0 19:0 20:0 21:0 22:0 23:0 24:0 25:0 26:0 27:0 28:0 29:0 30:0 31:0 32:0 33:0 34:0 35:0 36:1.741343 37:0.69314718 38:0 39:0 40:0 41:0 42:0 43:0 44:0 45:0 46:0.69314718 47:0 48:0 49:0 50:0 51:0 52:4.3944492 53:2.6390573 54:4.2766661 55:4.1896547 56:2.8903718 57:3.5263605 58:0.69314718 59:2.7725887 60:3.7376696 61:2.8903718 62:2.1972246 63:4.3438054 64:0.69314718 65:0 66:0 67:0 68:0 69:0 70:0 71:0.69314718 72:0 73:0 74:2.8332133 75:0 76:0 77:0 78:4.4998097 79:2.6390573 80:4.2766661 81:4.1896547 82:2.8903718 83:3.5263605 84:2.8903718 85:0.69314718 86:2.7725887 87:3.7376696 88:3.7135721 89:2.8903718 90:4.3567088 91:0 92:0.21562421 93:0 94:0 95:0 96:0 97:0 98:0 99:0 100:0 101:0 102:0 103:0 104:0 105:0 106:7.2723984 107:5.42495 108:5.0172798 109:2.5649494 110:4.2766661 111:3.0445224 112:3.871201 113:3.2188758 114:2.944439 115:2.7725887 116:1.7917595 117:2.3025851 118:1.9459101 \n1.483129529462663 1:0.0086918229 2:1.9039678 3:0.5013261 4:0.0049875415 5:0 6:0.69314718 7:5.062595 8:1.0196161 9:0 10:1.0986123 11:0 12:0 13:0 14:0 15:0 16:0 17:0 18:0 19:1.0986123 20:0 21:0 22:0 23:0 24:0 25:0 26:0 27:1.9459101 28:0 29:0 30:1.0986123 31:0 32:0 33:0 34:0 35:0 36:1.8131947 37:0.69314718 38:0 39:0 40:0 41:0 42:0 43:0 44:0 45:0 46:0.69314718 47:0 48:0 49:1.0986123 50:0 51:0 52:3.9512437 53:1.7917595 54:4.0775374 55:3.1780538 56:2.3025851 57:3.6109179 58:1.6094379 59:2.7725887 60:3.4965076 61:3.8286414 62:2.0794415 63:3.4965076 64:0.69314718 65:0 66:0 67:0 68:0 69:0 70:0 71:0.69314718 72:1.0986123 73:0 74:0 75:0 76:0 77:0 78:4.0943446 79:1.7917595 80:4.1108739 81:3.1780538 82:2.3025851 83:3.6109179 84:2.4849066 85:1.6094379 86:2.7725887 87:3.4965076 88:3.0910425 89:3.8286414 90:3.5263605 91:0 92:0.99394246 93:0 94:0 95:0 96:0 97:0 98:0 99:0 100:0 101:0 102:0 103:0 104:0 105:0 106:6.9819347 107:5.2983174 108:5.0106353 109:3.0445224 110:3.7135721 111:2.7080502 112:3.871201 113:2.9957323 114:4.0430513 115:3.2188758 116:1.0986123 117:2.1972246 118:2.0794415 \n3.083002115918141 1:0 2:2.0006539 3:1.6739764 4:0 5:0 6:0.69314718 7:4.9272537 8:0.012128609 9:0 10:0 11:0 12:0 13:0 14:0 15:0 16:0 17:0 18:0 19:0 20:0 21:0 22:0 23:0 24:0 25:0 26:0 27:0 28:0 29:0 30:0 31:0 32:0 33:0 34:0 35:0 36:1.9537366 37:0.69314718 38:0 39:0 40:0 41:0 42:0 43:0 44:0 45:0 46:0 47:0 48:0 49:0 50:0 51:0 52:1.9459101 53:0 54:1.3862944 55:1.7917595 56:1.3862944 57:1.0986123 58:0 59:3.8066625 60:3.871201 61:1.9459101 62:0 63:0.69314718 64:1.6094379 65:0 66:0 67:0 68:0 69:0 70:0 71:0 72:0 73:0 74:0 75:0 76:0 77:0 78:2.0794415 79:0 80:1.3862944 81:1.7917595 82:1.3862944 83:1.0986123 84:0 85:0 86:3.8286414 87:3.871201 88:1.7917595 89:1.9459101 90:0.69314718 91:0 92:0.77756651 93:0 94:0 95:0 96:0 97:0 98:0 99:0 100:0 101:0 102:0 103:0 104:0 105:0 106:7.4764724 107:5.198497 108:4.6151205 109:2.944439 110:1.9459101 111:1.6094379 112:3.1780538 113:1.0986123 114:2.7725887 115:2.0794415 116:2.5649494 117:2.4849066 118:5.0875963 \n0.9459201515602143 1:0.013286861 2:1.9960664 3:1.4359052 4:0.014888612 5:0 6:0.69314718 7:3.2580965 8:0.0088774942 9:0 10:0 11:0 12:0 13:0 14:0 15:0 16:0 17:0 18:0 19:0 20:0 21:0 22:0 23:0 24:0 25:0 26:0 27:0 28:0 29:0 30:0 31:0 32:0 33:0 34:0 35:0 36:1.6448051 37:0.69314718 38:0 39:0 40:0 41:0 42:0 43:0 44:0 45:0 46:0 47:0 48:0 49:0 50:0 51:0 52:2.5649494 53:1.3862944 54:0.69314718 55:1.6094379 56:2.6390573 57:2.3978953 58:1.6094379 59:0 60:1.3862944 61:0 62:0 63:1.9459101 64:0 65:0 66:0 67:0 68:0 69:0 70:0 71:0 72:0 73:0 74:0 75:0 76:0 77:0 78:2.6390573 79:1.3862944 80:0.69314718 81:1.6094379 82:2.6390573 83:2.4849066 84:0.69314718 85:1.6094379 86:0 87:2.6390573 88:1.0986123 89:0 90:1.9459101 91:0 92:0.61390147 93:0 94:0 95:0 96:0 97:0 98:0 99:0 100:0 101:0 102:0 103:0 104:0 105:0 106:6.8885725 107:3.7841896 108:3.4657359 109:5.4595855 110:3.871201 111:3.2188758 112:1.3862944 113:2.8903718 114:1.0986123 115:1.6094379 116:4.8828019 117:0.69314718 118:1.6094379 \n8 1:0.0081787503 2:1.775711 3:0.26101383 4:0.040821995 5:0 6:0.69314718 7:4.8828019 8:0.0081787503 9:0 10:0 11:0 12:0 13:0 14:0 15:0 16:0 17:0 18:0 19:0 20:0 21:0 22:0 23:0 24:0 25:0 26:0 27:0 28:0 29:0 30:0 31:0 32:0 33:0 34:0 35:0 36:1.3328057 37:0.69314718 38:0 39:0 40:0 41:0 42:0 43:0 44:0 45:0 46:0 47:0 48:0 49:0 50:0 51:0 52:3.2188758 53:1.3862944 54:2.944439 55:3.2958369 56:3.3322045 57:4.1896547 58:0 59:4.1271344 60:2.4849066 61:2.1972246 62:1.9459101 63:2.5649494 64:0.69314718 65:0 66:0 67:0 68:0 69:0 70:0 71:0 72:0 73:0 74:0 75:0 76:0 77:0 78:3.4339872 79:1.3862944 80:2.9957323 81:3.2958369 82:3.3322045 83:4.1896547 84:2.0794415 85:0 86:4.1271344 87:2.4849066 88:3.0445224 89:2.1972246 90:2.6390573 91:0 92:0.14238382 93:0 94:0 95:0 96:0 97:0 98:0 99:0 100:0 101:0 102:0 103:0 104:0 105:0 106:6.9536842 107:4.2195077 108:4.3174881 109:2.0794415 110:4.3040651 111:2.4849066 112:4.4659081 113:1.7917595 114:2.1972246 115:4.0943446 116:1.0986123 117:1.7917595 118:1.6094379 \n0.9719199302129727 1:0 2:1.6073739 3:0.45382618 4:0 5:0 6:0.69314718 7:3.8066625 8:0.15891341 9:0 10:0 11:0 12:0 13:0 14:0 15:0 16:0 17:0 18:0 19:0 20:0 21:0 22:0 23:0 24:0 25:0 26:0 27:0 28:0 29:0 30:0 31:0 32:0 33:0 34:0 35:0 36:0.67803354 37:0.69314718 38:0 39:0 40:0 41:0 42:0 43:0 44:0 45:0 46:0 47:0 48:0 49:0 50:0 51:0 52:2.3978953 53:0.69314718 54:4.7535902 55:1.3862944 56:1.7917595 57:0.69314718 58:0 59:0.69314718 60:4.8598124 61:0.69314718 62:2.1972246 63:1.3862944 64:0 65:0 66:0 67:0 68:0 69:0 70:0 71:0 72:0 73:0 74:0 75:0 76:0 77:0 78:3.2958369 79:0.69314718 80:4.7535902 81:1.3862944 82:1.7917595 83:0.69314718 84:2.4849066 85:0 86:0.69314718 87:4.8598124 88:2.8332133 89:0.69314718 90:1.3862944 91:0 92:2.0599251 93:0 94:0 95:0 96:0 97:0 98:0 99:0 100:0 101:0 102:0 103:0 104:0 105:0 106:6.9791453 107:4.060443 108:4.9767337 109:3.7841896 110:3.3672958 111:2.8332133 112:0 113:5.1929569 114:1.3862944 115:1.6094379 116:1.7917595 117:3.3672958 118:2.6390573 \n0.5723805519870754 1:0 2:1.8539641 3:0.1173699 4:0 5:0 6:0.69314718 7:4.7791235 8:0.018344463 9:0 10:0 11:0 12:0 13:0 14:0 15:0 16:0 17:0 18:0 19:0 20:0 21:0 22:0 23:0 24:0 25:0 26:0 27:0 28:0 29:0 30:0 31:0 32:0 33:0 34:0 35:0 36:1.2470323 37:0.69314718 38:0 39:0 40:0 41:0 42:0 43:0 44:0 45:0 46:0 47:0 48:0 49:0.69314718 50:0 51:0 52:4.0073332 53:2.4849066 54:4.8978398 55:4.4543473 56:2.4849066 57:3.871201 58:1.9459101 59:2.8903718 60:1.9459101 61:1.7917595 62:2.4849066 63:0 64:1.0986123 65:0 66:0 67:0 68:0 69:0 70:0 71:0 72:0.69314718 73:0 74:0 75:0 76:0 77:0 78:4.1743873 79:2.4849066 80:4.9052748 81:4.4543473 82:2.4849066 83:3.871201 84:2.6390573 85:1.9459101 86:2.8903718 87:2.3025851 88:2.3025851 89:1.7917595 90:0 91:0 92:0.25660771 93:0 94:0 95:0 96:0 97:0 98:0 99:0 100:0 101:0 102:0 103:0 104:0 105:0 106:7.2218358 107:5.2311086 108:4.3567088 109:2.6390573 110:4.1431347 111:3.7376696 112:3.2958369 113:1.7917595 114:2.5649494 115:2.6390573 116:0 117:2.3025851 118:1.3862944 \n1.103516533146036 1:0.10921396 2:1.8837238 3:0.42583241 4:0.17814619 5:0 6:0.69314718 7:4.5643482 8:0.10122355 9:0 10:0 11:0 12:0 13:0 14:0 15:0 16:0 17:0 18:0 19:0 20:0 21:0 22:0 23:0 24:0 25:0 26:0 27:2.1972246 28:0 29:0 30:0 31:0 32:0 33:0 34:0 35:0 36:1.7975759 37:0.69314718 38:0 39:0 40:0 41:0 42:0 43:0 44:0 45:0 46:0 47:0 48:0 49:0 50:0 51:0 52:4.4886364 53:4.3174881 54:4.4543473 55:4.0943446 56:3.4339872 57:3.2188758 58:3.2580965 59:3.5553481 60:3.4657359 61:3.4011974 62:3.2958369 63:3.5835189 64:2.3025851 65:0 66:0 67:1.0986123 68:0 69:0 70:0 71:0 72:0 73:0 74:0 75:0 76:0 77:0 78:4.6728288 79:4.3174881 80:4.5325995 81:4.0943446 82:3.4339872 83:3.2188758 84:3.7135721 85:3.2580965 86:3.5553481 87:3.4657359 88:3.2958369 89:3.4011974 90:3.5835189 91:0 92:0.43678552 93:0 94:0 95:0 96:0 97:0 98:0 99:0 100:0 101:0 102:0 103:0 104:0 105:0 106:7.2848209 107:5.8318825 108:4.9416424 109:3.2958369 110:4.1108739 111:3.4011974 112:4.3567088 113:3.6375862 114:3.3322045 115:3.4965076 116:0.69314718 117:2.8332133 118:0 \n8 1:1.1945763 2:1.8589254 3:0.67833209 4:0.029558802 5:0 6:0.69314718 7:5.0434251 8:0.93010376 9:0 10:0 11:0 12:0 13:0 14:0 15:0 16:0 17:0 18:0 19:0 20:0 21:0 22:0 23:0 24:0 25:0 26:0 27:0 28:0 29:0 30:0 31:0 32:0 33:0 34:0 35:0 36:1.7698546 37:0.69314718 38:0 39:0 40:0 41:0 42:0 43:0 44:0 45:0 46:0 47:0 48:0 49:0 50:0 51:0 52:4.6151205 53:3.9318256 54:4.2046926 55:4.1271344 56:3.1780538 57:3.912023 58:2.3025851 59:4.2766661 60:3.4965076 61:3.4339872 62:3.2188758 63:3.4965076 64:1.0986123 65:0 66:0 67:1.0986123 68:0 69:0 70:0 71:0 72:0 73:0 74:0 75:0 76:0 77:0 78:4.8828019 79:3.9318256 80:4.2766661 81:4.1271344 82:3.1780538 83:3.912023 84:3.6888795 85:2.3025851 86:4.2766661 87:3.4965076 88:3.0910425 89:3.4339872 90:3.4965076 91:0 92:4.3527849 93:0 94:0 95:0 96:0 97:0 98:0 99:0 100:0 101:0 102:0 103:0 104:0 105:0 106:7.3670771 107:5.7899602 108:5.0039463 109:3.0910425 110:4.634729 111:3.3322045 112:3.9318256 113:3.7841896 114:3.6888795 115:3.6635616 116:1.6094379 117:3.2188758 118:1.0986123 \n8 1:0 2:1.896156 3:0.59931907 4:0 5:0 6:0.69314718 7:4.9698133 8:0.089167945 9:0 10:0 11:0 12:0 13:0 14:0 15:0 16:0 17:0 18:0 19:0 20:0 21:0 22:0 23:0 24:0 25:0 26:0 27:0 28:0 29:0 30:0 31:0 32:0 33:0 34:0 35:0 36:1.7800242 37:0.69314718 38:0 39:0 40:0 41:0 42:0 43:0 44:0 45:0 46:0 47:0 48:0 49:0 50:0 51:0 52:3.9318256 53:0 54:3.2188758 55:3.2188758 56:2.0794415 57:3.1780538 58:0.69314718 59:2.1972246 60:3.2188758 61:3.7612001 62:1.0986123 63:3.4011974 64:0 65:1.0986123 66:0 67:1.3862944 68:0 69:0 70:0 71:0 72:0 73:0 74:0 75:0 76:0 77:0 78:4.1271344 79:0 80:3.2188758 81:3.2188758 82:2.0794415 83:3.1780538 84:1.0986123 85:0.69314718 86:2.1972246 87:3.2188758 88:3.7841896 89:3.7612001 90:3.4011974 91:0 92:2.3304287 93:0 94:0 95:0 96:0 97:0 98:0 99:0 100:0 101:0 102:0 103:0 104:0 105:0 106:7.005789 107:5.31812 108:5.0172798 109:3.871201 110:3.6375862 111:3.4965076 112:3.871201 113:2.7725887 114:3.4657359 115:3.4011974 116:2.3978953 117:2.3025851 118:1.6094379 \n8 1:0 2:1.8755988 3:0.45119344 4:0 5:0 6:0 7:4.5325995 8:0 9:0 10:0 11:0 12:0 13:0 14:0 15:0 16:0 17:0 18:0 19:0 20:0 21:0 22:0 23:0 24:0 25:0 26:0 27:0 28:0 29:0 30:0 31:0 32:0 33:0 34:0 35:0 36:1.8656293 37:0.69314718 38:0 39:0 40:0 41:0 42:0 43:0 44:0 45:0 46:0 47:0 48:0 49:0 50:0 51:0 52:2.9957323 53:1.0986123 54:3.8066625 55:2.3978953 56:1.0986123 57:2.3025851 58:1.3862944 59:1.3862944 60:3.4657359 61:3.3672958 62:1.7917595 63:3.3322045 64:0 65:0 66:0 67:1.3862944 68:0 69:0 70:0 71:0 72:0 73:0 74:0 75:0 76:0 77:0 78:3.1354942 79:1.0986123 80:3.8066625 81:2.3978953 82:1.0986123 83:2.3025851 84:1.7917595 85:1.6094379 86:1.3862944 87:3.4657359 88:3.2188758 89:3.3672958 90:3.3322045 91:0 92:1.8090533 93:0 94:0 95:0 96:0 97:0 98:0 99:0 100:0 101:0 102:0 103:0 104:0 105:0 106:6.89467 107:5.1761497 108:5.3327188 109:3.3322045 110:3.6888795 111:3.5263605 112:3.7135721 113:2.7725887 114:3.6888795 115:3.7135721 116:2.9957323 117:2.4849066 118:2.4849066 \n2.038556248564226 1:0 2:1.8911563 3:0.88319078 4:0 5:0 6:0 7:4.6539604 8:0 9:0 10:0 11:0 12:0 13:0 14:0 15:0 16:0 17:0 18:0 19:0 20:0 21:0 22:0 23:0 24:0 25:0 26:0 27:0 28:0 29:0 30:0 31:0 32:0 33:0 34:0 35:0 36:0.65492597 37:0.69314718 38:0 39:0 40:0 41:0 42:0 43:0 44:0 45:0 46:0 47:0 48:0 49:0 50:0 51:0 52:1.9459101 53:0.69314718 54:1.9459101 55:1.7917595 56:0 57:0.69314718 58:0 59:1.3862944 60:1.7917595 61:1.6094379 62:0 63:0.69314718 64:0 65:0 66:0 67:0 68:0 69:0 70:0 71:0 72:0 73:0 74:0 75:0 76:0 77:0 78:2.1972246 79:0.69314718 80:1.9459101 81:1.7917595 82:0 83:0.69314718 84:0.69314718 85:0 86:1.3862944 87:1.7917595 88:0.69314718 89:1.6094379 90:0.69314718 91:0 92:2.735072 93:0 94:0 95:0 96:0 97:0 98:0 99:0 100:0 101:0 102:0 103:0 104:0 105:0 106:4.804021 107:2.8332133 108:2.7080502 109:1.6094379 110:1.9459101 111:1.0986123 112:1.3862944 113:0 114:1.7917595 115:1.7917595 116:0.69314718 117:1.0986123 118:0 \n0.03399183234112374 1:0.053776397 2:1.8503046 3:0.71410899 4:0.0049875415 5:0 6:0.69314718 7:4.9344739 8:1.6694774 9:0 10:0 11:0 12:0 13:0 14:0 15:0 16:0 17:0 18:0 19:0 20:0 21:0 22:0 23:0 24:5.1532916 25:1.0986123 26:0 27:0 28:3.0445224 29:1.6094379 30:0 31:0 32:0 33:0 34:0 35:2.5649494 36:1.0767075 37:0.69314718 38:0 39:0 40:0 41:0 42:0 43:0 44:0 45:0 46:0 47:0 48:0 49:0 50:0 51:0 52:2.4849066 53:1.3862944 54:3.1354942 55:0.69314718 56:3.0445224 57:2.9957323 58:1.3862944 59:1.6094379 60:1.0986123 61:0.69314718 62:0.69314718 63:3.988984 64:4.4188406 65:0 66:0 67:0 68:0 69:0 70:0 71:0 72:0 73:0 74:0 75:0 76:0 77:0 78:4.9836066 79:1.3862944 80:3.1354942 81:0.69314718 82:3.0445224 83:2.9957323 84:1.3862944 85:1.3862944 86:1.6094379 87:1.0986123 88:2.3978953 89:0.69314718 90:3.988984 91:0 92:2.4853772 93:0 94:0 95:0 96:0 97:0 98:0 99:0 100:0 101:0 102:0 103:0 104:0 105:0 106:6.9584484 107:4.1896547 108:5.049856 109:2.944439 110:2.8903718 111:3.3322045 112:1.6094379 113:1.9459101 114:1.3862944 115:2.3025851 116:1.9459101 117:4.4773368 118:1.6094379 \n0.01237010505617794 1:0 2:1.8652288 3:0.51686176 4:0 5:0 6:0.69314718 7:4.9272537 8:0.45768502 9:0 10:0 11:0 12:0 13:0 14:0 15:0 16:0 17:0 18:0 19:0 20:0 21:0 22:0 23:0 24:0 25:0 26:0 27:0 28:0 29:0 30:0 31:0 32:0 33:0 34:0 35:0 36:0.94972551 37:0.69314718 38:0 39:0 40:0 41:0 42:0 43:0 44:0 45:0 46:0 47:0 48:0 49:0 50:0 51:0 52:3.0445224 53:3.8066625 54:3.9512437 55:3.8066625 56:2.3978953 57:2.7080502 58:2.0794415 59:1.9459101 60:2.9957323 61:1.0986123 62:1.3862944 63:1.9459101 64:1.0986123 65:0 66:0 67:0 68:0 69:0 70:0 71:0 72:0 73:0 74:0 75:0 76:0 77:0 78:3.6635616 79:3.8066625 80:3.9702919 81:3.8066625 82:2.3978953 83:2.7080502 84:1.7917595 85:2.0794415 86:1.9459101 87:2.9957323 88:3.0910425 89:1.0986123 90:1.9459101 91:0 92:2.7386571 93:0 94:0 95:0 96:0 97:0 98:0 99:0 100:0 101:0 102:0 103:0 104:0 105:0 106:6.4281053 107:4.7957905 108:3.4965076 109:0.69314718 110:2.8332133 111:4.3174881 112:2.0794415 113:2.5649494 114:1.6094379 115:3.7841896 116:1.0986123 117:2.8903718 118:1.6094379 \n8 1:0.037075609 2:1.8844251 3:0.37584486 4:0.0099503309 5:0 6:0.69314718 7:3.9512437 8:0.15697954 9:0 10:0 11:0 12:0 13:0 14:0 15:0 16:0 17:0 18:0 19:0 20:0 21:0 22:0 23:0 24:0 25:0 26:0 27:0 28:0 29:0 30:0 31:0 32:0 33:0 34:0 35:0 36:1.678964 37:0.69314718 38:0 39:0 40:0 41:0 42:0 43:0 44:0 45:0 46:0 47:0 48:0 49:0 50:0 51:0 52:4.8903491 53:2.3025851 54:4.060443 55:3.871201 56:3.2188758 57:4.574711 58:1.9459101 59:4.5643482 60:3.871201 61:4.1896547 62:3.2188758 63:3.7376696 64:1.6094379 65:0 66:0 67:0 68:0 69:0 70:0 71:0 72:0 73:0 74:0 75:0 76:0 77:0 78:4.9972123 79:2.3025851 80:4.060443 81:3.871201 82:3.2188758 83:4.574711 84:3.3322045 85:1.9459101 86:4.5643482 87:3.871201 88:3.5553481 89:4.1896547 90:3.7612001 91:0 92:1.5545746 93:0 94:0 95:0 96:0 97:0 98:0 99:0 100:0 101:0 102:0 103:0 104:0 105:0 106:7.5438029 107:5.8971539 108:4.8121844 109:4.1108739 110:4.4886364 111:3.5553481 112:2.9957323 113:4.0943446 114:3.7612001 115:3.871201 116:1.6094379 117:2.6390573 118:3.0445224 \n0.2515982358032187 1:0 2:1.8074373 3:0.3471962 4:0 5:0 6:0.69314718 7:4.0253517 8:0.031098157 9:0 10:0 11:0 12:0 13:0 14:0 15:0 16:0 17:0 18:0 19:0 20:0 21:0 22:0 23:0 24:0 25:0 26:0 27:0 28:0 29:0 30:0 31:0 32:0 33:0 34:0 35:0 36:1.1678274 37:0.69314718 38:0 39:0 40:0 41:0 42:0 43:0 44:0 45:0 46:0.69314718 47:0 48:0 49:0 50:0 51:0 52:1.7917595 53:1.9459101 54:1.7917595 55:2.0794415 56:0.69314718 57:5.2094862 58:1.7917595 59:0.69314718 60:5.0814044 61:1.3862944 62:5.1873858 63:3.2188758 64:1.0986123 65:0 66:0 67:0 68:0 69:0 70:0 71:0.69314718 72:0 73:0 74:0 75:0 76:0 77:0 78:1.9459101 79:1.9459101 80:1.7917595 81:2.0794415 82:0.69314718 83:5.2094862 84:5.1929569 85:1.7917595 86:0.69314718 87:5.0814044 88:5.1873858 89:1.3862944 90:3.2188758 91:0 92:0.42541731 93:0 94:0 95:0 96:0 97:0 98:0 99:0 100:0 101:0 102:0 103:0 104:0 105:0 106:7.190676 107:5.5412635 108:4.4426513 109:1.0986123 110:2.0794415 111:1.6094379 112:1.9459101 113:2.0794415 114:0.69314718 115:1.6094379 116:0 117:1.0986123 118:0.69314718 \n3.180989523747309 1:0.87922484 2:1.8746125 3:0.33025842 4:0.38185524 5:0 6:0.69314718 7:4.8751973 8:0.073022171 9:0 10:0 11:0 12:0 13:0 14:0 15:0 16:0 17:0 18:0 19:0 20:0 21:0 22:0 23:0 24:1.0986123 25:0 26:0 27:0 28:0 29:0 30:0 31:0 32:0 33:0 34:2.8332133 35:0 36:0.97077892 37:0.69314718 38:0 39:0 40:0 41:0 42:0 43:0 44:0 45:0 46:0 47:0 48:0 49:0 50:0 51:0 52:3.1354942 53:2.3978953 54:0 55:3.4657359 56:1.3862944 57:1.7917595 58:2.3025851 59:1.3862944 60:1.9459101 61:3.8286414 62:2.5649494 63:2.7080502 64:1.9459101 65:0 66:0 67:0 68:0 69:0 70:0 71:0 72:0 73:0 74:0 75:0 76:0 77:0 78:3.3322045 79:2.3978953 80:0 81:3.4657359 82:1.3862944 83:1.7917595 84:3.0445224 85:2.3025851 86:1.6094379 87:1.9459101 88:2.7080502 89:3.8286414 90:2.7080502 91:0 92:1.3828132 93:0 94:0 95:0 96:0 97:0 98:0 99:0 100:0 101:0 102:0 103:0 104:0 105:0 106:6.7322107 107:4.8202816 108:3.4965076 109:2.6390573 110:3.5835189 111:3.0445224 112:1.7917595 113:3.5263605 114:1.3862944 115:2.6390573 116:0 117:1.0986123 118:3.1354942 \n1.850781359491782 1:3.8321877 2:1.8539353 3:1.4919927 4:0.38865799 5:0 6:0.69314718 7:5.0369526 8:2.2573031 9:0 10:0 11:0 12:0 13:0 14:0 15:0 16:0 17:0 18:0 19:0 20:0 21:0 22:0 23:0 24:0 25:0 26:0 27:0 28:0 29:0 30:0 31:0 32:0 33:0 34:0 35:0 36:1.6302205 37:0.69314718 38:0 39:0 40:0 41:0 42:0 43:0 44:0 45:0 46:0 47:0 48:0 49:0 50:0 51:0 52:1.0986123 53:0 54:1.3862944 55:2.3025851 56:1.9459101 57:0.69314718 58:0 59:1.3862944 60:1.0986123 61:0.69314718 62:0 63:1.0986123 64:0.69314718 65:0 66:0 67:0 68:0 69:0 70:0 71:0 72:0 73:0 74:0 75:0 76:0 77:0 78:1.0986123 79:0 80:1.6094379 81:2.3025851 82:1.9459101 83:0.69314718 84:0 85:0 86:1.3862944 87:1.6094379 88:1.0986123 89:0.69314718 90:1.0986123 91:0 92:4.5647315 93:0 94:0 95:0 96:0 97:0 98:0 99:0 100:0 101:0 102:0 103:0 104:0 105:0 106:6.9479371 107:4.1431347 108:2.8903718 109:5.4680601 110:2.7080502 111:3.2188758 112:2.3025851 113:1.6094379 114:1.9459101 115:0.69314718 116:4.1108739 117:2.4849066 118:1.7917595 \n3.20132208132867 1:0 2:1.8400282 3:0.1676644 4:0 5:0 6:0.69314718 7:4.3040651 8:0.10401227 9:0 10:0 11:0 12:0 13:0 14:0 15:0 16:0 17:0 18:0 19:0 20:0 21:0 22:0 23:0 24:0 25:0 26:0 27:0 28:0 29:0 30:0 31:0 32:0 33:0 34:0 35:0 36:1.6891729 37:0.69314718 38:0 39:0 40:0 41:0 42:0 43:0 44:0 45:0 46:0 47:0 48:0 49:0 50:0 51:0 52:4.4886364 53:4.8283137 54:4.3944492 55:4.1588831 56:4.3438054 57:4.3567088 58:3.7841896 59:3.8066625 60:3.9512437 61:3.2958369 62:2.8332133 63:3.2958369 64:3.912023 65:0 66:0 67:0 68:0 69:0 70:0 71:0 72:0 73:0 74:0.69314718 75:0 76:0 77:0 78:4.5643482 79:4.8283137 80:4.4188406 81:4.1588831 82:4.3438054 83:4.3567088 84:3.4965076 85:3.7841896 86:3.8066625 87:3.9512437 88:3.8918203 89:3.2958369 90:3.2958369 91:0 92:3.130208 93:0 94:0 95:0 96:0 97:0 98:0 99:0 100:0 101:0 102:0 103:0 104:0 105:0 106:7.624619 107:6.0980743 108:5.2257467 109:1.6094379 110:3.912023 111:3.6635616 112:4.3307333 113:3.5835189 114:4.060443 115:3.6635616 116:0.69314718 117:1.9459101 118:2.1972246 \n0.3465847909915881 1:0 2:1.6779779 3:0.65527691 4:0 5:0 6:0.69314718 7:4.7535902 8:1.8667077 9:0 10:0 11:0 12:0 13:0 14:0 15:0 16:0 17:0 18:0 19:0 20:0 21:0 22:0 23:0 24:0 25:0 26:0 27:0 28:0 29:0 30:0 31:0 32:0 33:0 34:0 35:0 36:0.84372004 37:0.69314718 38:0 39:0 40:0 41:0 42:0 43:0 44:0 45:0 46:0 47:0 48:0 49:0 50:0 51:0 52:5.0369526 53:0 54:1.3862944 55:1.3862944 56:0 57:0.69314718 58:0 59:0 60:0.69314718 61:0.69314718 62:0 63:1.0986123 64:0 65:0 66:0 67:0 68:0 69:0 70:0 71:0 72:0 73:0 74:0 75:0 76:0 77:0 78:5.0369526 79:0 80:1.3862944 81:1.3862944 82:0 83:0.69314718 84:0 85:0 86:0 87:0.69314718 88:0 89:0.69314718 90:1.0986123 91:0 