solver_type L2R_L2LOSS_SVC
nr_class 4
label 3 1 0 2
nr_feature 55
bias -1
w
0.002518427349993769 -0.002456804219442538 -0.001270621085738776 -0.004398488671233123 
-0.002468821861120956 -0.004369624046099419 0.00454750176107821 -0.004828776189520429 
0.001810435415369907 -0.001480616200281451 -0.003965045481106918 -0.001159251943034929 
0.001859002872443975 -0.001482761037823237 -0.001740344813620784 -0.001746788048516581 
0 0 0 0 
0 0 0 0 
0 0 0 0 
0 0 0 0 
0.01555002844797481 -0.01495833579892354 -0.01034671067888706 -0.01829383272587649 
0.005003731219533446 -0.009224832956431225 -0.001656310704998619 -0.01089708422190613 
0.01528096669832745 -0.008121964660790831 -0.02148244726849399 -0.008830586525904731 
0.01915481373620433 -0.009853860886252621 -0.02484774358674312 -0.008136116270677235 
0 0 0 0 
-0.0002782063957426989 -0.0004602677280793673 -0.0006914423967129448 -0.0007292821326888864 
0 0 0 0 
0.0002163312456756353 -0.0007101184259695243 -0.001199826126898776 -0.0005040561714777898 
0.008529377880942017 -0.005255904400575898 -0.006359034195863801 -0.008176260131819912 
0.006958739714504077 -0.004219890396747583 -0.007641696691209396 -0.005162721585090087 
0.004971410841126234 -0.004794383452353876 -0.005045771809526436 -0.003543023203074945 
0.003102416336499874 -0.0018614145637508 -0.002232873672105601 -0.003133935433365946 
0 0 0 0 
0 0 0 0 
0 0 0 0 
0 0 0 0 
0.006307231931787567 -0.001681488746483206 -0.007613184146354915 -0.003861986451063594 
-0.001618765120064618 -0.006421862746891358 0.003415557584422693 -0.003411276155052232 
0.002845847632386126 -0.001274150026812647 -0.004404982941280592 -0.001300316030412141 
0.002489801574148941 -0.001131382523984993 -0.003378366255196243 -0.00164666845287673 
0 0 0 0 
0 0 0 0 
0 0 0 0 
0 0 0 0 
0.009074078059341692 -0.005632589435921656 -0.01423823280148958 -0.006911984722710718 
0.003408385843993667 -0.004868712798427469 0.002445995005006165 -0.007033449861141791 
0.0005320624422611397 -0.001411813815686902 -0.006984016516985343 -0.003789717405120773 
0.004145215076986875 -0.00148933894793103 -0.005050159299696315 -0.002903850525584543 
0 0 0 0 
0 0 0 0 
0 0 0 0 
0 0 0 0 
-7.000488501154922e-05 -0.00122271012234878 -0.002588631631954422 0.001581751453044265 
-0.0007870801206407038 0.0006376203329757849 -0.001365529439336186 0.0001724951875744863 
0.0001325534651295259 0.0003692437547538908 -0.0003967190612028996 -0.0002179154473621048 
-0.0002708235224033177 0.0003875493312710738 -0.0006315379043061752 0.0001109597934200601 
-0.001592072548263381 -2.031345281665569e-05 0.003493790796951051 -0.0006182059255962353 
0.000261119545574294 -3.363806855446508e-05 -0.001094625683474379 0.0003547872880774579 
-0.0003088337615491804 -0.0005081158115081078 0.0004976130235861074 0.0003545115670932369 
-0.0007311390881512659 -0.0001760745430662127 0.001560664653235489 -0.0002379814573074217 
-0.03056023690379996 -0.03690446169010948 0.04965887221726881 0.01583760853729977 
-0.001691932354851731 0.003822361779782534 -0.000705540898511645 -0.004314928266047173 
0.03271214470158215 -0.005191411768225129 -0.01019809516427457 -0.02805187539049505 
-0.02046662660293784 0.003956699795331407 0.02883488571542971 -0.00948942906888905 
-0.02763371240343125 0.02225290936716401 -0.06773760289991246 0.0162472781901028 
0 0 0 0 
-0.0008037173541473608 -0.0001323775717083083 0.00162212400206663 -0.0002442296308927144 
