svm_type c_svc
kernel_type rbf
gamma 0.00787402
nr_class 2
total_sv 186
rho 0.487218
label 1 2
nr_sv 93 93
SV
1 1:0.021384929 2:0.051507538 3:0 4:0 5:0.016556291 6:0.42288557 7:0.060553633 8:0.027568922 9:0.014084507 10:0.17045455 11:0 12:0 13:0.28235294 14:0 15:0.0015128593 16:0.0077319588 17:0.085427136 18:0.38764045 19:0.33898305 20:0.0011376564 21:0.48900733 22:0.052860697 23:0.15425532 24:0.10276442 25:0.10802469 26:0.064411191 27:0.027645377 28:0.145 29:0.21153846 30:0.16180845 31:0.50678733 32:0.36125654 33:0.48283262 34:0.46978852 35:0.13387097 36:0.59397993 37:0.10748299 38:0.569161 39:0.32002903 40:0.88028169 41:0.042291951 42:0.03950104 43:0.036061026 44:0.034027778 45:0.040913416 46:0.004004004 47:0.00099700897 48:0 49:0.00099700897 50:0 51:0.47115385 52:0.023140496 53:0.13562753 54:0.58278146 55:0.0011376564 56:0.62608696 57:0.15207373 58:0.37458194 59:0.33914729 60:0.42857143 61:0.022335025 62:0 63:0 64:0.016556291 65:0.43842365 66:0.060553633 67:0.04109589 68:0.027568922 69:0.014084507 70:0.17045455 71:0 72:0.0062695925 73:0.28180039 74:0 75:0.0015037594 76:0.0077319588 77:0.38764045 78:0.33898305 79:0.087281796 80:0.0011376564 81:0.46254355 82:0.26848875 83:0.08897127 84:0.07444668 85:0.56527714 86:0.023890785 87:0.0092592593 88:0.1039604 89:0.36637931 90:0.17445483 91:0.016759777 92:0.10909091 93:0.02173913 94:0.028469751 95:0.099337748 96:0.079365079 97:0.42133333 98:0.034246575 99:0.009009009 100:0.013377926 101:0.016753927 102:0 103:0.03180212 104:0 105:0 106:0 107:0 108:0 109:0.0050632911 110:0 111:0 112:0 113:0 114:0 115:0 116:0 117:0 118:0 119:0.0010775862 120:0 121:0.05290056 122:0.14734627 123:0.028182401 124:0.0096949234 125:0.11767105 126:1 127:0.26718972 
1 1:0.015274949 2:0.025125628 3:0 4:0 5:0.0074503311 6:0.25041459 7:0.091695502 8:0.045112782 9:0.0070422535 10:0.0068181818 11:0.005033557 12:0 13:0.19411765 14:0 15:0 16:0.0025773196 17:0.1080402 18:0.26685393 19:0.028248588 20:0.0034129693 21:0.27648235 22:0.032338308 23:0.085771277 24:0.077524038 25:0.051851852 26:0.037085231 27:0.013346044 28:0.10642857 29:0.13118132 30:0.072575848 31:0.41855204 32:0.047120419 33:0.28969957 34:0.26283988 35:0.090322581 36:0.22742475 37:0.031292517 38:0.18707483 39:0.24963716 40:0.09084507 41:0.025238745 42:0.023562024 43:0.022884882 44:0.019444444 45:0.019029496 46:0.004004004 47:0.0019940179 48:0 49:0 50:0 51:0.14903846 52:0.021487603 53:0.068825911 54:0.026490066 55:0.0034129693 56:0.065217391 57:0.069124424 58:0.58528428 59:0.1996124 60:0.19860627 61:0.015228426 62:0 63:0 64:0.0074503311 65:0.25287356 66:0.091695502 67:0.0068493151 68:0.045112782 69:0.0070422535 70:0.0068181818 71:0 72:0.0078369906 73:0.19373777 74:0 75:0 76:0.0038659794 77:0.26685393 78:0.028248588 79:0.11471322 80:0.0034129693 81:0.34146341 82:0.08681672 83:0.066728452 84:0.10663984 85:0.47320202 86:0.042662116 87:0.018518519 88:0.064356436 89:0.36637931 90:0.090342679 91:0.011173184 92:0 93:0.032608696 94:0.010676157 95:0.046357616 96:0.11111111 97:0.44533333 98:0.01826484 99:0.0025740026 100:0.015050167 101:0.0073298429 102:0.0019607843 103:0.0070671378 104:0 105:0.0010799136 106:0 107:1 108:0.0044843049 109:0 110:0 111:0 112:0 113:0 114:0 115:0 116:0 117:0 118:0 119:0 120:0 121:0.002878037 122:0.0034305664 123:0.0047883956 124:0.0025168491 125:0.0022390718 126:1 127:0.093450593 
1 1:0.0040733198 2:0.17839196 3:0 4:0 5:0.024834437 6:0.56218905 7:0.41522491 8:0.045112782 9:0.014084507 10:0.29318182 11:0.0033557047 12:0.001572327 13:0.39215686 14:0 15:0 16:0.0051546392 17:0.16834171 18:0.46348315 19:0.24293785 20:0.0022753129 21:0.44437042 22:0.078358209 23:0.16755319 24:0.087740385 25:0.080864198 26:0.039037085 27:0.0085795996 28:0.07 29:0.27953297 30:0.12314099 31:0.64705882 32:0.26352531 33:0.53004292 34:0.42145015 35:0.20967742 36:0.56923077 37:0.091156463 38:0.52380952 39:0.5 40:0.24507042 41:0.010914052 42:0.0048510049 43:0.010402219 44:0.0055555556 45:0.073263559 46:0.004004004 47:0.00099700897 48:0 49:0.0039880359 50:0 51:0.48076923 52:0.072727273 53:0.0951417 54:0.079470199 55:0.0022753129 56:0.12173913 57:0.1797235 58:0.55183946 59:0.51356589 60:0.58536585 61:0.0040609137 62:0 63:0 64:0.024834437 65:0.59934319 66:0.41522491 67:0.020547945 68:0.045112782 69:0.014084507 70:0.29318182 71:0.001572327 72:0.012539185 73:0.39726027 74:0 75:0 76:0.0051546392 77:0.46348315 78:0.24293785 79:0.16708229 80:0.0022753129 81:0.57665505 82:0.32475884 83:0.12696942 84:0.064386318 85:0.68758589 86:0.044368601 87:0.041666667 88:0.099009901 89:0.39655172 90:0.12149533 91:0.039106145 92:0.12727273 93:0.0036231884 94:0.028469751 95:0.086092715 96:0.14285714 97:0.37866667 98:0.082191781 99:0.014157014 100:0.046822742 101:0.02617801 102:0 103:0.0070671378 104:0 105:0 106:0 107:0 108:0.0089686099 109:0.012658228 110:0 111:0 112:0 113:0 114:0 115:0 116:0 117:0 118:0 119:0 120:0.066787004 121:0.009075915 122:0.035774873 123:0.016916992 124:0.0023074452 125:0.03305037 126:1 127:0.43741765 
1 1:0.0020366599 2:0.7298995 3:0 4:0 5:0.014900662 6:0.66500829 7:0.024221453 8:0.55137845 9:0 10:0.015909091 11:0 12:0 13:0.36470588 14:0 15:0 16:0 17:0.16834171 18:0.39044944 19:0.83992467 20:0.0068259386 21:0.52764823 22:0.055970149 23:0.15159574 24:0.11117788 25:0.075308642 26:0.031229668 27:0.021925643 28:0.11071429 29:0.26854396 30:0.13146936 31:0.7760181 32:0.82547993 33:0.49785408 34:0.43353474 35:0.24032258 36:0.95919732 37:0.15510204 38:0.80952381 39:0.5413643 40:0.75352113 41:0.023874488 42:0.0027720028 43:0.007628294 44:0.0048611111 45:0.061845861 46:0.003003003 47:0.0029910269 48:0 49:0.0069790628 50:0 51:0.58653846 52:0.052892562 53:0.14777328 54:0.49668874 55:0.0068259386 56:0.59565217 57:0.31105991 58:0.5451505 59:0.53682171 60:0.82229965 61:0.0020304569 62:0 63:0 64:0.014900662 65:0.68308703 66:0.024221453 67:0.0068493151 68:0.55137845 69:0 70:0.015909091 71:0 72:0.014106583 73:0.36399217 74:0 75:0 76:0 77:0.39044944 78:0.83992467 79:0.17206983 80:0.0068259386 81:0.5130662 82:0.32315113 83:0.0639481 84:0.064386318 85:0.86303252 86:0.013651877 87:0.027777778 88:0.044554455 89:0.35344828 90:0.07165109 91:0.022346369 92:0.036363636 93:0.025362319 94:0.0035587189 95:0.1192053 96:0.11111111 97:0.38666667 98:0.059360731 99:0.0064350064 100:0.026755853 101:0 102:0 103:0 104:0 105:0 106:0 107:0 108:0 109:0 110:0 111:0 112:0 113:0 114:0 115:0 116:0 117:0 118:0 119:0 120:0 121:0.0030407914 122:0.0078963775 123:0.0010220569 124:0.00064207947 125:0.00056643341 126:1 127:0.022375494 
1 1:0.038696538 2:0.12437186 3:0 4:0 5:0.0033112583 6:0.25870647 7:0.025951557 8:0.030075188 9:0 10:0.025 11:0.0033557047 12:0 13:0.2372549 14:0 15:0 16:0.0012886598 17:0.052763819 18:0.50280899 19:0.14689266 20:0 21:0.41305796 22:0.05659204 23:0.16356383 24:0.12319712 25:0.087654321 26:0.070917372 27:0.16491897 28:0.26785714 29:0.1614011 30:0.11600238 31:0.42760181 32:0.2547993 33:0.51502146 34:0.35951662 35:0.12258065 36:0.36454849 37:0.055782313 38:0.33560091 39:0.26269956 40:0.31760563 41:0.044338336 42:0.04019404 43:0.046463245 44:0.047222222 45:0.042816365 46:0.001001001 47:0.0079760718 48:0.001 49:0 50:0 51:0.25 52:0.034710744 53:0.12550607 54:0.072847682 55:0 56:0.11304348 57:0.17741935 58:0.30100334 59:0.25193798 60:0.24738676 61:0.03857868 62:0 63:0 64:0.0033112583 65:0.26108374 66:0.025951557 67:0.020547945 68:0.030075188 69:0 70:0.025 71:0 72:0.0078369906 73:0.23679061 74:0 75:0.0030075188 76:0.0038659794 77:0.50280899 78:0.14689266 79:0.052369077 80:0 81:0.40243902 82:0.18006431 83:0.075996293 84:0.040241449 85:0.51442968 86:0.07337884 87:0.023148148 88:0.084158416 89:0.27586207 90:0.105919 91:0.027932961 92:0.12727273 93:0.014492754 94:0.017793594 95:0.42384106 96:0.079365079 97:0.10933333 98:0.03196347 99:0.0038610039 100:0.02006689 101:0.0020942408 102:0 103:0.0035335689 104:0 105:0 106:0 107:0 108:0 109:0 110:0 111:0 112:0 113:0 114:0 115:0 116:0 117:0 118:0 119:0.0010775862 120:0 121:0.0022090852 122:0.001299065 123:0.0012450862 124:0.0018097808 125:0.00038516522 126:1 127:0.020943295 
1 1:0.036659878 2:0.12437186 3:0 4:0 5:0.014072848 6:0.50746269 7:0.10726644 8:0.26315789 9:0.084507042 10:0.11590909 11:0.0016778523 12:0 13:0.46470588 14:0 15:0.0015128593 16:0.0090206186 17:0.35678392 18:0.48876404 19:0.30508475 20:0.019340159 21:0.49233844 22:0.11069652 23:0.20279255 24:0.16286058 25:0.11851852 26:0.072218608 27:0.041944709 28:0.245 29:0.27472527 30:0.17370613 31:0.5520362 32:0.38394415 33:0.60515021 34:0.48489426 35:0.19354839 36:0.62408027 37:0.078911565 38:0.49886621 39:0.40856313 40:0.41267606 41:0.060709413 42:0.04989605 43:0.050624133 44:0.047916667 45:0.091341579 46:0.01001001 47:0.0029910269 48:0 49:0.0039880359 50:0 51:0.48076923 52:0.034710744 53:0.10931174 54:0.30463576 55:0.019340159 56:0.22608696 57:0.19354839 58:0.5083612 59:0.55232558 60:0.39721254 61:0.036548223 62:0 63:0 64:0.014072848 65:0.51395731 66:0.10726644 67:0.047945205 68:0.26315789 69:0.084507042 70:0.11590909 71:0 72:0.014106583 73:0.46771037 74:0 75:0.0015037594 76:0.0090206186 77:0.48876404 78:0.30508475 79:0.36159601 80:0.019340159 81:0.56881533 82:0.23311897 83:0.19647822 84:0.062374245 85:0.62162162 86:0.068259386 87:0.023148148 88:0.2029703 89:0.48275862 90:0.18380062 91:0.016759777 92:0.090909091 93:0.06884058 94:0.03202847 95:0.31125828 96:0.28571429 97:0.27466667 98:0.098173516 99:0.018018018 100:0.013377926 101:0.017801047 102:0.0058823529 103:0 104:0 105:0.0010799136 106:0 107:0 108:0 109:0.0025316456 110:0.0034129693 111:0 112:0 113:0 114:0 115:0 116:0 117:0 118:0 119:0 120:0 121:0.0078441187 122:0.02206324 123:0.0042448123 124:0.0039767494 125:0.0281064 126:1 127:0.43039921 
1 1:0.037678208 2:0.10427136 3:0 4:0 5:0.0033112583 6:0.58208955 7:0.039792388 8:0.055137845 9:0.12676056 10:0.30454545 11:0.0067114094 12:0.0062893082 13:0.28039216 14:0.0016778523 15:0 16:0.006443299 17:0.21859296 18:0.40449438 19:0.39359699 20:0.0022753129 21:0.45902732 22:0.065298507 23:0.15691489 24:0.14483173 25:0.11728395 26:0.10540013 27:0.017159199 28:0.067142857 29:0.20741758 30:0.18084474 31:0.36425339 32:0.41710297 33:0.47639485 34:0.48640483 35:0.15483871 36:0.60869565 37:0.078911565 38:0.47052154 39:0.35413643 40:0.76830986 41:0.054570259 42:0.052668053 43:0.057558946 44:0.05 45:0.041864891 46:0.001001001 47:0 48:0 49:0.0049850449 50:0 51:0.50961538 52:0.049586777 53:0.08097166 54:0.49006623 55:0.0022753129 56:0.4826087 57:0.1843318 58:0.31438127 59:0.5503876 60:0.38327526 61:0.037563452 62:0 63:0 64:0.0033112583 65:0.58949097 66:0.039792388 67:0.35616438 68:0.055137845 69:0.12676056 70:0.30454545 71:0.0062893082 72:0.0062695925 73:0.27984344 74:0.0016778523 75:0 76:0.006443299 77:0.40449438 78:0.39359699 79:0.21945137 80:0.0022753129 81:0.51655052 82:0.24919614 83:0.10287303 84:0.092555332 85:0.56710948 86:0.064846416 87:0.032407407 88:0.11386139 89:0.49137931 90:0.19314642 91:0.027932961 92:0.018181818 93:0.036231884 94:0.0035587189 95:0.11258278 96:0.14285714 97:0.37066667 98:0.043378995 99:0.009009009 100:0.016722408 101:0.14554974 102:0.0078431373 103:0.045936396 104:0 105:0.0010799136 106:0 107:0 108:0.0089686099 109:0.012658228 110:0 111:0 112:0 113:0 114:0 115:0 116:0 117:0 118:0 119:0.03987069 120:0 121:0.048527971 122:0.19261391 123:0.072166788 124:0.012627967 125:0.15329657 126:1 127:0.37944664 
1 1:0.034623218 2:0.081658291 3:0 4:0 5:0.0024834437 6:0.38640133 7:0.024221453 8:0.050125313 9:0.1056338 10:0.056818182 11:0.0016778523 12:0 13:0.20980392 14:0 15:0 16:0.0012886598 17:0.072864322 18:0.33707865 19:0.050847458 20:0.0034129693 21:0.33710859 22:0.054726368 23:0.12965426 24:0.10096154 25:0.05617284 26:0.083279115 27:0.050524309 28:0.13714286 29:0.087912088 30:0.078524688 31:0.260181 32:0.062827225 33:0.33690987 34:0.24320242 35:0.087096774 36:0.27157191 37:0.042176871 38:0.22789116 39:0.21190131 40:0.16338028 41:0.041609823 42:0.036729037 43:0.036061026 44:0.038194444 45:0.02188392 46:0 47:0.0039880359 48:0 49:0 50:0 51:0.13461538 52:0.033057851 53:0.058704453 54:0.052980132 55:0.0034129693 56:0.082608696 57:0.076036866 58:0.2541806 59:0.16472868 60:0.080139373 61:0.034517766 62:0 63:0 64:0.0024834437 65:0.40065681 66:0.024221453 67:0.16438356 68:0.050125313 69:0.1056338 70:0.056818182 71:0 72:0.0047021944 73:0.20939335 74:0 75:0 76:0.0012886598 77:0.33707865 78:0.050847458 79:0.072319202 80:0.0034129693 81:0.38240418 82:0.20578778 83:0.064874884 84:0.014084507 85:0.33394411 86:0.083617747 87:0.023148148 88:0.079207921 89:0.27155172 90:0.099688474 91:0 92:0.054545455 93:0.014492754 94:0.021352313 95:0.059602649 96:0.12698413 97:0.10933333 98:0.03196347 99:0.0038610039 100:0.013377926 101:0.015706806 102:0 103:0.0070671378 104:0 105:0 106:0 107:0 108:0.75784753 109:0 110:0 111:0 112:0 113:0 114:0 115:0 116:0 117:0 118:0 119:0 120:0.0018050542 121:0.0013588881 122:0.0027722397 123:0.0014366652 124:0.0010286404 125:0.0022741212 126:1 127:0.20102048 
1 1:0.037678208 2:0.11809045 3:0 4:0 5:0.012417219 6:0.90381426 7:0.051903114 8:0.34586466 9:0.33802817 10:0.018181818 11:0 12:0 13:0.37058824 14:0 15:0.0015128593 16:0 17:0.14572864 18:0.65168539 19:0.10357815 20:0.0056882821 21:0.88074617 22:0.092661692 23:0.32114362 24:0.28846154 25:0.1382716 26:0.1509434 27:0.28979981 28:0.33142857 29:0.17101648 30:0.20107079 31:0.38687783 32:0.13787086 33:0.6416309 34:0.5755287 35:0.33548387 36:0.52441472 37:0.06122449 38:0.430839 39:0.37227866 40:0.44507042 41:0.074351978 42:0.073458073 43:0.074202497 44:0.077083333 45:0.049476689 46:0 47:0.0029910269 48:0 49:0 50:0 51:0.3125 52:0.19669421 53:0.072874494 54:0.066225166 55:0.0056882821 56:0.28695652 57:0.20506912 58:0.4548495 59:0.39534884 60:0.24738676 61:0.037563452 62:0 63:0 64:0.012417219 65:0.91954023 66:0.051903114 67:1 68:0.34586466 69:0.34507042 70:0.018181818 71:0 72:0 73:0.36986301 74:0 75:0.0015037594 76:0 77:0.65168539 78:0.10357815 79:0.14713217 80:0.0056882821 81:0.8728223 82:0.40675241 83:0.083410565 84:0.094567404 85:0.78973889 86:0.1894198 87:0.18981481 88:0.26237624 89:1 90:0.27102804 91:0.016759777 92:0.054545455 93:0.0036231884 94:0.042704626 95:0.15231788 96:0.26984127 97:0.22666667 98:0.075342466 99:0.0038610039 100:0.12541806 101:0.023036649 102:0.0019607843 103:0 104:0 105:0 106:0 107:0 108:0.0044843049 109:0.0050632911 110:0 111:0 112:0 113:0 114:0 115:0 116:0 117:0 118:0 119:0 120:0 121:0.0029926824 122:0.0035945218 123:0.0023789221 124:0.0015827832 125:0.0049516607 126:1 127:0.19874704 
1 1:0.070264766 2:0.057788945 3:0 4:0 5:0.03807947 6:0.68490879 7:0.034602076 8:0.43859649 9:0.80985915 10:0.16818182 11:0 12:0 13:0.31568627 14:0 15:0 16:0 17:0.085427136 18:0.44662921 19:0.0075329567 20:0.022753129 21:0.86875416 22:0.125 23:0.29255319 24:0.20192308 25:0.15493827 26:0.27586207 27:0.66348904 28:0.40571429 29:0.29807692 30:0.16954194 31:0.32126697 32:0.027923211 33:0.45493562 34:0.40181269 35:0.14354839 36:0.34247492 37:0.038095238 38:0.32312925 39:0.39767779 40:0.21126761 41:0.080491132 42:0.07969508 43:0.079056865 44:0.086111111 45:0.10371075 46:0.002002002 47:0 48:0 49:0 50:0 51:0.34134615 52:0.059504132 53:0.062753036 54:0.01986755 55:0.022753129 56:0.086956522 57:0.11520737 58:0.30434783 59:0.28682171 60:0.14634146 61:0.070050761 62:0 63:0 64:0.03807947 65:0.68801314 66:0.034602076 67:0.68493151 68:0.43859649 69:0.80985915 70:0.16818182 71:0 72:0 73:0.31506849 74:0 75:0 76:0 77:0.44662921 78:0.0075329567 79:0.08478803 80:0.022753129 81:0.87108014 82:0.36012862 83:0.21316033 84:0.08249497 85:0.5510765 86:0.20136519 87:0.074074074 88:0.29207921 89:0.93103448 90:0.31152648 91:0.039106145 92:0.018181818 93:0.014492754 94:0.067615658 95:0.059602649 96:0.20634921 97:0.11466667 98:0.068493151 99:0.0012870013 100:0.02006689 101:0.0052356021 102:0 103:0 104:0 105:0 106:0 107:0 108:0.0089686099 109:0 110:0 111:0 112:0 113:0 114:0 115:0 116:0 117:0 118:0 119:0 120:0 121:0.013942625 122:0.027176027 123:0.017925218 124:0.012359498 125:0.027652629 126:1 127:0.2382332 
1 1:0.013238289 2:0.10050251 3:0 4:0 5:0.0033112583 6:0.37313433 7:0.038062284 8:0.13533835 9:0 10:0.054545455 11:0 12:0 13:0.12745098 14:0.025167785 15:0 16:0 17:0.08040201 18:0.24438202 19:0.43314501 20:0.0034129693 21:0.26315789 22:0.036691542 23:0.14827128 24:0.064903846 25:0.060493827 26:0.03057905 27:0.023832221 28:0.069285714 29:0.23832418 30:0.11600238 31:0.4321267 32:0.44502618 33:0.34334764 34:0.45015106 35:0.17258065 36:0.43344482 37:0.11836735 38:0.53968254 39:0.20754717 40:0.32112676 41:0.017053206 42:0.013167013 43:0.012482663 44:0.01875 45:0.036156042 46:0.002002002 47:0.0029910269 48:0.001 49:0.0039880359 50:0 51:0.31730769 52:0.042975207 53:0.22267206 54:0.27152318 55:0.0034129693 56:0.16521739 57:0.10829493 58:0.22408027 59:0.31007752 60:0.32055749 61:0.01319797 62:0 63:0 64:0.0033112583 65:0.37931034 66:0.038062284 67:0.02739726 68:0.13533835 69:0 70:0.054545455 71:0 72:0.0015673981 73:0.12720157 74:0.025167785 75:0 76:0.0025773196 77:0.24438202 78:0.43314501 79:0.08478803 80:0.0034129693 81:0.40592334 82:0.18167203 83:0.18999073 84:0.022132797 85:0.46404031 86:0.017064846 87:0.018518519 88:0.03960396 89:0.19827586 90:0.028037383 91:0 92:0.054545455 93:0.047101449 94:0.024911032 95:0.092715232 96:0.047619048 97:0.46666667 98:0.038812785 99:0.0012870013 100:0.025083612 101:0.018848168 102:0 103:0.017667845 104:0 105:0 106:0 107:0 108:0.27802691 109:0 110:0 111:0 112:0 113:0 114:0 115:0 116:0 117:0 118:0 119:0.0021551724 120:0 121:0.0020831476 122:0.004272017 123:0.00058841601 124:0.0013729968 125:0.0010134247 126:1 127:0.058436186 
1 1:0 2:0.052763819 3:0 4:0 5:0 6:0.4344942 7:0.50346021 8:0.012531328 9:0 10:0.038636364 11:0 12:0 13:0.20588235 14:0 15:0.0015128593 16:0.0038659794 17:0.050251256 18:0.18820225 19:0.15254237 20:0.0011376564 21:0.3904064 22:0.12686567 23:0.1349734 24:0.097956731 25:0.027160494 26:0.015614834 27:0.038131554 28:0.012857143 29:0.21978022 30:0.20345033 31:0.52036199 32:0.23734729 33:0.49785408 34:0.42749245 35:0.14193548 36:0.54849498 37:0.097959184 38:0.27324263 39:0.27213353 40:0.28098592 41:0.0040927694 42:0 43:0.00069348128 44:0 45:0.15223597 46:0.012012012 47:0 48:0.002 49:0.0019940179 50:0 51:0.47596154 52:0.019834711 53:0.070850202 54:0.11258278 55:0.0011376564 56:0.17826087 57:0.14516129 58:0.27759197 59:0.35465116 60:0.17770035 61:0 62:0 63:0 64:0 65:0.43021346 66:0.50346021 67:0.020547945 68:0.012531328 69:0 70:0.038636364 71:0 72:0.0094043887 73:0.20547945 74:0 75:0.0015037594 76:0.0038659794 77:0.18820225 78:0.15254237 79:0.052369077 80:0.0011376564 81:0.43815331 82:0.096463023 83:0.064874884 84:0.098591549 85:0.52908841 86:0.0221843 87:0.032407407 88:0.054455446 89:0.61637931 90:0.34267913 91:0.011173184 92:0 93:0.0036231884 94:0 95:0.35761589 96:0.15873016 97:0.24266667 98:0.059360731 99:0.0051480051 100:0.010033445 101:0 102:0 103:0 104:0 105:0 106:0 107:0 108:0 109:0 110:0 111:0 112:0 113:0 114:0 115:0 116:0 117:0 118:0 119:0 120:0.016245487 121:0.0094716602 122:0.0028743062 123:0.00073812639 124:0.0065048431 125:0.0018832165 126:1 127:0.023882762 
1 1:0.0071283096 2:0.084170854 3:0 4:0 5:0 6:0.48590381 7:0.038062284 8:0.047619048 9:0 10:0.12045455 11:0.0033557047 12:0 13:0.20392157 14:0 15:0 16:0 17:0.13819095 18:0.29775281 19:0.64971751 20:0.0034129693 21:0.38107928 22:0.038557214 23:0.12167553 24:0.10036058 25:0.070987654 26:0.033832141 27:0.011439466 28:0.017857143 29:0.20260989 30:0.11778703 31:0.56561086 32:0.66666667 33:0.39699571 34:0.32628399 35:0.13548387 36:0.71505017 37:0.14557823 38:0.6031746 39:0.34615385 40:0.41901408 41:0.015006821 42:0.0097020097 43:0.010402219 44:0.011111111 45:0.033301618 46:0 47:0.00099700897 48:0 49:0 50:0 51:0.45192308 52:0.038016529 53:0.091093117 54:0.66225166 55:0.0034129693 56:0.26956522 57:0.24423963 58:0.35785953 59:0.5251938 60:0.52264808 61:0.007106599 62:0 63:0 64:0 65:0.50246305 66:0.038062284 67:0.02739726 68:0.047619048 69:0 70:0.12727273 71:0 72:0.0047021944 73:0.20547945 74:0 75:0 76:0 77:0.29775281 78:0.64971751 79:0.13965087 80:0.0034129693 81:0.40592334 82:0.31028939 83:0.063021316 84:0.08249497 85:0.6252863 86:0.04778157 87:0.013888889 88:0.10891089 89:0.48275862 90:0.059190031 91:0.011173184 92:0.054545455 93:0.0072463768 94:0.014234875 95:0.17218543 96:0.047619048 97:0.34933333 98:0.059360731 99:0.014157014 100:0.011705686 101:0.011518325 102:0 103:0.0035335689 104:0 105:0 106:0 107:0 108:0.0044843049 109:0.012658228 110:0 111:0 112:0 113:0 114:0 115:0 116:0 117:0 118:0 119:0.0086206897 120:0 121:0.17200767 122:0.50995966 123:0.032376082 124:0.016618271 125:0.13947386 126:1 127:0.097399209 
1 1:0.014256619 2:0.28266332 3:1 4:0.97737557 5:0 6:0.19402985 7:0.3200692 8:0.5914787 9:0 10:0.072727273 11:0 12:0 13:0.20392157 14:0 15:0 16:0 17:0.067839196 18:0.26123596 19:0.1920904 20:0 21:0.73484344 22:1 23:1 24:0.094350962 25:0.25061728 26:0.033832141 27:0.052430887 28:0.034285714 29:1 30:0.19631172 31:0.32579186 32:0.2408377 33:0.30472103 34:0.46223565 35:0.10967742 36:0.34782609 37:0.13333333 38:0.27664399 39:0.27793904 40:0.16830986 41:0.021145975 42:0.013860014 43:0.013176144 44:0.014583333 45:0.99904853 46:0.998999 47:0.99601196 48:0.997 49:0.99800598 50:1 51:0.22115385 52:0.0082644628 53:0.05465587 54:0.013245033 55:0 56:0.065217391 57:0.085253456 58:0.23745819 59:0.3120155 60:0.26480836 61:0.015228426 62:1 63:0.97737557 64:0 65:0.19376026 66:0.3200692 67:0.01369863 68:0.5914787 69:0 70:0.072727273 71:0 72:0.040752351 73:0.2035225 74:0 75:0 76:0 77:0.26123596 78:0.1920904 79:0.069825436 80:0 81:0.45209059 82:1 83:0.089898054 84:0.96981891 85:0.59184608 86:0.034129693 87:1 88:0.99009901 89:0.39224138 90:0.021806854 91:0 92:0.054545455 93:0.047101449 94:0 95:0.20529801 96:0.063492063 97:0.11733333 98:0.070776256 99:0.0051480051 100:0.0066889632 101:0.0010471204 102:0 103:0 104:0.38339223 105:0.0043196544 106:0 107:0 108:0.0044843049 109:0 110:0 111:0 112:0 113:0 114:0 115:0 116:0 117:0 118:0 119:0.0021551724 120:0 121:0.0098050911 122:0.0042635471 123:0.0052400715 124:0.0083987832 125:0.0042975895 126:1 127:0.052648221 
1 1:0.026476578 2:0.072864322 3:0 4:0 5:0.0066225166 6:0.54228856 7:0.31141869 8:0.047619048 9:0.13380282 10:0.12954545 11:0 12:0 13:0.32156863 14:0 15:0 16:0.0012886598 17:0.2160804 18:0.5252809 19:0.084745763 20:0.0011376564 21:0.6835443 22:0.076492537 23:0.23005319 24:0.18149038 25:0.12530864 26:0.13142485 27:0.2049571 28:0.35642857 29:0.1668956 30:0.15764426 31:0.31900452 32:0.11692845 33:0.50858369 34:0.37311178 35:0.16774194 36:0.39799331 37:0.069387755 38:0.28684807 39:0.35558781 40:0.24295775 41:0.066166439 42:0.065142065 43:0.066574202 44:0.058333333 45:0.040913416 46:0.002002002 47:0 48:0 49:0 50:0 51:0.23076923 52:0.038016529 53:0.089068826 54:0.072847682 55:0.0011376564 56:0.069565217 57:0.15207373 58:0.3277592 59:0.35658915 60:0.14285714 61:0.026395939 62:0 63:0 64:0.0066225166 65:0.54679803 66:0.31141869 67:0.75342466 68:0.047619048 69:0.13380282 70:0.12954545 71:0 72:0 73:0.32093933 74:0 75:0 76:0.0012886598 77:0.5252809 78:0.084745763 79:0.21446384 80:0.0011376564 81:0.57926829 82:0.40353698 83:0.10379981 84:0.06639839 85:0.60879524 86:0.17406143 87:0.041666667 88:0.10891089 89:0.60344828 90:0.1682243 91:0 92:0.090909091 93:0.028985507 94:0.03202847 95:0.13245033 96:0.33333333 97:0.38133333 98:0.095890411 99:0.0064350064 100:0.011705686 101:0.27748691 102:0.0078431373 103:0.053003534 104:0 105:0 106:0 107:0 108:0 109:0.017721519 110:0 111:0 112:0 113:0 114:0 115:0 116:0 117:0 118:0 119:0.0010775862 120:0.0054151625 121:0.0037376514 122:0.0090695364 123:0.0052386973 124:0.0032090195 125:0.016914616 126:1 127:0.54359289 
1 1:0 2:0.14824121 3:0 4:0 5:0.00082781457 6:0.43946932 7:0.29411765 8:0.11027569 9:0.014084507 10:0.025 11:0.0016778523 12:0.001572327 13:0.11372549 14:0 15:0 16:0.0077319588 17:0.12060302 18:0.28370787 19:0.30508475 20:0.0068259386 21:0.29913391 22:0.055970149 23:0.13164894 24:0.060697115 25:0.057407407 26:0.022121015 27:0.10104862 28:0.079285714 29:0.23901099 30:0.11600238 31:0.6719457 32:0.31413613 33:0.30257511 34:0.33987915 35:0.2016129 36:0.37324415 37:0.076190476 38:0.28231293 39:0.3838897 40:0.14295775 41:0.0068212824 42:0.00069300069 43:0 44:0.0020833333 45:0.064700285 46:0.001001001 47:0.024925224 48:0 49:0.0039880359 50:0 51:0.42788462 52:0.047933884 53:0.13562753 54:0.079470199 55:0.0068259386 56:0.07826087 57:0.071428571 58:0.39799331 59:0.31007752 60:0.42508711 61:0 62:0 63:0 64:0.00082781457 65:0.44499179 66:0.29411765 67:0 68:0.11027569 69:0.014084507 70:0.025 71:0.001572327 72:0.020376176 73:0.11350294 74:0 75:0 76:0.0077319588 77:0.28370787 78:0.30508475 79:0.11970075 80:0.0068259386 81:0.43728223 82:0.1511254 83:0.10379981 84:0.058350101 85:0.46770499 86:0.029010239 87:0.018518519 88:0.059405941 89:0.29741379 90:0.062305296 91:0.0055865922 92:0.036363636 93:0.0036231884 94:0.0035587189 95:0.099337748 96:0.047619048 97:0.15466667 98:0.04109589 99:0.020592021 100:0.025083612 101:0 102:0 103:0 104:0 105:0 106:0 107:0 108:0 109:0 110:0 111:0 112:0 113:0 114:0 115:0 116:0 117:0 118:0 119:0 120:0.0018050542 121:0.0025372391 122:0.0043359184 123:0.0019145477 124:0.0022112392 125:0.0067002613 126:1 127:0.31720553 
1 1:0.090631365 2:1 3:0 4:0 5:0.0099337748 6:0.34328358 7:0.12629758 8:0.1754386 9:0.14084507 10:0.0045454545 11:0 12:0 13:0.17843137 14:0 15:0 16:0 17:0.047738693 18:0.3258427 19:0.0056497175 20:0 21:0.45236509 22:0.10199005 23:0.16289894 24:0.21454327 25:0.17777778 26:0.1509434 27:0.17635844 28:0.64642857 29:0.25892857 30:0.20047591 31:0.51809955 32:0.02617801 33:0.30257511 34:0.35649547 35:0.083870968 36:0.27023411 37:0.048979592 38:0.138322 39:0.23222061 40:0.14859155 41:0.12755798 42:0.12543313 43:0.12760055 44:0.12361111 45:0.081826832 46:0 47:0.0029910269 48:0 49:0 50:0 51:0.25480769 52:0.019834711 53:0.10931174 54:0 55:0 56:0.10434783 57:0.050691244 58:0.36120401 59:0.16666667 60:0.16724739 61:0.09035533 62:0 63:0 64:0.0099337748 65:0.36288998 66:0.12629758 67:0.10958904 68:0.1754386 69:0.14084507 70:0.0045454545 71:0 72:0.0062695925 73:0.17808219 74:0 75:0 76:0 77:0.3258427 78:0.0056497175 79:0.047381546 80:0 81:0.50696864 82:0.23633441 83:0.16404078 84:0.058350101 85:0.48098946 86:0.098976109 87:0.050925926 88:0.12376238 89:0.35344828 90:0.099688474 91:0 92:0.10909091 93:0 94:0.039145907 95:0.059602649 96:0.17460317 97:0.13333333 98:0.047945205 99:0 100:0.015050167 101:0.22722513 102:0.066666667 103:0.098939929 104:0 105:0 106:0 107:0 108:0 109:0.048101266 110:0 111:0 112:0 113:0 114:0 115:0 116:0 117:0 118:0 119:0 120:0 121:0.023459156 122:0.0044940337 123:0.020974058 124:0.022501162 125:0.0035987669 126:1 127:0.018426877 
1 1:0 2:0.25879397 3:0 4:0 5:0.00082781457 6:0.8092869 7:0.24740484 8:0.23558897 9:0 10:0.015909091 11:0 12:0 13:0.25882353 14:0 15:0.025718608 16:0.0077319588 17:0.26130653 18:0.5 19:0.30885122 20:0.0045506257 21:0.78814124 22:0.063432836 23:0.099069149 24:0.091947115 25:0.058024691 26:0.023422251 27:0.21639657 28:0.016428571 29:0.28021978 30:0.17787032 31:0.75565611 32:0.30366492 33:0.57939914 34:0.62537764 35:0.14193548 36:0.64816054 37:0.10748299 38:0.51247166 39:0.44992743 40:0.42887324 41:0.0034106412 42:0.00069300069 43:0.0034674064 44:0 45:0.04376784 46:0 47:0 48:0 49:0 50:0 51:0.54326923 52:0.018181818 53:0.12348178 54:0.059602649 55:0.0045506257 56:0.4 57:0.25806452 58:0.61204013 59:0.61821705 60:0.33797909 61:0 62:0 63:0 64:0.00082781457 65:0.83087028 66:0.24740484 67:0 68:0.23558897 69:0 70:0.015909091 71:0 72:0 73:0.25831703 74:0 75:0.02556391 76:0.011597938 77:0.5 78:0.30885122 79:0.26433915 80:0.0045506257 81:0.54703833 82:0.36173633 83:0.041705283 84:0.12676056 85:1 86:0.0051194539 87:0.018518519 88:0.02970297 89:0.6637931 90:0.062305296 91:0 92:0 93:0 94:0.028469751 95:0.046357616 96:0.15873016 97:0.045333333 98:0.029680365 99:0.01029601 100:0.008361204 101:0 102:0 103:0 104:0 105:0 106:0 107:0 108:0 109:0 110:0 111:0 112:0 113:0 114:0 115:0 116:0 117:0 118:0 119:0 120:0 121:1 122:0.02432615 123:0 124:1 125:0 126:1 127:0 
1 1:0.16904277 2:0.19849246 3:0 4:0 5:0.0016556291 6:0.4013267 7:0.38754325 8:0.12531328 9:0.28169014 10:0.18181818 11:0.0016778523 12:0.001572327 13:0.29803922 14:0 15:0.0015128593 16:0.006443299 17:0.14321608 18:0.40449438 19:0.079096045 20:0.0011376564 21:0.48700866 22:0.075870647 23:0.21808511 24:0.29026442 25:0.26975309 26:0.27781392 27:0.12106768 28:0.19928571 29:0.21771978 30:0.29565735 31:0.27375566 32:0.12914485 33:0.4248927 34:0.46676737 35:0.2 36:0.35317726 37:0.082993197 38:0.34126984 39:0.32583454 40:0.23591549 41:0.22237381 42:0.22245322 43:0.22538141 44:0.22152778 45:0.059942912 46:0.004004004 47:0.0039880359 48:0 49:0.0029910269 50:0 51:0.40865385 52:0.059504132 53:0.13360324 54:0.052980132 55:0.0011376564 56:0.12608696 57:0.11751152 58:0.34782609 59:0.29457364 60:0.24390244 61:0.16954315 62:0 63:0 64:0.0016556291 65:0.40722496 66:0.38754325 67:0.17123288 68:0.12531328 69:0.28169014 70:0.18181818 71:0.001572327 72:0.0015673981 73:0.29745597 74:0 75:0.0015037594 76:0.006443299 77:0.40449438 78:0.079096045 79:0.14214464 80:0.0011376564 81:0.57491289 82:0.23633441 83:0.24467099 84:0.07444668 85:0.47778287 86:0.14505119 87:0.027777778 88:0.074257426 89:0.55172414 90:0.23676012 91:0.011173184 92:0.2 93:0.039855072 94:0.049822064 95:0.086092715 96:0.19047619 97:0.46933333 98:0.047945205 99:0.0064350064 100:0.025083612 101:0.0010471204 102:0 103:0 104:0 105:0 106:0 107:0 108:0 109:0 110:0 111:0 112:0 113:0 114:0 115:0 116:0 117:0 118:0 119:0 120:0 121:0.034059225 122:0.062243302 123:0.0058383938 124:0.024560636 125:0.079865982 126:1 127:0.28166798 
1 1:0.028513238 2:0.0087939698 3:0 4:0.0022624434 5:0.0016556291 6:0.37313433 7:0.4100346 8:0.10025063 9:0 10:0.072727273 11:0 12:0 13:0.26862745 14:0 15:0 16:0.073453608 17:0.11306533 18:0.36797753 19:0.047080979 20:0 21:0.3697535 22:0.041044776 23:0.18417553 24:0.11418269 25:0.10308642 26:0.054651919 27:0.040038132 28:0.20571429 29:0.22802198 30:0.22070196 31:0.57239819 32:0.15183246 33:0.44206009 34:0.6102719 35:0.16935484 36:0.27558528 37:0.088435374 38:0.24036281 39:0.45936139 40:0.26619718 41:0.047748977 42:0.043659044 43:0.046463245 44:0.045833333 45:0.028544244 46:0.01001001 47:0.0049850449 48:0.001 49:0.00099700897 50:0.0010040161 51:0.32692308 52:0.024793388 53:0.068825911 54:0.0066225166 55:0 56:0.047826087 57:0.066820276 58:0.77591973 59:0.17829457 60:0.19860627 61:0.028426396 62:0 63:0.0022624434 64:0.0016556291 65:0.37602627 66:0.4100346 67:0 68:0.10025063 69:0 70:0.072727273 71:0 72:0.0062695925 73:0.27005871 74:0 75:0.0030075188 76:0.073453608 77:0.36797753 78:0.047080979 79:0.11471322 80:0 81:0.56794425 82:0.11414791 83:0.36515292 84:0.024144869 85:0.40403115 86:0.078498294 87:0.074074074 88:0.074257426 89:0.59913793 90:0.11214953 91:0.027932961 92:0.21818182 93:0.014492754 94:0.039145907 95:0.36423841 96:0.23809524 97:0.75733333 98:0.077625571 99:0.11325611 100:0.02173913 101:0 102:0 103:0 104:0 105:0 106:0 107:0 108:0 109:0 110:0 111:0 112:0 113:0 114:0 115:0 116:0 117:0 118:0 119:0 120:0 121:0.0033439204 122:0.00035588311 123:0.00012363376 124:0.003330598 125:0.001135876 126:1 127:0.040802372 
1 1:0.077393075 2:0.22361809 3:0 4:0 5:0.064569536 6:0.25373134 7:0.01384083 8:0.045112782 9:0.0070422535 10:0.011363636 11:0 12:0 13:0.13921569 14:0 15:0.0015128593 16:0.0025773196 17:0.052763819 18:0.29775281 19:0.11676083 20:0.0034129693 21:0.30246502 22:0.055348259 23:0.14361702 24:0.15144231 25:0.14506173 26:0.129473 27:0.051477598 28:0.069285714 29:0.1407967 30:0.15466984 31:0.45475113 32:0.14834206 33:0.34763948 34:0.32628399 35:0.16935484 36:0.27959866 37:0.06122449 38:0.29818594 39:0.20972424 40:0.23521127 41:0.10777626 42:0.10810811 43:0.1185853 44:0.10694444 45:0.039010466 46:0.007007007 47:0.0029910269 48:0 49:0.00099700897 50:0 51:0.25 52:0.054545455 53:0.25506073 54:0.039735099 55:0.0034129693 56:0.13043478 57:0.1359447 58:0.30769231 59:0.27325581 60:0.1358885 61:0.078172589 62:0 63:0 64:0.064569536 65:0.25615764 66:0.01384083 67:0.047945205 68:0.045112782 69:0.0070422535 70:0.011363636 71:0 72:0 73:0.14285714 74:0 75:0.0030075188 76:0.0025773196 77:0.29775281 78:0.11676083 79:0.054862843 80:0.0034129693 81:0.2761324 82:0.15273312 83:0.11399444 84:0.058350101 85:0.43105818 86:0.04778157 87:0.041666667 88:0.10891089 89:0.2887931 90:0.074766355 91:0.0055865922 92:0.072727273 93:0.0036231884 94:0.028469751 95:0.12582781 96:0.14285714 97:0.256 98:0.063926941 99:0.0051480051 100:0.013377926 101:0.34136126 102:0.0019607843 103:0.0035335689 104:0 105:0.019438445 106:0 107:0 108:0.0044843049 109:0.0025316456 110:0 111:0 112:0 113:0 114:0 115:0 116:0 117:0 118:0 119:0.0010775862 120:0 121:0.0074137608 122:0.027302188 123:0.0068008649 124:0.0048414687 125:0.0064088595 126:1 127:0.10383711 
1 1:0.015274949 2:0.13442211 3:0 4:0 5:0.015728477 6:0.78606965 7:0.048442907 8:0.35087719 9:0.23943662 10:0.24772727 11:0 12:0 13:0.44117647 14:0 15:0 16:0 17:0.23869347 18:0.62640449 19:0.12052731 20:0.0068259386 21:0.55496336 22:0.11940299 23:0.23404255 24:0.15024038 25:0.087654321 26:0.08848406 27:0.054337464 28:0.27642857 29:0.18543956 30:0.12195122 31:0.36199095 32:0.14310646 33:0.60729614 34:0.57099698 35:0.22903226 36:0.45083612 37:0.091156463 38:0.39002268 39:0.35558781 40:0.4943662 41:0.027967258 42:0.026334026 43:0.024965326 44:0.026388889 45:0.076117983 46:0.005005005 47:0.0039880359 48:0 49:0 50:0 51:0.47115385 52:0.082644628 53:0.11740891 54:0.24503311 55:0.0068259386 56:0.25652174 57:0.16359447 58:0.51839465 59:0.38565891 60:0.21254355 61:0.015228426 62:0 63:0 64:0.015728477 65:0.78817734 66:0.048442907 67:0.15068493 68:0.35087719 69:0.23943662 70:0.24772727 71:0 72:0.0047021944 73:0.44227006 74:0 75:0 76:0 77:0.62640449 78:0.12052731 79:0.23690773 80:0.0068259386 81:0.60017422 82:0.29742765 83:0.1278962 84:0.034205231 85:0.62345396 86:0.09556314 87:0.037037037 88:0.14356436 89:0.45689655 90:0.13395639 91:0.011173184 92:0.054545455 93:0.028985507 94:0.067615658 95:0.086092715 96:0.20634921 97:0.38666667 98:0.095890411 99:0.0064350064 100:0.028428094 101:0.036649215 102:0.011764706 103:0.0035335689 104:0 105:0.0021598272 106:0 107:0.008797654 108:0.098654709 109:0.075949367 110:0 111:0 112:0 113:0 114:0 115:0 116:0 117:0.0036945813 118:0 119:0 120:0 121:0.0025784371 122:0.0097299749 123:0.0034622767 124:0.0013919451 125:0.0084194963 126:1 127:0.39222925 
1 1:0.030549898 2:0.26633166 3:0 4:0 5:0.011589404 6:0.5721393 7:0.070934256 8:0.037593985 9:0.056338028 10:0.013636364 11:0 12:0 13:0.26666667 14:0 15:0 16:0.0012886598 17:0.15075377 18:0.44101124 19:0.41242938 20:0.0011376564 21:0.42238508 22:0.057835821 23:0.17353723 24:0.12319712 25:0.11604938 26:0.076772934 27:0.15824595 28:0.33857143 29:0.21909341 30:0.16121356 31:0.5678733 32:0.42582897 33:0.50858369 34:0.45619335 35:0.18870968 36:0.63946488 37:0.12517007 38:0.53514739 39:0.37155298 40:0.59929577 41:0.043656207 42:0.037422037 43:0.042302358 44:0.036111111 45:0.038058991 46:0.008008008 47:0 48:0 49:0.00099700897 50:0 51:0.5 52:0.036363636 53:0.13562753 54:0.27152318 55:0.0011376564 56:0.47826087 57:0.12211982 58:0.4916388 59:0.4127907 60:0.44599303 61:0.030456853 62:0 63:0 64:0.011589404 65:0.58784893 66:0.070934256 67:0.10273973 68:0.037593985 69:0.063380282 70:0.013636364 71:0 72:0.0015673981 73:0.26614481 74:0 75:0 76:0.0012886598 77:0.44101124 78:0.41242938 79:0.14962594 80:0.0011376564 81:0.52526132 82:0.24276527 83:0.10194625 84:0.054325956 85:0.62757673 86:0.058020478 87:0.013888889 88:0.11881188 89:0.47844828 90:0.099688474 91:0.0055865922 92:0.10909091 93:0.014492754 94:0.03202847 95:0.12582781 96:0.12698413 97:0.384 98:0.052511416 99:0.0077220077 100:0.018394649 101:0.019895288 102:0 103:0 104:0 105:0 106:0 107:0 108:0.0044843049 109:0.012658228 110:0 111:0 112:0 113:0 114:0 115:0 116:0 117:0 118:0 119:0.0086206897 120:0 121:0.028950963 122:0.055636973 123:0.011774347 124:0.013552742 125:0.030136994 126:1 127:0.12503953 
1 1:0.039714868 2:0.78140704 3:0 4:0 5:0.00082781457 6:0.5787728 7:0.11937716 8:0.035087719 9:0.021126761 10:0.020454545 11:0.0033557047 12:0 13:0.3372549 14:0 15:0 16:0.0025773196 17:0.17336683 18:0.53932584 19:0.25612053 20:0.0011376564 21:0.56695536 22:0.086442786 23:0.18949468 24:0.15564904 25:0.10185185 26:0.07156799 27:0.010486177 28:0.09 29:0.24725275 30:0.15585961 31:0.3438914 32:0.26701571 33:0.6223176 34:0.58459215 35:0.17419355 36:0.6548495 37:0.093877551 38:0.52834467 39:0.38751814 40:0.84507042 41:0.053888131 42:0.043659044 43:0.048543689 44:0.047916667 45:0.078972407 46:0.005005005 47:0.0029910269 48:0 49:0 50:0 51:0.50480769 52:0.061157025 53:0.2145749 54:0.099337748 55:0.0011376564 56:0.76956522 57:0.1797235 58:0.41471572 59:0.52906977 60:0.3554007 61:0.039593909 62:0 63:0 64:0.00082781457 65:0.59441708 66:0.11937716 67:0.18493151 68:0.035087719 69:0.021126761 70:0.020454545 71:0 72:0.0047021944 73:0.34050881 74:0 75:0 76:0.0038659794 77:0.53932584 78:0.25612053 79:0.17705736 80:0.0011376564 81:0.50261324 82:0.35369775 83:0.14921223 84:0.08249497 85:0.6440678 86:0.10068259 87:0.041666667 88:0.10891089 89:0.55172414 90:0.25233645 91:0.0055865922 92:0.12727273 93:0.025362319 94:0.028469751 95:0.072847682 96:0.3968254 97:0.13066667 98:0.043378995 99:0.009009009 100:0.023411371 101:0.34240838 102:0 103:0.1130742 104:0 105:0 106:0 107:0 108:0.062780269 109:0 110:0.14334471 111:0 112:0 113:0 114:0 115:0 116:0 117:0 118:0 119:0 120:0.02166065 121:0.0022135845 122:0.0029885634 123:0.00336297 124:0.00096348251 125:0.0011642618 126:1 127:0.063177866 
1 1:0.053971487 2:0.15954774 3:0 4:0 5:0.023178808 6:0.45439469 7:0.077854671 8:0.16541353 9:0.028169014 10:0.375 11:0 12:0 13:0.44901961 14:0 15:0.0045385779 16:0 17:0.34673367 18:0.42696629 19:0.14312618 20:0.0045506257 21:0.54963358 22:0.076492537 23:0.20678191 24:0.17548077 25:0.18024691 26:0.10995446 27:0.043851287 28:0.34857143 29:0.21909341 30:0.21058894 31:0.3959276 32:0.20593368 33:0.53004292 34:0.51208459 35:0.20806452 36:0.52374582 37:0.092517007 38:0.48866213 39:0.44847605 40:0.51619718 41:0.068212824 42:0.058905059 43:0.05963939 44:0.05625 45:0.060894386 46:0.01001001 47:0.0039880359 48:0 49:0 50:0 51:0.43269231 52:0.018181818 53:0.10121457 54:0.099337748 55:0.0045506257 56:0.26521739 57:0.13364055 58:0.51505017 59:0.52713178 60:0.30662021 61:0.053807107 62:0 63:0 64:0.023178808 65:0.45812808 66:0.077854671 67:0.089041096 68:0.16541353 69:0.028169014 70:0.375 71:0 72:0.015673981 73:0.4481409 74:0 75:0.0060150376 76:0.0025773196 77:0.42696629 78:0.14312618 79:0.34912718 80:0.0045506257 81:0.66550523 82:0.31350482 83:0.1278962 84:0.068410463 85:0.5510765 86:0.10238908 87:0.037037037 88:0.074257426 89:0.54741379 90:0.29906542 91:0.022346369 92:0.072727273 93:0.061594203 94:0.060498221 95:0.17218543 96:0.31746032 97:0.48 98:0.068493151 99:0.009009009 100:0.011705686 101:0.078534031 102:0.021568627 103:0.014134276 104:0 105:0 106:0 107:0 108:0.01793722 109:0.0025316456 110:0 111:0 112:0 113:0 114:0 115:0 116:0 117:0 118:0 119:0.012931034 120:0.0018050542 121:0.059763643 122:0.18445606 123:0.049967362 124:0.022165667 125:0.30350501 126:1 127:0.61001318 
1 1:0.030549898 2:0.10929648 3:0 4:0.0022624434 5:0.24172185 6:0.43781095 7:0.053633218 8:0.09273183 9:0.014084507 10:0.16136364 11:0 12:0 13:0.4372549 14:0 15:0.0045385779 16:0.037371134 17:0.1281407 18:0.46067416 19:0.052730697 20:0.0068259386 21:0.59626915 22:0.048507463 23:0.20478723 24:0.12740385 25:0.11419753 26:0.086532206 27:0.079122974 28:0.23 29:0.21428571 30:0.19214753 31:0.20588235 32:0.10820244 33:0.43776824 34:0.50302115 35:0.19193548 36:0.37926421 37:0.053061224 38:0.35941043 39:0.37082729 40:0.71197183 41:0.060709413 42:0.051975052 43:0.051317614 44:0.050694444 45:0.04376784 46:0.002002002 47:0.0019940179 48:0.001 49:0.0019940179 50:0.0010040161 51:0.20673077 52:0.036363636 53:0.10323887 54:0.01986755 55:0.0068259386 56:0.39130435 57:0.066820276 58:0.45819398 59:0.23837209 60:0.12195122 61:0.030456853 62:0 63:0.0022624434 64:0.24172185 65:0.44334975 66:0.053633218 67:0.15068493 68:0.09273183 69:0.021126761 70:0.16136364 71:0 72:0.0047021944 73:0.43639922 74:0 75:0.0045112782 76:0.038659794 77:0.46067416 78:0.052730697 79:0.12718204 80:0.0068259386 81:0.56620209 82:0.22829582 83:0.1278962 84:0.06639839 85:0.41502519 86:0.083617747 87:0.013888889 88:0.04950495 89:0.45258621 90:0.34267913 91:0.016759777 92:0.018181818 93:0.014492754 94:0.060498221 95:0.20529801 96:0.063492063 97:0.56533333 98:0.061643836 99:0.042471042 100:0.011705686 101:0.10575916 102:0.16862745 103:0.0035335689 104:0 105:0 106:0 107:0 108:0.0089686099 109:0 110:1 111:0 112:0 113:0 114:0 115:0 116:0 117:0 118:0 119:0 120:0.0036101083 121:0.0031486557 122:0.0030733612 123:0.006106459 124:0.0025872918 125:0.0066932987 126:1 127:0.25534387 
1 1:0.033604888 2:0.39824121 3:0 4:0 5:0.015728477 6:0.68490879 7:0.038062284 8:0.022556391 9:0.042253521 10:0.088636364 11:0 12:0 13:0.71176471 14:0 15:0.015128593 16:0.0012886598 17:0.29396985 18:0.59831461 19:0.11864407 20:0.0034129693 21:0.65622918 22:0.087064677 23:0.26196809 24:0.16045673 25:0.14567901 26:0.083279115 27:0.015252622 28:0.15214286 29:0.33241758 30:0.20285544 31:0.42533937 32:0.17975567 33:0.65450644 34:0.69939577 35:0.30322581 36:0.64949833 37:0.11020408 38:0.39455782 39:0.46734398 40:0.86830986 41:0.0579809 42:0.046431046 43:0.049930652 44:0.045138889 45:0.075166508 46:0 47:0.00099700897 48:0 49:0 50:0 51:0.45192308 52:0.056198347 53:0.17206478 54:0.13245033 55:0.0034129693 56:0.62173913 57:0.1797235 58:0.5083612 59:0.48837209 60:0.28222997 61:0.033502538 62:0 63:0 64:0.015728477 65:0.69786535 66:0.038062284 67:0.39726027 68:0.022556391 69:0.049295775 70:0.088636364 71:0 72:0.010971787 73:0.71232877 74:0 75:0.015037594 76:0.0025773196 77:0.59831461 78:0.11864407 79:0.29925187 80:0.0034129693 81:0.70034843 82:0.25401929 83:0.11770158 84:0.10462777 85:0.53275309 86:0.076791809 87:0.074074074 88:0.11881188 89:0.72844828 90:0.26479751 91:0.05027933 92:0.25454545 93:0.032608696 94:0.078291815 95:0.2384106 96:0.11111111 97:0.52 98:0.063926941 99:0.0038610039 100:0.033444816 101:0.0062827225 102:0 103:0.0035335689 104:0 105:0 106:0 107:0 108:0 109:0 110:0.32081911 111:0 112:0 113:0 114:0 115:0 116:0 117:0 118:0 119:0 120:0 121:0.0034360399 122:0.0051247441 123:0.002271662 124:0.0012298537 125:0.0043718374 126:1 127:0.15283267 
1 1:0.051934827 2:0.22110553 3:0 4:0 5:0.0099337748 6:0.60862355 7:0.20934256 8:0.12280702 9:0.37323944 10:0.51136364 11:0.005033557 12:0.0047169811 13:0.36862745 14:0 15:0.0015128593 16:0.010309278 17:0.15075377 18:0.57865169 19:0.04519774 20:0.0022753129 21:0.68620919 22:0.073383085 23:0.26795213 24:0.16466346 25:0.12962963 26:0.12166558 27:0.28979981 28:0.42357143 29:0.19986264 30:0.21891731 31:0.35746606 32:0.071553229 33:0.56866953 34:0.56797583 35:0.17419355 36:0.39732441 37:0.10884354 38:0.34807256 39:0.38606676 40:0.56478873 41:0.06957708 42:0.068607069 43:0.072122053 44:0.070833333 45:0.04567079 46:0.004004004 47:0.0079760718 48:0 49:0 50:0 51:0.29807692 52:0.084297521 53:0.17408907 54:0.059602649 55:0.0022753129 56:0.15652174 57:0.13364055 58:0.40802676 59:0.30232558 60:0.16376307 61:0.05177665 62:0 63:0 64:0.0099337748 65:0.6091954 66:0.20934256 67:0.4109589 68:0.12280702 69:0.37323944 70:0.51136364 71:0.0047169811 72:0.010971787 73:0.36986301 74:0 75:0.0015037594 76:0.012886598 77:0.57865169 78:0.04519774 79:0.14962594 80:0.0022753129 81:0.70209059 82:0.30707395 83:0.18257646 84:0.070422535 85:0.55657352 86:0.12116041 87:0.064814815 88:0.12871287 89:0.78448276 90:0.35202492 91:0 92:0.23636364 93:0.014492754 94:0.049822064 95:0.099337748 96:0.19047619 97:0.25333333 98:0.054794521 99:0.016731017 100:0.045150502 101:0.064921466 102:0.029411765 103:0.1024735 104:0 105:0 106:0 107:0 108:0.0089686099 109:0.0050632911 110:0.55972696 111:0 112:0 113:0 114:0 115:0 116:0 117:0 118:0 119:0 120:0.0018050542 121:0.0037439985 122:0.010485248 123:0.0041905242 124:0.0024910269 125:0.018871517 126:1 127:0.60545455 
1 1:0.0030549898 2:0.050251256 3:0 4:0 5:0 6:0.60199005 7:0.027681661 8:0.19548872 9:0 10:0.12045455 11:0 12:0 13:0.19411765 14:0.0016778523 15:0 16:0.0025773196 17:0.095477387 18:0.47191011 19:0.011299435 20:0.0011376564 21:0.49833444 22:0.072139303 23:0.25132979 24:0.055889423 25:0.063580247 26:0.040338321 27:0.53384175 28:0.21571429 29:0.17239011 30:0.093396788 31:0.55656109 32:0.05061082 33:0.46781116 34:0.72205438 35:0.24354839 36:0.2367893 37:0.38367347 38:0.14399093 39:0.39840348 40:0.12394366 41:0.0081855389 42:0.0069300069 43:0.0055478502 44:0.0083333333 45:0.039010466 46:0 47:0.00099700897 48:0 49:0.00099700897 50:0 51:0.23076923 52:0.069421488 53:0.064777328 54:0.026490066 55:0.0011376564 56:0.0086956522 57:0.073732719 58:0.28093645 59:0.17248062 60:0.094076655 61:0.0030456853 62:0 63:0 64:0 65:0.60262726 66:0.027681661 67:0.45890411 68:0.19548872 69:0 70:0.12045455 71:0 72:0 73:0.19373777 74:0.0016778523 75:0.0045112782 76:0.0025773196 77:0.47191011 78:0.011299435 79:0.094763092 80:0.0011376564 81:0.78745645 82:0.38745981 83:0.11584801 84:0.080482897 85:0.38204306 86:0.13481229 87:0.060185185 88:0.12871287 89:0.625 90:0.63862928 91:0.061452514 92:0.054545455 93:0.0036231884 94:0.046263345 95:0.1192053 96:0.22222222 97:0.064 98:0.059360731 99:0.0064350064 100:0.035117057 101:0 102:0 103:0 104:0 105:0 106:0 107:0 108:0 109:0 110:0 111:0 112:0 113:0 114:0 115:0 116:0 117:0 118:0 119:0 120:0 121:0.0037955395 122:0.0028622568 123:3.1893485e-05 124:0.0036065186 125:0.0064464188 126:1 127:0.20401186 
1 1:0.017311609 2:0.076633166 3:0 4:0 5:0.0041390728 6:0.49751244 7:0.032871972 8:0.050125313 9:0.11971831 10:0.33181818 11:0 12:0 13:0.7 14:0 15:0.0045385779 16:0 17:0.25125628 18:0.92696629 19:0.0037664783 20:0 21:0.739507 22:0.081467662 23:0.35837766 24:0.22836538 25:0.097530864 26:0.083279115 27:0.013346044 28:0.61857143 29:0.17376374 30:0.37001785 31:0.65158371 32:0.038394415 33:0.90987124 34:0.73716012 35:0.58709677 36:0.5083612 37:0.08707483 38:0.58276644 39:0.61248186 40:0.73169014 41:0.039563438 42:0.018711019 43:0.025658807 44:0.029861111 45:0.06565176 46:0.009009009 47:0.0079760718 48:0.001 49:0.0049850449 50:0 51:0.37019231 52:0.082644628 53:0.18218623 54:0.046357616 55:0 56:0.091304348 57:0.23963134 58:0.90301003 59:0.29844961 60:0.31358885 61:0.017258883 62:0 63:0 64:0.0041390728 65:0.50738916 66:0.032871972 67:0.095890411 68:0.050125313 69:0.11971831 70:0.33181818 71:0 72:0.0094043887 73:0.70450098 74:0 75:0.007518797 76:0.0025773196 77:0.92696629 78:0.0037664783 79:0.24937656 80:0 81:0.8466899 82:0.21543408 83:0.13901761 84:0.062374245 85:0.71873568 86:0.16723549 87:0.037037037 88:0.19306931 89:0.88362069 90:0.31152648 91:0.078212291 92:0.25454545 93:0.09057971 94:0.13879004 95:0.11258278 96:0.22222222 97:0.37333333 98:0.14611872 99:0.0064350064 100:0.046822742 101:0 102:0 103:0 104:0 105:0 106:0 107:0 108:0 109:0 110:0 111:0 112:0 113:0 114:0 115:0 116:0 117:0 118:0 119:0 120:0 121:0.037695291 122:0.0257901 123:0.0072852322 124:0.034391321 125:0.054109273 126:1 127:0.17242292 
1 1:0.011201629 2:0.15201005 3:0 4:0 5:0.01986755 6:0.56218905 7:0.12456747 8:0.20050125 9:0.11971831 10:0.11136364 11:0.0033557047 12:0.001572327 13:0.31764706 14:0.0016778523 15:0 16:0.0012886598 17:0.18844221 18:0.41573034 19:0.20150659 20:0.007963595 21:0.47501666 22:0.076492537 23:0.18683511 24:0.088942308 25:0.060493827 26:0.048145738 27:0.030505243 28:0.13214286 29:0.21978022 30:0.11778703 31:0.38687783 32:0.22338569 33:0.51287554 34:0.42296073 35:0.16451613 36:0.57859532 37:0.10884354 38:0.52721088 39:0.3490566 40:0.51267606 41:0.022510232 42:0.021483021 43:0.020804438 44:0.019444444 45:0.056137012 46:0.004004004 47:0.0039880359 48:0 49:0.0029910269 50:0 51:0.375 52:0.049586777 53:0.30566802 54:0.33774834 55:0.007963595 56:0.33043478 57:0.26267281 58:0.31772575 59:0.45155039 60:0.35191638 61:0.011167513 62:0 63:0 64:0.01986755 65:0.57142857 66:0.12456747 67:0.1369863 68:0.20050125 69:0.12676056 70:0.11136364 71:0.001572327 72:0.012539185 73:0.31898239 74:0.0016778523 75:0 76:0.0012886598 77:0.41573034 78:0.20150659 79:0.19700748 80:0.007963595 81:0.49477352 82:0.35530547 83:0.11677479 84:0.078470825 85:0.55565735 86:0.061433447 87:0.046296296 88:0.054455446 89:0.44827586 90:0.14018692 91:0.011173184 92:0.072727273 93:0.025362319 94:0.03202847 95:0.099337748 96:0.19047619 97:0.17066667 98:0.043378995 99:0.0025740026 100:0.016722408 101:0.43560209 102:0.0098039216 103:0.83745583 104:0 105:0.0010799136 106:0.0096463023 107:0 108:0.0089686099 109:0.59746835 110:0 111:0 112:0 113:0 114:0 115:0 116:0 117:0 118:0 119:0.0021551724 120:0.0018050542 121:0.0024429797 122:0.0070571096 123:0.0087531731 124:0.00086623583 125:0.0072008778 126:1 127:0.35405929 
1 1:0.18737271 2:0.055276382 3:0 4:0 5:0 6:0.46268657 7:0.39100346 8:0.01754386 9:0.035211268 10:0.015909091 11:0.053691275 12:0.050314465 13:0.31176471 14:0 15:0.0030257186 16:0.0077319588 17:0.055276382 18:0.3258427 19:0.0075329567 20:0.0022753129 21:0.44170553 22:0.047263682 23:0.38231383 24:0.40084135 25:0.27716049 26:0.27065712 27:0.29837941 28:0.43857143 29:0.14835165 30:0.30933968 31:0.28959276 32:0.04886562 33:0.34549356 34:0.40785498 35:0.21129032 36:0.32508361 37:0.055782313 38:0.23582766 39:0.28011611 40:0.038028169 41:0.23396999 42:0.22799723 43:0.22815534 44:0.22013889 45:0.027592769 46:0.003003003 47:0.0039880359 48:0 49:0 50:0 51:0.33653846 52:0.099173554 53:0.12955466 54:0 55:0.0022753129 56:0.0086956522 57:0.10829493 58:0.37458194 59:0.14341085 60:0.19163763 61:0.18781726 62:0 63:0 64:0 65:0.47126437 66:0.39100346 67:0.17123288 68:0.01754386 69:0.035211268 70:0.015909091 71:0.050314465 72:0.054858934 73:0.3111546 74:0 75:0.0045112782 76:0.0077319588 77:0.3258427 78:0.0075329567 79:0.054862843 80:0.0022753129 81:0.68292683 82:0.17524116 83:0.77293791 84:0.032193159 85:0.3838754 86:0.11433447 87:0.023148148 88:0.21287129 89:0.60775862 90:0.14953271 91:0.033519553 92:0.12727273 93:0.010869565 94:0.046263345 95:0.13245033 96:0.3015873 97:0.184 98:0.061643836 99:0.01029601 100:0.068561873 101:0 102:0 103:0 104:0 105:0 106:0 107:0 108:0 109:0 110:0 111:0 112:0 113:0 114:0 115:0 116:0 117:0 118:0 119:0 120:0 121:0.052818398 122:0.086728609 123:0.00026629618 124:0.05276579 125:0.0063663603 126:1 127:0.014478261 
1 1:0.035641548 2:0.042713568 3:0 4:0 5:0.022350993 6:0.45439469 7:0.12283737 8:0.14786967 9:0.070422535 10:0.029545455 11:0 12:0 13:0.44901961 14:0 15:0.0015128593 16:0 17:0.09798995 18:0.53932584 19:0.0037664783 20:0.0011376564 21:0.42438374 22:0.067164179 23:0.15824468 24:0.13401442 25:0.10864198 26:0.12036435 27:0.18303146 28:0.245 29:0.13324176 30:0.1748959 31:0.20135747 32:0.064572426 33:0.48712446 34:0.39728097 35:0.15483871 36:0.29498328 37:0.091156463 38:0.32993197 39:0.30261248 40:0.11830986 41:0.06957708 42:0.067221067 43:0.067267684 44:0.069444444 45:0.034253092 46:0.005005005 47:0.0019940179 48:0 49:0 50:0 51:0.21634615 52:0.044628099 53:0.064777328 54:0.026490066 55:0.0011376564 56:0.034782609 57:0.15437788 58:0.25083612 59:0.24031008 60:0.080139373 61:0.035532995 62:0 63:0 64:0.022350993 65:0.47454844 66:0.12283737 67:0.16438356 68:0.14786967 69:0.070422535 70:0.029545455 71:0 72:0.0062695925 73:0.45205479 74:0 75:0.0015037594 76:0 77:0.53932584 78:0.0037664783 79:0.097256858 80:0.0011376564 81:0.78135889 82:0.23794212 83:0.079703429 84:0.034205231 85:0.57764544 86:0.061433447 87:0.055555556 88:0.11881188 89:0.56465517 90:0.11838006 91:0.022346369 92:0.072727273 93:0.039855072 94:0.03202847 95:0.21854305 96:0.079365079 97:0.432 98:0.066210046 99:0.0038610039 100:0.013377926 101:0.39267016 102:1 103:0 104:0 105:0 106:0 107:0 108:0.071748879 109:0.0025316456 110:0 111:0 112:0 113:0 114:0 115:0 116:0 117:0 118:0 119:0 120:0 121:0.0042824387 122:0.0043623385 123:0.019985982 124:0.0035658553 125:0.0016893007 126:1 127:0.047383399 
1 1:0.0061099796 2:0.24497487 3:0.97053045 4:0.99095023 5:0 6:0.25373134 7:0.41868512 8:0.5914787 9:0 10:0.086363636 11:0 12:0 13:0.20784314 14:0 15:0 16:0 17:0.065326633 18:0.28089888 19:0.34463277 20:0 21:0.72951366 22:0.98445274 23:0.96609043 24:0.087740385 25:0.23888889 26:0.028627196 27:0.04099142 28:0.027142857 29:0.98008242 30:0.1784652 31:0.37556561 32:0.38743455 33:0.33476395 34:0.64350453 35:0.12096774 36:0.41672241 37:0.13877551 38:0.28571429 39:0.27793904 40:0.27112676 41:0.012278308 42:0.0055440055 43:0.0062413315 44:0.010416667 45:0.99333968 46:0.98798799 47:0.98803589 48:0.987 49:0.98803589 50:0.98895582 51:0.32692308 52:0.0082644628 53:0.076923077 54:0.01986755 55:0 56:0.056521739 57:0.12211982 58:0.23411371 59:0.30813953 60:0.2369338 61:0.0060913706 62:0.97053045 63:0.99095023 64:0 65:0.2545156 66:0.41868512 67:0.0068493151 68:0.5914787 69:0 70:0.086363636 71:0 72:0.039184953 73:0.2074364 74:0 75:0 76:0 77:0.28089888 78:0.34463277 79:0.069825436 80:0 81:0.46167247 82:0.96784566 83:0.063021316 84:0.98993964 85:0.62207971 86:0.046075085 87:0.97685185 88:0.96534653 89:0.38793103 90:0.031152648 91:0.011173184 92:0.036363636 93:0.050724638 94:0.0035587189 95:0.22516556 96:0.12698413 97:0.096 98:0.095890411 99:0.0064350064 100:0.0050167224 101:0.0010471204 102:0 103:0 104:0.28268551 105:0.0032397408 106:0 107:0 108:0.0044843049 109:0 110:0 111:0 112:0 113:0 114:0 115:0 116:0 117:0 118:0 119:0.0021551724 120:0 121:0.010385633 122:0.0032843522 123:0.0041365644 124:0.0092167322 125:0.0031864295 126:1 127:0.036853755 
1 1:0.14765784 2:0.32537688 3:0 4:0 5:0.010761589 6:0.58706468 7:0.088235294 8:0.1679198 9:0.29577465 10:0.77727273 11:0.0033557047 12:0.0031446541 13:0.30196078 14:0 15:0 16:0.0025773196 17:0.067839196 18:0.4241573 19:0.2693032 20:0.0068259386 21:0.60293138 22:0.047263682 23:0.16356383 24:0.29567308 25:0.23641975 26:0.22251139 27:0.085795996 28:0.24 29:0.21565934 30:0.24568709 31:0.44570136 32:0.31762653 33:0.46566524 34:0.52870091 35:0.15322581 36:0.53712375 37:0.10748299 38:0.48979592 39:0.40203193 40:0.58943662 41:0.18144611 42:0.18156618 43:0.18169209 44:0.18125 45:0.032350143 46:0.001001001 47:0.0019940179 48:0 49:0 50:0 51:0.44230769 52:0.034710744 53:0.13562753 54:0.092715232 55:0.0068259386 56:0.23478261 57:0.22580645 58:0.31772575 59:0.39922481 60:0.35191638 61:0.15025381 62:0 63:0 64:0.010761589 65:0.58949097 66:0.088235294 67:0.095890411 68:0.1679198 69:0.29577465 70:0.77727273 71:0.0031446541 72:0.0078369906 73:0.30528376 74:0 75:0 76:0.0025773196 77:0.4241573 78:0.2693032 79:0.069825436 80:0.0068259386 81:0.60365854 82:0.36977492 83:0.22984245 84:0.054325956 85:0.70865781 86:0.078498294 87:0.050925926 88:0.079207921 89:0.5 90:0.21495327 91:0.027932961 92:0.090909091 93:0.025362319 94:0.028469751 95:0.19205298 96:0.063492063 97:0.23466667 98:0.047945205 99:0.009009009 100:0.011705686 101:0.11623037 102:0.039215686 103:0.09540636 104:0 105:0 106:0 107:0 108:0.022421525 109:0.063291139 110:0 111:0 112:0 113:0 114:0 115:0 116:0 117:0 118:0 119:0.029094828 120:0.0018050542 121:0.0085040534 122:0.04364168 123:0.010328949 124:0.0023316291 125:0.070797116 126:1 127:1 
1 1:0.0061099796 2:0.23869347 3:0.98428291 4:0.99547511 5:0 6:0.25207297 7:0.42733564 8:0.60150376 9:0 10:0.084090909 11:0 12:0 13:0.20392157 14:0 15:0 16:0 17:0.065326633 18:0.27808989 19:0.33709981 20:0 21:0.73284477 22:0.99440299 23:0.98271277 24:0.088341346 25:0.24074074 26:0.029277814 27:0.038131554 28:0.026428571 29:0.98832418 30:0.18262939 31:0.37330317 32:0.37870855 33:0.3304721 34:0.64954683 35:0.12580645 36:0.41471572 37:0.13605442 38:0.28117914 39:0.27648766 40:0.26971831 41:0.013642565 42:0.0069300069 43:0.007628294 44:0.011111111 45:1 46:1 47:1 48:1 49:1 50:1 51:0.3125 52:0.011570248 53:0.076923077 54:0.01986755 55:0 56:0.060869565 57:0.11981567 58:0.23411371 59:0.3120155 60:0.23344948 61:0.0060913706 62:0.98428291 63:0.99547511 64:0 65:0.25287356 66:0.42733564 67:0.0068493151 68:0.60150376 69:0 70:0.084090909 71:0 72:0.039184953 73:0.2035225 74:0 75:0 76:0 77:0.27808989 78:0.33709981 79:0.067331671 80:0 81:0.45905923 82:0.97427653 83:0.062094532 84:1 85:0.61658268 86:0.044368601 87:1 88:0.99009901 89:0.38793103 90:0.031152648 91:0.011173184 92:0.036363636 93:0.050724638 94:0.0035587189 95:0.21854305 96:0.12698413 97:0.093333333 98:0.095890411 99:0.0064350064 100:0.008361204 101:0.0010471204 102:0 103:0 104:0.28798587 105:0.0043196544 106:0 107:0 108:0.0044843049 109:0 110:0 111:0 112:0 113:0 114:0 115:0 116:0 117:0 118:0 119:0.0021551724 120:0 121:0.010385633 122:0.0030317095 123:0.0042412873 124:0.0092891415 125:0.0030726283 126:1 127:0.035537549 
1 1:0.0020366599 2:0.10427136 3:0 4:0 5:0.012417219 6:0.42454395 7:0.069204152 8:0.070175439 9:0.049295775 10:0.21363636 11:0.005033557 12:0.0031446541 13:0.26470588 14:0 15:0 16:0.0012886598 17:0.16582915 18:0.3988764 19:0.29001883 20:0.0011376564 21:0.34377082 22:0.053482587 23:0.14960106 24:0.11598558 25:0.07345679 26:0.033832141 27:0.036224976 28:0.072857143 29:0.18475275 30:0.08625818 31:0.34615385 32:0.31588133 33:0.4248927 34:0.32779456 35:0.18064516 36:0.42541806 37:0.099319728 38:0.4138322 39:0.30478955 40:0.54788732 41:0.0081855389 42:0.0027720028 43:0.0062413315 44:0.0041666667 45:0.039010466 46:0.001001001 47:0 48:0 49:0.00099700897 50:0 51:0.29326923 52:0.054545455 53:0.08097166 54:0.22516556 55:0.0011376564 56:0.32173913 57:0.10599078 58:0.31772575 59:0.38372093 60:0.26132404 61:0.0020304569 62:0 63:0 64:0.012417219 65:0.43349754 66:0.069204152 67:0.02739726 68:0.070175439 69:0.049295775 70:0.21363636 71:0.0031446541 72:0.0062695925 73:0.26418787 74:0 75:0.0030075188 76:0.0025773196 77:0.3988764 78:0.29001883 79:0.16708229 80:0.0011376564 81:0.43815331 82:0.23151125 83:0.086190918 84:0.046277666 85:0.49473202 86:0.044368601 87:0.0046296296 88:0.04950495 89:0.39655172 90:0.13395639 91:0.033519553 92:0.018181818 93:0.025362319 94:0.024911032 95:0.13245033 96:0.15873016 97:0.21866667 98:0.057077626 99:0.01029601 100:0.025083612 101:0.012565445 102:0 103:0 104:0 105:0 106:0 107:0 108:0 109:0 110:0 111:0 112:0 113:0 114:0 115:0 116:0 117:0 118:0 119:0 120:0 121:0.016557996 122:0.044458201 123:0.022762478 124:0.0036777223 125:0.052979022 126:1 127:0.38433202 
1 1:0.28818737 2:0.10050251 3:0 4:0 5:0.0082781457 6:0.5721393 7:0.077854671 8:0.062656642 9:0.26760563 10:0.24772727 11:0.0016778523 12:0 13:0.39607843 14:0 15:0 16:0.0012886598 17:0.14824121 18:0.55898876 19:0.026365348 20:0.0011376564 21:0.60159893 22:0.061567164 23:0.18617021 24:0.43088942 25:0.3845679 26:0.4281067 27:0.50714967 28:0.38785714 29:0.16552198 30:0.40095181 31:0.28506787 32:0.061082024 33:0.62660944 34:0.46827795 35:0.18870968 36:0.42207358 37:0.059863946 38:0.44671202 39:0.37082729 40:0.27746479 41:0.35470668 42:0.35412335 43:0.35228849 44:0.31805556 45:0.040913416 46:0.003003003 47:0.00099700897 48:0 49:0 50:0 51:0.32211538 52:0.094214876 53:0.062753036 54:0.066225166 55:0.0011376564 56:0.091304348 57:0.20506912 58:0.31438127 59:0.42635659 60:0.29268293 61:0.28832487 62:0 63:0 64:0.0082781457 65:0.58128079 66:0.077854671 67:0.21917808 68:0.062656642 69:0.26760563 70:0.24772727 71:0 72:0.0031347962 73:0.39726027 74:0 75:0 76:0.0012886598 77:0.55898876 78:0.026365348 79:0.14713217 80:0.0011376564 81:0.91114983 82:0.2733119 83:0.34754402 84:0.060362173 85:0.61475034 86:0.1996587 87:0.037037037 88:0.31683168 89:0.65086207 90:0.18068536 91:0.061452514 92:0.036363636 93:0.02173913 94:0.028469751 95:0.092715232 96:0.23809524 97:0.28 98:0.057077626 99:0.0051480051 100:0.02173913 101:0.054450262 102:0.011764706 103:0 104:0 105:0 106:0 107:0 108:0 109:0.0025316456 110:0 111:0 112:0 113:0 114:0 115:0 116:0 117:0 118:0 119:0 120:0 121:0.013063594 122:0.024072361 123:0.0099233785 124:0.0099278107 125:0.047524116 126:1 127:0.43698024 
1 1:0.031568228 2:0.14321608 3:0 4:0 5:0 6:0.37976783 7:0.039792388 8:0.040100251 9:0.014084507 10:0.16136364 11:0 12:0 13:0.24117647 14:0 15:0 16:0 17:0.077889447 18:0.39606742 19:0.28625235 20:0 21:0.36442372 22:0.044154229 23:0.14760638 24:0.12259615 25:0.086419753 26:0.0611581 27:0.017159199 28:0.052142857 29:0.19436813 30:0.11600238 31:0.41855204 32:0.30017452 33:0.49356223 34:0.36555891 35:0.17903226 36:0.52040134 37:0.078911565 38:0.39115646 39:0.29535559 40:0.27746479 41:0.045020464 42:0.035343035 43:0.036754508 44:0.038888889 45:0.038058991 46:0.001001001 47:0.0029910269 48:0.002 49:0 50:0 51:0.35576923 52:0.033057851 53:0.0951417 54:0.11258278 55:0 56:0.20869565 57:0.20046083 58:0.31103679 59:0.35658915 60:0.36236934 61:0.031472081 62:0 63:0 64:0 65:0.39408867 66:0.039792388 67:0.13013699 68:0.040100251 69:0.014084507 70:0.16136364 71:0 72:0 73:0.2407045 74:0 75:0.0045112782 76:0 77:0.39606742 78:0.28625235 79:0.077306733 80:0 81:0.40069686 82:0.27652733 83:0.1102873 84:0.064386318 85:0.57764544 86:0.071672355 87:0.013888889 88:0.03960396 89:0.30603448 90:0.065420561 91:0.011173184 92:0.054545455 93:0.010869565 94:0.024911032 95:0.092715232 96:0.15873016 97:0.24533333 98:0.063926941 99:0.0025740026 100:0.008361204 101:0.056544503 102:0.0039215686 103:0.0035335689 104:0 105:0 106:0.0064308682 107:0 108:0.013452915 109:0.0075949367 110:0 111:0 112:0 113:0 114:0 115:0 116:0 117:0 118:0 119:0.012931034 120:0.0036101083 121:0.0071669895 122:0.020765798 123:0.0019812712 124:0.0007374713 125:0.018038084 126:1 127:0.30231802 
1 1:0.053971487 2:0.22110553 3:0 4:0 5:0.011589404 6:0.75787728 7:0.083044983 8:0.20300752 9:0.11971831 10:0.69545455 11:0 12:0 13:0.4254902 14:0 15:0 16:0.0025773196 17:0.20100503 18:0.61235955 19:0.016949153 20:0.0056882821 21:0.66755496 22:0.064676617 23:0.23138298 24:0.1484375 25:0.17160494 26:0.14964216 27:0.096282173 28:0.24428571 29:0.26510989 30:0.20582986 31:0.34841629 32:0.19546248 33:0.58798283 34:0.66012085 35:0.19032258 36:0.38662207 37:0.14285714 38:0.45011338 39:0.46298984 40:0.61971831 41:0.075034106 42:0.072072072 43:0.075589459 44:0.079166667 45:0.053282588 46:0.002002002 47:0.0049850449 48:0.001 49:0.00099700897 50:0 51:0.33173077 52:0.076033058 53:0.12753036 54:0.099337748 55:0.0056882821 56:0.16521739 57:0.12903226 58:0.4180602 59:0.43604651 60:0.20905923 61:0.053807107 62:0 63:0 64:0.011589404 65:0.77504105 66:0.083044983 67:0.21232877 68:0.20300752 69:0.11971831 70:0.69545455 71:0 72:0.0031347962 73:0.42465753 74:0 75:0 76:0.0038659794 77:0.61235955 78:0.016949153 79:0.20199501 80:0.0056882821 81:0.7543554 82:0.33118971 83:0.10287303 84:0.096579477 85:0.67063674 86:0.10068259 87:0.078703704 88:0.14356436 89:0.72844828 90:0.35202492 91:0.011173184 92:0.054545455 93:0.24637681 94:0.024911032 95:0.19205298 96:0.11111111 97:0.576 98:0.11872146 99:0.0077220077 100:0.015050167 101:0.1026178 102:0.0019607843 103:0.021201413 104:0 105:0.0010799136 106:0 107:0 108:0.0089686099 109:0.015189873 110:0 111:0 112:0 113:0 114:0 115:0 116:0 117:0 118:0 119:0 120:0.0036101083 121:0.0033949039 122:0.0096204432 123:0.0025871324 124:0.0020850141 125:0.019102608 126:1 127:0.67588933 
1 1:0.050916497 2:0.11306533 3:0 4:0 5:0.0099337748 6:0.63349917 7:0.051903114 8:0.055137845 9:0 10:0.15681818 11:0 12:0 13:0.25686275 14:0 15:0.0015128593 16:0.0012886598 17:0.08040201 18:0.54775281 19:0.4519774 20:0.0011376564 21:0.48967355 22:0.057835821 23:0.16954787 24:0.13221154 25:0.11049383 26:0.086532206 27:0.0085795996 28:0.08 29:0.23763736 30:0.18024985 31:0.65837104 32:0.45026178 33:0.5944206 34:0.51661631 35:0.19032258 36:0.64682274 37:0.07755102 38:0.52154195 39:0.39187228 40:0.7915493 41:0.060027285 42:0.058212058 43:0.054785021 44:0.052777778 45:0.041864891 46:0.001001001 47:0 48:0 49:0 50:0 51:0.42788462 52:0.042975207 53:0.1194332 54:0.8807947 55:0.0011376564 56:0.66956522 57:0.23732719 58:0.4548495 59:0.30232558 60:0.5087108 61:0.050761421 62:0 63:0 64:0.0099337748 65:0.64860427 66:0.051903114 67:0.068493151 68:0.055137845 69:0 70:0.15681818 71:0 72:0.0047021944 73:0.25831703 74:0 75:0.0015037594 76:0.0012886598 77:0.54775281 78:0.4519774 79:0.079800499 80:0.0011376564 81:0.51567944 82:0.33279743 83:0.11306766 84:0.096579477 85:0.71140632 86:0.051194539 87:0.013888889 88:0.084158416 89:0.44396552 90:0.11838006 91:0.0055865922 92:0.072727273 93:0.02173913 94:0.021352313 95:0.092715232 96:0.12698413 97:0.35733333 98:0.073059361 99:0.01029601 100:0.02006689 101:0.054450262 102:0.0039215686 103:0.017667845 104:0 105:0.0021598272 106:0 107:0 108:0.0044843049 109:0 110:0 111:0 112:0 113:0 114:0 115:0 116:0 117:0 118:0 119:0.0075431034 120:0 121:0.045701911 122:0.15105924 123:0.0384796 124:0.0079204507 125:0.19830919 126:1 127:0.52121739 
1 1:0.057026477 2:0.057788945 3:0 4:0 5:0.005794702 6:0.48258706 7:0.316609 8:0.17042607 9:0.34507042 10:0.20227273 11:0 12:0 13:0.45882353 14:0 15:0 16:0.0012886598 17:0.1080402 18:0.48033708 19:0.04519774 20:0 21:0.51632245 22:0.046641791 23:0.16356383 24:0.16826923 25:0.16049383 26:0.17306441 27:0.1792183 28:0.31285714 29:0.14629121 30:0.21832243 31:0.27375566 32:0.083769634 33:0.47639485 34:0.60876133 35:0.15322581 36:0.35518395 37:0.11836735 38:0.33446712 39:0.39332366 40:0.32464789 41:0.09686221 42:0.096327096 43:0.09778086 44:0.095833333 45:0.033301618 46:0.001001001 47:0.00099700897 48:0 49:0 50:0 51:0.35096154 52:0.039669421 53:0.091093117 54:0.092715232 55:0 56:0.16956522 57:0.071428571 58:0.47157191 59:0.27713178 60:0.12543554 61:0.056852792 62:0 63:0 64:0.005794702 65:0.48932677 66:0.316609 67:0.5 68:0.17042607 69:0.34507042 70:0.20227273 71:0 72:0.0062695925 73:0.45792564 74:0 75:0 76:0.0012886598 77:0.48033708 78:0.04519774 79:0.10972569 80:0 81:0.68641115 82:0.40032154 83:0.11399444 84:0.058350101 85:0.49885479 86:0.10750853 87:0.037037037 88:0.064356436 89:0.77586207 90:0.57009346 91:0.0055865922 92:0 93:0.025362319 94:0.060498221 95:0.066225166 96:0.095238095 97:0.33333333 98:0.068493151 99:0.0038610039 100:0.02006689 101:0.035602094 102:0.0039215686 103:0.0070671378 104:0 105:0 106:0 107:0 108:0.0089686099 109:0.010126582 110:0 111:0 112:0 113:0 114:0 115:0 116:0 117:0 118:0 119:0.0010775862 120:0 121:0.0062764665 122:0.013397869 123:0.0075629779 124:0.0053825076 125:0.025377854 126:1 127:0.48567984 
1 1:0 2:0.066582915 3:0 4:0 5:0.0066225166 6:0.45107794 7:0.19031142 8:0.07518797 9:0.035211268 10:0.011363636 11:0 12:0 13:0.25098039 14:0 15:0 16:0 17:0.22361809 18:0.23876404 19:0.056497175 20:0.0022753129 21:0.29713524 22:0.082711443 23:0.12699468 24:0.092548077 25:0.091358025 26:0.017566688 27:0.0095328885 28:0.022857143 29:0.11881868 30:0.066032124 31:0.21493213 32:0.068062827 33:0.24892704 34:0.27039275 35:0.15483871 36:0.21270903 37:0.11972789 38:0.25056689 39:0.22859216 40:0.27816901 41:0.0061391542 42:0.0020790021 43:0.0034674064 44:0.0048611111 45:0.048525214 46:0.003003003 47:0.00099700897 48:0 49:0 50:0 51:0.24519231 52:0.024793388 53:0.08097166 54:0.066225166 55:0.0022753129 56:0.1 57:0.10829493 58:0.2909699 59:0.33333333 60:0.12195122 61:0 62:0 63:0 64:0.0066225166 65:0.44663383 66:0.19031142 67:0.02739726 68:0.07518797 69:0.035211268 70:0.013636364 71:0 72:0.0078369906 73:0.25048924 74:0 75:0 76:0 77:0.23876404 78:0.056497175 79:0.2319202 80:0.0022753129 81:0.27439024 82:0.22347267 83:0.030583874 84:0.018108652 85:0.30874943 86:0.017064846 87:0.023148148 88:0.059405941 89:0.19396552 90:0.11214953 91:0.0055865922 92:0.018181818 93:0.039855072 94:0.053380783 95:0.052980132 96:0.15873016 97:0.28533333 98:0.029680365 99:0.0051480051 100:0.011705686 101:0.058638743 102:0.02745098 103:0.0035335689 104:0 105:0 106:0 107:0 108:0.080717489 109:0.096202532 110:0 111:0 112:0 113:0 114:0 115:0 116:0 117:0 118:0 119:0 120:0.0036101083 121:0.0012567753 122:0.0014322495 123:0.00096912829 124:0.00035952712 125:0.00067529394 126:1 127:0.064542478 
1 1:0.038696538 2:0.16457286 3:0 4:0 5:0.0016556291 6:0.5721393 7:0.12629758 8:0.05764411 9:0.14788732 10:0.13181818 11:0 12:0 13:0.36078431 14:0 15:0 16:0 17:0.51507538 18:0.43258427 19:0.18079096 20:0.0045506257 21:0.59826782 22:0.060323383 23:0.15957447 24:0.15504808 25:0.12530864 26:0.13142485 27:0.11534795 28:0.20571429 29:0.13461538 30:0.15110054 31:0.51809955 32:0.19895288 33:0.47639485 34:0.418429 35:0.14516129 36:0.51103679 37:0.073469388 38:0.35600907 39:0.40928882 40:0.39859155 41:0.071623465 42:0.071379071 43:0.074895978 44:0.074305556 45:0.031398668 46:0 47:0.0039880359 48:0 49:0 50:0 51:0.19711538 52:0.052892562 53:0.22064777 54:0.23178808 55:0.0045506257 56:0.14782609 57:0.21198157 58:0.55183946 59:0.64728682 60:0.22996516 61:0.03857868 62:0 63:0 64:0.0016556291 65:0.57307061 66:0.12629758 67:0.49315068 68:0.05764411 69:0.14788732 70:0.13181818 71:0 72:0 73:0.36007828 74:0 75:0.0015037594 76:0 77:0.43258427 78:0.18079096 79:0.51371571 80:0.0045506257 81:0.60191638 82:0.47427653 83:0.10009268 84:0.044265594 85:0.74896931 86:0.13139932 87:0.013888889 88:0.054455446 89:0.57327586 90:0.21183801 91:0.016759777 92:0.072727273 93:0.014492754 94:0.056939502 95:0.099337748 96:0.22222222 97:0.25066667 98:0.0456621 99:0.0012870013 100:0.023411371 101:0.10471204 102:0.13529412 103:0.028268551 104:0 105:0.0043196544 106:0 107:0 108:0.0089686099 109:0.020253165 110:0 111:0 112:0 113:0 114:0 115:0 116:0 117:0 118:0 119:0 120:0.0018050542 121:0.0040087872 122:0.0083743891 123:0.0033954864 124:0.0029107628 125:0.012738676 126:1 127:0.3816996 
1 1:0 2:0.033919598 3:0 4:0 5:0.0033112583 6:0.37147595 7:0.038062284 8:0.0050125313 9:0 10:0.0068181818 11:0 12:0 13:0.19411765 14:0 15:0 16:0 17:0.20351759 18:0.23033708 19:0.43691149 20:0 21:0.32445037 22:0.027363184 23:0.085771277 24:0.10036058 25:0.059259259 26:0.026024723 27:0.0028598665 28:0.025 29:0.25892857 30:0.073765616 31:0.80316742 32:0.45898778 33:0.3304721 34:0.32779456 35:0.10806452 36:0.56521739 37:0.17006803 38:0.52267574 39:0.30478955 40:0.31197183 41:0.0095497954 42:0.0041580042 43:0.00069348128 44:0.0034722222 45:0.028544244 46:0.004004004 47:0 48:0 49:0.00099700897 50:0 51:0.52403846 52:0.019834711 53:0.093117409 54:0.39735099 55:0 56:0.2826087 57:0.15207373 58:0.33444816 59:0.41472868 60:0.52961672 61:0 62:0 63:0 64:0.0033112583 65:0.39244663 66:0.038062284 67:0.020547945 68:0.0050125313 69:0 70:0.0068181818 71:0 72:0.0078369906 73:0.19373777 74:0 75:0 76:0 77:0.23033708 78:0.43691149 79:0.20199501 80:0 81:0.33188153 82:0.27170418 83:0.09360519 84:0.094567404 85:0.55794778 86:0.013651877 87:0 88:0.064356436 89:0.28448276 90:0.031152648 91:0.011173184 92:0.10909091 93:0.0072463768 94:0.010676157 95:0.1589404 96:0.063492063 97:0.23466667 98:0.034246575 99:0.0012870013 100:0.0050167224 101:0 102:0 103:0 104:0 105:0 106:0 107:0 108:0 109:0 110:0 111:0 112:0 113:0 114:0 115:0 116:0 117:0 118:0 119:0 120:0 121:0.014734153 122:0.03297512 123:0.0064628509 124:0.0014675451 125:0.0035519035 126:1 127:0.028956522 
1 1:0.13747454 2:0.10175879 3:0 4:0.0045248869 5:0 6:0.50082919 7:0.0034602076 8:0.035087719 9:0.14788732 10:0.30227273 11:0 12:0 13:0.34509804 14:0 15:0 16:0.0025773196 17:0.13065327 18:0.79494382 19:0.1393597 20:0 21:0.72018654 22:0.083955224 23:0.63031915 24:0.28004808 25:0.25987654 26:0.24528302 27:1 28:1 29:0.29945055 30:0.36228435 31:0.48642534 32:0.20942408 33:0.86480687 34:0.64199396 35:0.23225806 36:0.50568562 37:0.14557823 38:0.54421769 39:0.48911466 40:0.77253521 41:0.17667121 42:0.17671518 43:0.19278779 44:0.175 45:0.057088487 46:0.015015015 47:0.043868395 48:0.003 49:0.0029910269 50:0.0020080321 51:0.39903846 52:0.054545455 53:0.24898785 54:0.059602649 55:0 56:0.039130435 57:0.19585253 58:0.61204013 59:0.4379845 60:0.32055749 61:0.13908629 62:0 63:0.0045248869 64:0 65:0.50410509 66:0.0034602076 67:0.10958904 68:0.035087719 69:0.14788732 70:0.30227273 71:0 72:0.014106583 73:0.3444227 74:0 75:0 76:0.0051546392 77:0.79494382 78:0.1393597 79:0.13216958 80:0 81:0.8945993 82:0.24598071 83:0.26969416 84:0.070422535 85:0.79019698 86:0.17406143 87:0.092592593 88:0.23267327 89:0.51293103 90:0.23676012 91:0.016759777 92:0.12727273 93:0.050724638 94:0.049822064 95:0.25827815 96:0.14285714 97:0 98:0.15981735 99:0.014157014 100:0.026755853 101:0.0041884817 102:0 103:0 104:0 105:0 106:0 107:0 108:0 109:0 110:0 111:0 112:0 113:0 114:0 115:0 116:0 117:0 118:0 119:0 120:0 121:0.0086474637 122:0.00013147469 123:8.7196381e-05 124:0.0086130117 125:0 126:1 127:0 
1 1:0.043788187 2:0.20351759 3:0 4:0 5:0.0024834437 6:0.24212272 7:0.074394464 8:0.027568922 9:0.035211268 10:0.068181818 11:0.0033557047 12:0.001572327 13:0.1372549 14:0 15:0 16:0.0025773196 17:0.032663317 18:0.17696629 19:0.032015066 20:0.0011376564 21:0.24583611 22:0.041044776 23:0.1356383 24:0.088341346 25:0.075925926 26:0.079375407 27:0.047664442 28:0.19428571 29:0.095467033 30:0.10945866 31:0.16968326 32:0.041884817 33:0.21244635 34:0.26586103 35:0.11935484 36:0.17123746 37:0.047619048 38:0.59297052 39:0.37590711 40:0.14507042 41:0.054570259 42:0.053361053 43:0.054785021 44:0.053472222 45:0.035204567 46:0 47:0 48:0 49:0 50:0 51:0.125 52:0.047933884 53:0.05465587 54:0.046357616 55:0.0011376564 56:0.060869565 57:0.039170507 58:0.27759197 59:0.16085271 60:0.059233449 61:0.043654822 62:0 63:0 64:0.0024834437 65:0.24794745 66:0.074394464 67:0.10958904 68:0.027568922 69:0.042253521 70:0.068181818 71:0.001572327 72:0.0047021944 73:0.1369863 74:0 75:0.0015037594 76:0.0025773196 77:0.18258427 78:0.032015066 79:0.032418953 80:0.0011376564 81:0.51393728 82:0.15916399 83:0.10009268 84:0.040241449 85:0.38662391 86:0.037542662 87:0.018518519 88:0.074257426 89:0.34482759 90:0.14641745 91:0 92:0.036363636 93:0.010869565 94:0.0071174377 95:0.039735099 96:0.031746032 97:0.14133333 98:0.01369863 99:0.0025740026 100:0.026755853 101:0.048167539 102:0.0078431373 103:0.053003534 104:0 105:0 106:0 107:0 108:0.049327354 109:0.017721519 110:0 111:0 112:0 113:0 114:0 115:0 116:0 117:0 118:0 119:0.0043103448 120:0.0036101083 121:0.0042005215 122:0.018462407 123:0.0045719394 124:0.0016081822 125:0.012670207 126:1 127:0.36231884 
1 1:0.046843177 2:0.037688442 3:0 4:0 5:0.00082781457 6:0.29850746 7:0.0034602076 8:0.027568922 9:0.070422535 10:0.056818182 11:0 12:0 13:0.24313725 14:0 15:0.0015128593 16:0.0038659794 17:0.10050251 18:0.31460674 19:0.043314501 20:0.0022753129 21:0.32311792 22:0.053482587 23:0.14760638 24:0.11598558 25:0.1 26:0.096942095 27:0.32221163 28:0.075 29:0.1510989 30:0.15050565 31:0.34162896 32:0.10994764 33:0.36266094 34:0.40030211 35:0.14516129 36:0.27558528 37:0.093877551 38:0.19727891 39:0.30333817 40:0.1056338 41:0.048431105 42:0.046431046 43:0.052704577 44:0.044444444 45:0.052331113 46:0.002002002 47:0.0059820538 48:0 49:0.00099700897 50:0 51:0.26442308 52:0.046280992 53:0.072874494 54:0.013245033 55:0.0022753129 56:0.043478261 57:0.099078341 58:0.42474916 59:0.20930233 60:0.26480836 61:0.046700508 62:0 63:0 64:0.00082781457 65:0.30377668 66:0.0034602076 67:0.11643836 68:0.027568922 69:0.070422535 70:0.056818182 71:0 72:0.0062695925 73:0.2446184 74:0 75:0.0015037594 76:0.006443299 77:0.31460674 78:0.043314501 79:0.099750623 80:0.0022753129 81:0.59059233 82:0.12540193 83:0.14087118 84:0.044265594 85:0.33486028 86:0.054607509 87:0.023148148 88:0.11881188 89:0.6637931 90:0.093457944 91:0.027932961 92:0.34545455 93:0.0036231884 94:0.021352313 95:0.25165563 96:0.11111111 97:0.04 98:0.03196347 99:0.009009009 100:0.026755853 101:0.15183246 102:0.18823529 103:0.40282686 104:0 105:0 106:0 107:0 108:0.0044843049 109:0.2 110:0 111:0 112:0 113:0 114:0 115:0 116:0 117:0 118:0 119:0.0010775862 120:0 121:0.14184439 122:0.14362823 123:0.18808217 124:0.12785775 125:0.069941991 126:1 127:0.059229249 
1 1:0.0020366599 2:0.17336683 3:0 4:0 5:0.010761589 6:0.45273632 7:0.041522491 8:0.022556391 9:0 10:0.05 11:0 12:0 13:0.18823529 14:0.0016778523 15:0 16:0.0012886598 17:0.18090452 18:0.27247191 19:0.54425612 20:0.0034129693 21:0.38707528 22:0.035447761 23:0.15292553 24:0.067307692 25:0.067901235 26:0.029928432 27:0.0066730219 28:0.086428571 29:0.18337912 30:0.12552052 31:0.47511312 32:0.56195462 33:0.4055794 34:0.44712991 35:0.19354839 36:0.66220736 37:0.15510204 38:0.5260771 39:0.31712627 40:0.67605634 41:0.010914052 42:0.0013860014 43:0.0083217753 44:0.0055555556 45:0.036156042 46:0.004004004 47:0.00099700897 48:0 49:0 50:0 51:0.36057692 52:0.034710744 53:0.097165992 54:0.47019868 55:0.0034129693 56:0.65217391 57:0.19585253 58:0.26086957 59:0.50968992 60:0.58536585 61:0.0020304569 62:0 63:0 64:0.010761589 65:0.46305419 66:0.041522491 67:0 68:0.022556391 69:0 70:0.05 71:0 72:0.010971787 73:0.18982387 74:0.0016778523 75:0.0015037594 76:0.0012886598 77:0.27247191 78:0.54425612 79:0.17955112 80:0.0034129693 81:0.29006969 82:0.2170418 83:0.058387396 84:0.052313883 85:0.59230417 86:0.010238908 87:0.0092592593 88:0.03960396 89:0.35344828 90:0.065420561 91:0.011173184 92:0.12727273 93:0.018115942 94:0 95:0.13245033 96:0.17460317 97:0.464 98:0.0456621 99:0.01029601 100:0.016722408 101:0 102:0 103:0.0035335689 104:0 105:0 106:0 107:0 108:0 109:0 110:0 111:0 112:0 113:0 114:0 115:0 116:0 117:0 118:0 119:0 120:0 121:0.044196494 122:0.086413619 123:0.010398587 124:0.0066470823 125:0.01791855 126:1 127:0.048699605 
1 1:0.040733198 2:0.01758794 3:0 4:0 5:0.0024834437 6:0.59535655 7:0.076124567 8:0.0025062657 9:0.12676056 10:0 11:0 12:0 13:0.34901961 14:0 15:0 16:0 17:0.16331658 18:0.83707865 19:0.14312618 20:0 21:0.6715523 22:0.09141791 23:0.17619681 24:0.077524038 25:0.07037037 26:0.076122316 27:0 28:0.14928571 29:0.41414835 30:0.20582986 31:0.54298643 32:0.16753927 33:0.81974249 34:0.67975831 35:0.38709677 36:0.78394649 37:0.062585034 38:0.49206349 39:0.41146589 40:0.15070423 41:0.027967258 42:0.028413028 43:0.029126214 44:0.033333333 45:0.096098953 46:0 47:0.00099700897 48:0.001 49:0.00099700897 50:0 51:0.73557692 52:0.052892562 53:0.08097166 54:0.16556291 55:0 56:0.10869565 57:0.27880184 58:0.44816054 59:0.52906977 60:0.35191638 61:0.040609137 62:0 63:0 64:0.0024834437 65:0.61740558 66:0.076124567 67:0.10273973 68:0.0025062657 69:0.12676056 70:0 71:0 72:0 73:0.34833659 74:0 75:0 76:0 77:0.83707865 78:0.14312618 79:0.17705736 80:0 81:0.43379791 82:0.1977492 83:0.077849861 84:0.08249497 85:0.89372423 86:0.29522184 87:0.078703704 88:0.094059406 89:0.46982759 90:0.07788162 91:0 92:0 93:0.065217391 94:0.10676157 95:0.13245033 96:0.11111111 97:0.29333333 98:0.098173516 99:0 100:0.0050167224 101:0.89005236 102:0.13137255 103:0.084805654 104:0 105:0 106:1 107:0 108:0.044843049 109:0 110:0 111:0 112:0 113:0 114:0 115:0 116:0 117:0 118:0 119:1 120:0 121:0.022744255 122:0.0011065603 123:0.13496709 124:0.0060938293 125:0.00049844245 126:1 127:0.0026324111 
1 1:0.0050916497 2:0.12060302 3:0 4:0 5:0.0049668874 6:0.78441128 7:0.15051903 8:0.10526316 9:0 10:0.11818182 11:0 12:0 13:0.56862745 14:0 15:0.0015128593 16:0.0012886598 17:0.27386935 18:0.54775281 19:0.14312618 20:0.0045506257 21:0.53764157 22:0.14365672 23:0.15425532 24:0.18870192 25:0.064197531 26:0.044892648 27:0.035271687 28:0.11285714 29:0.40521978 30:0.10648424 31:0.54524887 32:0.15881326 33:0.53004292 34:0.52416918 35:0.17741935 36:0.43277592 37:0.11564626 38:0.43197279 39:0.39114659 40:0.80915493 41:0.012960437 42:0.0076230076 43:0.0090152566 44:0.011111111 45:0.18744053 46:0.004004004 47:0.0019940179 48:0 49:0 50:0 51:0.42307692 52:0.028099174 53:0.1437247 54:0.27152318 55:0.0045506257 56:0.69565217 57:0.12903226 58:0.36120401 59:0.66666667 60:0.14982578 61:0.0050761421 62:0 63:0 64:0.0049668874 65:0.78325123 66:0.15051903 67:0.10273973 68:0.10526316 69:0 70:0.11818182 71:0 72:0.0062695925 73:0.56751468 74:0 75:0.0015037594 76:0.0012886598 77:0.54775281 78:0.14312618 79:0.27182045 80:0.0045506257 81:0.51393728 82:0.34565916 83:0.056533828 84:0.042253521 85:0.55840586 86:0.058020478 87:0.046296296 88:0.059405941 89:0.25431034 90:0.33333333 91:0.011173184 92:0.072727273 93:0.014492754 94:0.028469751 95:0.072847682 96:0.17460317 97:0.24266667 98:0.089041096 99:0.009009009 100:0.013377926 101:0.014659686 102:0 103:0.0035335689 104:0 105:0 106:0 107:0 108:0 109:0 110:0 111:0 112:0 113:0 114:0 115:0 116:0 117:0 118:0 119:0 120:0.0018050542 121:0.0018672171 122:0.0025169521 123:0.00038416268 124:0.00096583833 125:0.0045349746 126:1 127:0.29173628 
1 1:0.063136456 2:0.13190955 3:0 4:0 5:1 6:0.27694859 7:0.031141869 8:0.23809524 9:0 10:0.12272727 11:0 12:0 13:0.17843137 14:0.0016778523 15:0 16:0 17:0.032663317 18:0.22752809 19:0.41431262 20:0.026166098 21:0.29247169 22:0.052238806 23:0.13763298 24:0.13822115 25:0.096296296 26:0.081977879 27:0.0066730219 28:0.029285714 29:0.21222527 30:0.15110054 31:0.43665158 32:0.48516579 33:0.48283262 34:0.36253776 35:0.12258065 36:0.50100334 37:0.14829932 38:0.56802721 39:0.33671988 40:0.23732394 41:0.067530696 42:0.063756064 43:0.063106796 44:0.055555556 45:0.039961941 46:0 47:0.0019940179 48:0 49:0 50:0 51:0.43269231 52:0.023140496 53:0.08097166 54:0.25165563 55:0.026166098 56:0.11304348 57:0.10138249 58:0.42809365 59:0.32945736 60:0.51219512 61:0.063959391 62:0 63:0 64:1 65:0.28735632 66:0.031141869 67:0.01369863 68:0.23809524 69:0 70:0.125 71:0 72:0.0031347962 73:0.17808219 74:0.0016778523 75:0.0015037594 76:0 77:0.22752809 78:0.41431262 79:0.037406484 80:0.026166098 81:0.46864111 82:0.24115756 83:0.11955514 84:0.054325956 85:0.5387082 86:0.029010239 87:0.0092592593 88:0.059405941 89:0.32327586 90:0.040498442 91:0.011173184 92:0.054545455 93:0.0072463768 94:0.010676157 95:0.36423841 96:0.079365079 97:0.296 98:0.070776256 99:0.0012870013 100:0.011705686 101:0.011518325 102:0.0019607843 103:0 104:0 105:0.023758099 106:0 107:0 108:0 109:0.0025316456 110:0 111:0 112:0 113:0 114:0 115:0 116:0 117:0 118:0 119:0.0032327586 120:0 121:0.0030182449 122:0.025438725 123:0.0022391647 124:0.00038217212 125:0.0035754116 126:1 127:0.14229249 
1 1:0.047861507 2:0.16457286 3:0 4:0 5:0.0091059603 6:0.47429519 7:0.29411765 8:0.10275689 9:0.028169014 10:0.30227273 11:0.0016778523 12:0 13:0.3627451 14:0 15:0 16:0.0090206186 17:0.22864322 18:0.41573034 19:0.32768362 20:0.0045506257 21:0.54230513 22:0.06778607 23:0.19215426 24:0.13521635 25:0.1191358 26:0.096291477 27:0.063870353 28:0.28714286 29:0.18612637 30:0.1748959 31:0.42986425 32:0.35602094 33:0.48497854 34:0.48338369 35:0.24193548 36:0.57591973 37:0.11292517 38:0.46031746 39:0.42235123 40:0.48802817 41:0.049795362 42:0.043659044 43:0.053398058 44:0.044444444 45:0.047573739 46:0 47:0.0059820538 48:0 49:0.0019940179 50:0 51:0.39903846 52:0.047933884 53:0.13765182 54:0.21854305 55:0.0045506257 56:0.26956522 57:0.19124424 58:0.45150502 59:0.47093023 60:0.33449477 61:0.048730964 62:0 63:0 64:0.0091059603 65:0.48768473 66:0.29411765 67:0.082191781 68:0.10275689 69:0.028169014 70:0.30227273 71:0 72:0.015673981 73:0.36986301 74:0 75:0 76:0.0090206186 77:0.41573034 78:0.32768362 79:0.22942643 80:0.0045506257 81:0.58885017 82:0.29099678 83:0.14643188 84:0.07444668 85:0.60238204 86:0.056313993 87:0.023148148 88:0.16336634 89:0.57758621 90:0.27102804 91:0.027932961 92:0.16363636 93:0.047101449 94:0.021352313 95:0.1192053 96:0.11111111 97:0.22133333 98:0.084474886 99:0.015444015 100:0.023411371 101:0.019895288 102:0.0058823529 103:0.010600707 104:0 105:0 106:0 107:0 108:0.0044843049 109:0.0025316456 110:0 111:0 112:0 113:0 114:0 115:0 116:0 117:0.0024630542 118:0 119:0 120:0 121:0.029665723 122:0.084523589 123:0.026124302 124:0.015157885 125:0.12872516 126:1 127:0.52121739 
1 1:0 2:0.037688442 3:0 4:0 5:0.012417219 6:0.47097844 7:0.26124567 8:0.15288221 9:0 10:0.0090909091 11:0.068791946 12:0.064465409 13:0.19411765 14:0 15:0.0030257186 16:0.057989691 17:0.11557789 18:0.34269663 19:0.58945386 20:0.0022753129 21:0.37175217 22:0.03420398 23:0.14960106 24:0.10276442 25:0.045061728 26:0.020819779 27:0.012392755 28:0.08 29:0.17857143 30:0.11183819 31:0.58823529 32:0.59685864 33:0.42274678 34:0.35951662 35:0.17419355 36:0.71705686 37:0.093877551 38:0.67120181 39:0.3222061 40:0.28169014 41:0.040245566 42:0.00069300069 43:0.0048543689 44:0.0020833333 45:0.032350143 46:0.001001001 47:0.00099700897 48:0 49:0.0029910269 50:0 51:0.54807692 52:0.090909091 53:0.060728745 54:0.1986755 55:0.0022753129 56:0.24782609 57:0.20506912 58:0.4180602 59:0.55232558 60:0.71428571 61:0 62:0 63:0 64:0.012417219 65:0.49425287 66:0.26124567 67:0 68:0.15288221 69:0 70:0.0090909091 71:0.064465409 72:0.070532915 73:0.19373777 74:0 75:0.0030075188 76:0.057989691 77:0.34269663 78:0.58945386 79:0.11720698 80:0.0022753129 81:0.35191638 82:0.20418006 83:0.087117702 84:0.10462777 85:0.63536418 86:0.018771331 87:0.018518519 88:0.054455446 89:0.40086207 90:0.074766355 91:0.016759777 92:0 93:0 94:0.0071174377 95:0.13245033 96:0.063492063 97:0.312 98:0.043378995 99:0.06048906 100:0.076923077 101:0 102:0 103:0 104:0 105:0 106:0 107:0 108:0 109:0 110:0 111:0 112:0 113:0 114:0 115:0 116:0 117:0 118:0 119:0 120:0 121:0.051863405 122:0.1671669 123:0.014381475 124:0.010796267 125:0.011934209 126:1 127:0.027640316 
1 1:0.017311609 2:0.14447236 3:0 4:0 5:0.014900662 6:0.40298507 7:0.40484429 8:0.61152882 9:0.0070422535 10:1 11:0.011744966 12:0.0094339623 13:0.12745098 14:0 15:0 16:0.0090206186 17:0.040201005 18:0.82865169 19:0.14124294 20:0.019340159 21:0.55962692 22:0.14676617 23:0.15691489 24:0.088942308 25:0.047530864 26:0.062459336 27:0.037178265 28:0.21142857 29:0.17651099 30:0.25877454 31:0.89366516 32:0.15008726 33:0.76180258 34:0.82175227 35:0.075806452 36:0.38662207 37:0.059863946 38:0.23696145 39:0.26124819 40:0.64014085 41:0.024556617 42:0.019404019 43:0.020804438 44:0.01875 45:0.097050428 46:0.045045045 47:0.0029910269 48:0.002 49:0.00099700897 50:0 51:0.16346154 52:0.024793388 53:0.074898785 54:0.039735099 55:0.019340159 56:0.065217391 57:0.11981567 58:0.29431438 59:0.1744186 60:0.24390244 61:0.018274112 62:0 63:0 64:0.014900662 65:0.40558292 66:0.40484429 67:0.04109589 68:0.61152882 69:0.0070422535 70:1 71:0.0094339623 72:0.015673981 73:0.12720157 74:0 75:0 76:0.0090206186 77:0.82865169 78:0.14124294 79:0.049875312 80:0.019340159 81:0.3902439 82:0.14469453 83:0.20667285 84:0.036217304 85:0.51534585 86:0.17064846 87:0.4212963 88:0.24257426 89:0.36637931 90:0.059190031 91:0.022346369 92:0.072727273 93:0.036231884 94:0.0071174377 95:0.066225166 96:0.047619048 97:0.13066667 98:0.21004566 99:0.012870013 100:0.02173913 101:0.043979058 102:0.0019607843 103:0.27208481 104:0 105:0.0043196544 106:0.030546624 107:0 108:1 109:0.040506329 110:0 111:0 112:0 113:0 114:0 115:0 116:0 117:0 118:0 119:0.0064655172 120:0 121:0.057792906 122:0.29295002 123:0.21396734 124:0.046453063 125:0.26660601 126:1 127:0.55412253 
1 1:0.016293279 2:0.1620603 3:0 4:0 5:0 6:0.75124378 7:0.82179931 8:1 9:0.091549296 10:0.0022727273 11:0 12:0 13:0.42156863 14:0 15:0 16:0.0038659794 17:0.31155779 18:0.62640449 19:0.93785311 20:0.007963595 21:0.71152565 22:0.09079602 23:0.3025266 24:0.26141827 25:0.098765432 26:0.061808718 27:0.00095328885 28:0.105 29:0.23145604 30:0.15645449 31:0.56561086 32:1 33:0.83905579 34:0.59214502 35:0.21290323 36:0.92842809 37:0.11156463 38:0.54195011 39:0.5341074 40:0.071126761 41:0.038199181 42:0.031878032 43:0.029819695 44:0.029166667 45:0.04567079 46:0.005005005 47:0.0029910269 48:0 49:0 50:0 51:0.53846154 52:0.062809917 53:0.10121457 54:0.072847682 55:0.007963595 56:0.030434783 57:0.21889401 58:0.57859532 59:0.56395349 60:0.58188153 61:0.016243655 62:0 63:0 64:0 65:0.77339901 66:0.82179931 67:0.31506849 68:1 69:0.091549296 70:0.0022727273 71:0 72:0.010971787 73:0.42465753 74:0 75:0.0015037594 76:0.0051546392 77:0.62640449 78:0.93785311 79:0.31670823 80:0.007963595 81:0.68118467 82:0.75562701 83:0.09823911 84:0.092555332 85:0.80119102 86:0.07337884 87:0.11111111 88:0.10891089 89:0.60775862 90:0.18380062 91:0.05027933 92:0.12727273 93:0.0036231884 94:0.03202847 95:0.48344371 96:0.22222222 97:0.18133333 98:0.091324201 99:0.014157014 100:0.028428094 101:0 102:0 103:0 104:0 105:0 106:0 107:0 108:0 109:0 110:0 111:0 112:0 113:0 114:0 115:0 116:0 117:0 118:0 119:0 120:0 121:0.0024461458 122:0.0042546296 123:2.466562e-05 124:0.00035327802 125:5.3607509e-05 126:1 127:0.0026324111 
1 1:0.0081466395 2:0.13819095 3:0 4:0 5:0.0041390728 6:0.34162521 7:0.089965398 8:0.020050125 9:0.056338028 10:0.056818182 11:0 12:0 13:0.17647059 14:0 15:0 16:0.0012886598 17:0.11557789 18:0.26123596 19:0.099811676 20:0 21:0.34643571 22:0.078358209 23:0.095744681 24:0.0625 25:0.039506173 26:0.032530904 27:0.013346044 28:0.05 29:0.10233516 30:0.051754908 31:0.19004525 32:0.09947644 33:0.26180258 34:0.24471299 35:0.090322581 36:0.26822742 37:0.020408163 38:0.22335601 39:0.18867925 40:0.28169014 41:0.010231924 42:0.011088011 43:0.0097087379 44:0.011111111 45:0.057088487 46:0.001001001 47:0 48:0 49:0 50:0 51:0.29326923 52:0.034710744 53:0.066801619 54:0.066225166 55:0 56:0.15217391 57:0.14516129 58:0.22408027 59:0.31007752 60:0.1533101 61:0.0081218274 62:0 63:0 64:0.0041390728 65:0.33825944 66:0.089965398 67:0.28082192 68:0.020050125 69:0.056338028 70:0.056818182 71:0 72:0.0015673981 73:0.17612524 74:0 75:0.0015037594 76:0.0012886598 77:0.26123596 78:0.099811676 79:0.11471322 80:0 81:0.2674216 82:0.18810289 83:0.031510658 84:0.016096579 85:0.36097114 86:0.078498294 87:0.027777778 88:0.17326733 89:0.22413793 90:0.13084112 91:0.0055865922 92:0.018181818 93:0.0072463768 94:0.0035587189 95:0.01986755 96:0.095238095 97:0.23466667 98:0.01826484 99:0.0025740026 100:0.011705686 101:0.029319372 102:0.011764706 103:0.0035335689 104:0 105:0 106:0 107:0 108:0.14349776 109:0 110:0 111:0 112:0 113:0 114:0 115:0 116:0 117:0 118:0 119:0 120:0 121:0.00059538307 122:0.0010701795 123:0.00046522629 124:0.00023969838 125:0.0011127276 126:1 127:0.224493 
1 1:0.021384929 2:0.054020101 3:0 4:0 5:0.026490066 6:0.35323383 7:0.23702422 8:0.19799499 9:0.1056338 10:0.13863636 11:0.010067114 12:0.0062893082 13:0.25882353 14:0.0016778523 15:0 16:0.006443299 17:0.13316583 18:0.33146067 19:0.16195857 20:0.010238908 21:0.35309793 22:0.10696517 23:0.14361702 24:0.10576923 25:0.072222222 26:0.042290176 27:0.13727359 28:0.23785714 29:0.22527473 30:0.1302796 31:0.43891403 32:0.20593368 33:0.38412017 34:0.39728097 35:0.18064516 36:0.37324415 37:0.082993197 38:0.42176871 39:0.29535559 40:0.29014085 41:0.036152797 42:0.025641026 43:0.026352288 44:0.023611111 45:0.095147479 46:0.003003003 47:0.0039880359 48:0 49:0 50:0 51:0.40865385 52:0.034710744 53:0.085020243 54:0.092715232 55:0.010238908 56:0.16956522 57:0.089861751 58:0.37792642 59:0.36821705 60:0.31707317 61:0.021319797 62:0 63:0 64:0.026490066 65:0.36617406 66:0.23702422 67:0 68:0.19799499 69:0.1056338 70:0.14090909 71:0.0062893082 72:0.018808777 73:0.25831703 74:0.0016778523 75:0 76:0.006443299 77:0.33146067 78:0.16195857 79:0.13466334 80:0.010238908 81:0.41986063 82:0.20578778 83:0.11955514 84:0.034205231 85:0.43701328 86:0.034129693 87:0.037037037 88:0.23267327 89:0.3362069 90:0.087227414 91:0.027932961 92:0.054545455 93:0.036231884 94:0.017793594 95:0.11258278 96:0.11111111 97:0.34933333 98:0.063926941 99:0.011583012 100:0.018394649 101:0.0031413613 102:0.0019607843 103:0 104:0 105:0 106:0 107:0 108:0 109:0 110:0 111:0 112:0 113:0 114:0 115:0 116:0 117:0 118:0 119:0 120:0 121:0.011782382 122:0.041505278 123:0.0095728983 124:0.0044611153 125:0.022920523 126:1 127:0.23366939 
1 1:0.056008147 2:0.25125628 3:0 4:0 5:0.016556291 6:0.44112769 7:0.038062284 8:0.067669173 9:0.098591549 10:0.056818182 11:0.005033557 12:0 13:0.31176471 14:0 15:0 16:0.0012886598 17:0.11055276 18:0.47752809 19:0.077212806 20:0.007963595 21:0.57894737 22:0.073383085 23:0.2293883 24:0.18269231 25:0.14938272 26:0.11776187 27:0.030505243 28:0.39571429 29:0.20535714 30:0.19928614 31:0.38914027 32:0.11867365 33:0.53218884 34:0.53625378 35:0.2 36:0.46421405 37:0.10068027 38:0.44217687 39:0.38751814 40:0.39788732 41:0.087312415 42:0.083160083 43:0.084604716 44:0.078472222 45:0.050428164 46:0.007007007 47:0.0019940179 48:0 49:0 50:0 51:0.32692308 52:0.05785124 53:0.14574899 54:0.099337748 55:0.007963595 56:0.22608696 57:0.15668203 58:0.4180602 59:0.3875969 60:0.34146341 61:0.056852792 62:0 63:0 64:0.016556291 65:0.45155993 66:0.038062284 67:0.16438356 68:0.067669173 69:0.098591549 70:0.056818182 71:0 72:0.0078369906 73:0.31702544 74:0 75:0 76:0.0012886598 77:0.47752809 78:0.077212806 79:0.10972569 80:0.007963595 81:0.48344948 82:0.32797428 83:0.31881372 84:0.076458753 85:0.56619331 86:0.10068259 87:0.037037037 88:0.099009901 89:0.60344828 90:0.1682243 91:0 92:0.10909091 93:0.028985507 94:0.017793594 95:0.14569536 96:0.12698413 97:0.52266667 98:0.059360731 99:0.0025740026 100:0.031772575 101:0.3078534 102:0.35294118 103:0.75618375 104:0 105:0 106:0 107:0 108:0.0044843049 109:0.012658228 110:0.027303754 111:0 112:0 113:0 114:0 115:0 116:0 117:0 118:0 119:0.0010775862 120:0.0054151625 121:0.0035898543 122:0.0093221929 123:0.0070345096 124:0.0024313754 125:0.0067264548 126:1 127:0.22507115 
1 1:0.063136456 2:0.087939698 3:0 4:0 5:0.024006623 6:0.82587065 7:0.038062284 8:0.47117794 9:0.45070423 10:0.1 11:0 12:0 13:0.41372549 14:0 15:0.0015128593 16:0.0012886598 17:0.14321608 18:0.6011236 19:0.060263653 20:0.0068259386 21:0.84477015 22:0.096393035 23:0.27260638 24:0.20853365 25:0.16296296 26:0.25634353 27:0.44613918 28:0.28142857 29:0.27472527 30:0.21237359 31:0.36425339 32:0.10122164 33:0.58583691 34:0.45015106 35:0.17903226 36:0.42675585 37:0.084353741 38:0.34920635 39:0.40783745 40:0.25352113 41:0.11255116 42:0.11157311 43:0.10957004 44:0.10763889 45:0.071360609 46:0.001001001 47:0.00099700897 48:0 49:0 50:0 51:0.28365385 52:0.047933884 53:0.097165992 54:0.072847682 55:0.0068259386 56:0.13478261 57:0.17281106 58:0.37458194 59:0.32751938 60:0.14285714 61:0.062944162 62:0 63:0 64:0.024006623 65:0.8456486 66:0.038062284 67:0.52054795 68:0.47117794 69:0.45070423 70:0.1 71:0 72:0.0078369906 73:0.41291585 74:0 75:0.0015037594 76:0.0012886598 77:0.6011236 78:0.060263653 79:0.1446384 80:0.0068259386 81:0.86672474 82:0.37299035 83:0.2965709 84:0.058350101 85:0.69995419 86:0.20989761 87:0.12962963 88:0.21287129 89:0.81896552 90:0.43613707 91:0.022346369 92:0.018181818 93:0.02173913 94:0.060498221 95:0.13245033 96:0.11111111 97:0.232 98:0.075342466 99:0.0064350064 100:0.010033445 101:0.013612565 102:0.0078431373 103:0.017667845 104:0 105:0 106:0 107:0 108:0.0044843049 109:0 110:0 111:0 112:0 113:0 114:0 115:0 116:0 117:0 118:0 119:0 120:0 121:0.0065225192 122:0.014518102 123:0.0059411855 124:0.004424139 125:0.020154767 126:1 127:0.37116996 
1 1:0.0010183299 2:0.15201005 3:0 4:0 5:0.00082781457 6:0.41791045 7:0.065743945 8:0.13283208 9:0 10:0.020454545 11:0.0016778523 12:0 13:0.13137255 14:0 15:0.0030257186 16:0.0038659794 17:0.42462312 18:0.24438202 19:0.33709981 20:0.0068259386 21:0.28514324 22:0.032960199 23:0.12034574 24:0.052884615 25:0.041975309 26:0.021470397 27:0.019065777 28:0.039285714 29:0.17445055 30:0.17787032 31:0.61085973 32:0.34205934 33:0.30257511 34:0.38670695 35:0.12903226 36:0.45886288 37:0.078911565 38:0.30952381 39:0.25181422 40:0.2471831 41:0.002728513 42:0.0013860014 43:0.0013869626 44:0.00069444444 45:0.039961941 46:0.005005005 47:0.0079760718 48:0 49:0.0029910269 50:0 51:0.30769231 52:0.026446281 53:0.058704453 54:0.072847682 55:0.0068259386 56:0.013043478 57:0.14516129 58:1 59:0.49612403 60:0.24041812 61:0.0010152284 62:0 63:0 64:0.00082781457 65:0.42364532 66:0.065743945 67:0.047945205 68:0.13283208 69:0 70:0.020454545 71:0 72:0.0062695925 73:0.13111546 74:0 75:0.0030075188 76:0.0038659794 77:0.24719101 78:0.33709981 79:0.42144638 80:0.0068259386 81:0.31968641 82:0.22829582 83:0.084337349 84:0.052313883 85:0.4768667 86:0.037542662 87:0.027777778 88:0.054455446 89:0.20689655 90:0.046728972 91:0.011173184 92:0.018181818 93:0.014492754 94:0.017793594 95:0.079470199 96:0.095238095 97:0.288 98:0.0456621 99:0.009009009 100:0.013377926 101:0 102:0 103:0 104:0 105:0 106:0 107:0 108:0 109:0 110:0 111:0 112:0 113:0 114:0 115:0 116:0 117:0 118:0 119:0 120:0 121:0.0041078384 122:0.0014754118 123:0 124:0.0038866941 125:0.00063079639 126:1 127:0.018445323 
1 1:0.039714868 2:0.10929648 3:0 4:0 5:0.0049668874 6:0.39303483 7:0.034602076 8:0.047619048 9:0.014084507 10:0.10454545 11:0.058724832 12:0.055031447 13:0.22941176 14:0 15:0 16:0 17:0.35427136 18:0.35674157 19:0.25423729 20:0 21:0.43904064 22:0.059079602 23:0.15691489 24:0.11237981 25:0.087654321 26:0.082628497 27:0.028598665 28:0.12785714 29:0.1510989 30:0.19214753 31:0.37104072 32:0.30890052 33:0.45064378 34:0.35649547 35:0.22096774 36:0.55384615 37:0.06122449 38:0.4478458 39:0.33817126 40:0.66338028 41:0.047066849 42:0.044352044 43:0.046463245 44:0.047222222 45:0.058991437 46:0.005005005 47:0.00099700897 48:0 49:0 50:0 51:0.42307692 52:0.099173554 53:0.14574899 54:0.22516556 55:0 56:0.56521739 57:0.18663594 58:0.37458194 59:0.58527132 60:0.45993031 61:0.039593909 62:0 63:0 64:0.0049668874 65:0.40065681 66:0.034602076 67:0.047945205 68:0.047619048 69:0.014084507 70:0.10681818 71:0.055031447 72:0.05799373 73:0.22896282 74:0 75:0 76:0.0012886598 77:0.35674157 78:0.25423729 79:0.35162095 80:0 81:0.37804878 82:0.19935691 83:0.15755329 84:0.068410463 85:0.54649565 86:0.056313993 87:0.023148148 88:0.1039604 89:0.29741379 90:0.059190031 91:0.022346369 92:0.14545455 93:0.0036231884 94:0.028469751 95:0.11258278 96:0.14285714 97:0.384 98:0.054794521 99:0.011583012 100:0.075250836 101:0.0010471204 102:0 103:0 104:0 105:0 106:0 107:0 108:0 109:0 110:0 111:0 112:0 113:0 114:0 115:0 116:0 117:0 118:0 119:0.0021551724 120:0 121:0.056981915 122:0.117303 123:0.011299976 124:0.021510105 125:0.10302302 126:1 127:0.21717391 
1 1:0.016293279 2:0.29899497 3:0.11591356 4:0.22624434 5:0.00082781457 6:0.37976783 7:0.42560554 8:0.23809524 9:0.0070422535 10:0.095454545 11:0.005033557 12:0 13:0.32156863 14:0 15:0 16:0 17:0.072864322 18:0.48314607 19:0.37288136 20:0 21:0.59893404 22:0.23320896 23:0.48736702 24:0.13161058 25:0.11111111 26:0.039037085 27:0.12869399 28:0.076428571 29:0.42994505 30:0.24390244 31:0.42081448 32:0.38917976 33:0.51716738 34:0.66314199 35:0.18387097 36:0.59130435 37:0.11564626 38:0.39002268 39:0.35921626 40:0.3528169 41:0.025238745 42:0.022176022 43:0.020804438 44:0.022916667 45:0.25499524 46:0.2002002 47:0.2113659 48:0.212 49:0.21236291 50:0.21184739 51:0.375 52:0.021487603 53:0.10931174 54:0.052980132 55:0 56:0.07826087 57:0.1359447 58:0.38795987 59:0.36821705 60:0.36585366 61:0.017258883 62:0.11591356 63:0.22624434 64:0.00082781457 65:0.38587849 66:0.42560554 67:0 68:0.23809524 69:0.0070422535 70:0.095454545 71:0 72:0.014106583 73:0.32093933 74:0 75:0 76:0.0012886598 77:0.48314607 78:0.37288136 79:0.074812968 80:0 81:0.47909408 82:0.31993569 83:0.096385542 84:0.31790744 85:0.53137884 86:0.044368601 87:0.6712963 88:0.33663366 89:0.56465517 90:0.074766355 91:0.016759777 92:0.072727273 93:0.039855072 94:0.0071174377 95:0.1192053 96:0.22222222 97:0.10933333 98:0.084474886 99:0.0038610039 100:0.015050167 101:0.0020942408 102:0 103:0 104:1 105:0.0043196544 106:0 107:0 108:0.0044843049 109:0 110:0 111:0 112:0 113:0 114:0 115:0 116:0 117:0 118:0 119:0.0021551724 120:0 121:0.007068835 122:0.00384755 123:0.0085771599 124:0.005780392 125:0.0035630259 126:1 127:0.060545455 
1 1:0.010183299 2:0.090452261 3:0 4:0 5:0.01986755 6:0.49751244 7:0.022491349 8:0.21804511 9:0 10:0.12045455 11:0.0016778523 12:0 13:0.25490196 14:0 15:0 16:0.0038659794 17:0.16582915 18:0.47752809 19:0.6346516 20:0.0022753129 21:0.41905396 22:0.030472637 23:0.14960106 24:0.09375 25:0.090740741 26:0.05790501 27:0.056244042 28:0.21642857 29:0.18200549 30:0.11064842 31:0.49547511 32:0.62129145 33:0.57081545 34:0.42145015 35:0.13225806 36:0.7458194 37:0.14829932 38:0.56802721 39:0.33599419 40:0.78169014 41:0.02319236 42:0.02009702 43:0.02704577 44:0.023611111 45:0.020932445 46:0.001001001 47:0 48:0 49:0.0019940179 50:0 51:0.37019231 52:0.031404959 53:0.10526316 54:0.46357616 55:0.0022753129 56:0.64782609 57:0.13133641 58:0.43143813 59:0.55620155 60:0.54703833 61:0.010152284 62:0 63:0 64:0.01986755 65:0.5090312 66:0.022491349 67:0.047945205 68:0.21804511 69:0 70:0.12272727 71:0 72:0.0078369906 73:0.25440313 74:0 75:0 76:0.0051546392 77:0.48876404 78:0.6346516 79:0.16708229 80:0.0022753129 81:0.39547038 82:0.25080386 83:0.073215941 84:0.096579477 85:0.62757673 86:0.039249147 87:0.023148148 88:0.089108911 89:0.38362069 90:0.068535826 91:0.011173184 92:0.054545455 93:0.018115942 94:0 95:0.10596026 96:0.095238095 97:0.48 98:0.038812785 99:0.01029601 100:0.0066889632 101:0.013612565 102:0 103:0.0035335689 104:0 105:0 106:0 107:0 108:0 109:0 110:0 111:0 112:0 113:0 114:0 115:0 116:0 117:0 118:0 119:0.011853448 120:0 121:0.24385782 122:0.91132225 123:0.15655196 124:0.027689036 125:0.41150083 126:1 127:0.20269565 
